tree
version=v4
num_class=1
num_tree_per_iteration=1
label_index=0
max_feature_idx=11
objective=lambdarank
feature_names=country cod_section_group family pagetype_group hour embedding_pca_1 embedding_pca_2 embedding_pca_4 embedding_pca_5 embedding_pca_6 embedding_pca_9 embedding_pca_14
feature_infos=-1:1:3:2:0 [1:3] [1:211] -1:1 [0:23] [-6.4573087692260742:7.5027856826782227] [-6.2956123352050781:7.3879737854003906] [-5.4722957611083984:5.7508583068847656] [-5.508331298828125:5.8681225776672363] [-6.0564961433410645:5.9091091156005859] [-4.5596418380737305:4.7951984405517578] [-4.1033515930175781:4.4610147476196289]
tree_sizes=29145 29112 29184 29102 29021 29119 29052 29322 29004 29199 29035 29021 29066 29086 29121 29086 28953 29056 29232 29049 29207 29232 29184 29024 29014 28974 29109 29162 29169 28967 29313 28977 29326 29237 29067 29019 28996 28926

Tree=0
num_leaves=255
num_cat=8
split_feature=3 0 1 1 0 7 8 0 7 0 8 7 7 8 8 0 1 0 7 8 1 10 6 5 6 1 1 8 6 5 9 7 5 6 5 6 6 6 10 11 8 7 8 5 10 5 6 7 10 5 10 10 0 6 1 10 5 6 11 8 5 7 11 8 6 7 10 10 9 6 9 7 8 10 5 9 8 6 9 11 7 10 8 7 5 5 9 9 8 7 5 8 9 5 9 6 5 9 9 7 7 10 5 7 9 8 9 7 6 9 10 10 9 7 6 7 10 10 7 6 9 6 8 10 10 9 11 7 6 9 9 9 8 8 6 11 8 8 7 10 6 8 10 6 9 6 6 11 5 8 6 6 7 9 6 8 9 9 8 5 11 7 1 8 6 7 7 1 11 11 8 6 11 1 6 6 9 6 10 10 6 11 10 8 6 6 6 11 9 5 11 11 7 8 7 8 10 7 7 5 6 5 5 6 10 10 5 11 11 8 6 11 7 9 10 10 10 10 9 5 7 8 6 6 8 7 5 8 9 5 11 11 5 9 7 10 9 7 7 7 9 5 9 7 11 11 7 11 9 8 11 11 10 7
split_gain=203182 100389 27821.1 25044.5 11447.1 2999.83 2025.27 1826.7 1809.19 1428.75 1264.88 1105.85 1065.06 1057.51 1042.87 864.647 590.349 589.315 529.248 507.843 515.215 484.15 453.511 473.877 451.568 429.689 369.703 358.791 337.832 309.147 348.059 302.395 276.272 264.728 248.109 218.322 216.475 210.857 205.865 204.768 204.299 203.671 201.277 198.641 187.555 185.937 293.277 179.687 176.595 170.672 165.274 216.353 154.897 150.234 149.233 145.859 141.335 140.844 140.541 139.575 134.007 138.238 132.852 131.026 129.8 129.499 129.233 130.273 160.405 123.55 122.549 118.163 116.894 114.947 133.582 113.002 119.283 111.742 110.735 108.981 108.683 108.606 108.592 107.733 105.886 208.131 104.348 103.79 103.534 102.37 102.235 97.848 96.9581 96.0424 95.9713 95.6148 95.1399 94.6932 94.4074 94.3755 94.1973 92.247 91.873 113.683 108.094 87.3785 87.3213 129.144 86.8351 108.952 119.792 97.5866 94.6956 86.1642 85.9665 85.6473 85.3903 136.922 109.191 84.884 88.2138 84.7021 82.5515 81.9043 80.0379 109.507 107.586 79.9974 79.9182 99.5428 79.3827 88.731 100.759 90.5637 78.9493 78.5796 86.0456 78.4062 77.5465 77.0353 133.448 111.967 118.521 76.5572 74.7742 74.7177 74.0162 73.9247 73.8974 73.797 82.5542 73.4229 73.1529 72.9036 72.846 72.3999 71.9785 70.1653 69.9204 69.7478 68.9196 68.4179 67.9579 67.6641 67.4844 66.7464 68.6787 66.523 66.3589 88.1859 66.3198 65.9971 65.4623 65.2665 65.2048 64.3255 64.3243 74.3361 62.9728 62.3112 62.2999 61.2617 61.1735 61.012 60.6142 60.8184 60.2701 59.8352 136.229 58.4364 57.42 57.1941 60.5146 56.8187 56.6695 56.6163 56.5093 54.8376 80.0182 54.7547 54.3875 80.8313 52.7889 60.2927 111.417 52.7441 52.4659 52.4418 93.1264 52.1108 52.0388 51.9966 60.7761 51.9167 51.8254 56.8198 51.7306 51.5914 51.5827 51.4914 51.393 51.1007 51.0742 50.7048 50.5747 50.5723 50.1725 49.9946 65.1892 49.8725 54.5874 50.4315 49.19 49.0804 48.9871 51.0063 62.7529 48.4728 76.2088 62.9191 48.3829 46.8642 46.7222 46.6896 46.5019 46.4923 46.4619 46.1345 50.4785 46.0585 46.0057 45.8324 49.5301 61.0077
threshold=0 1 2.5000000000000004 2.5000000000000004 2 -0.74577468633651722 -1.0942041873931883 3 -0.840350180864334 4 0.19894533604383471 0.34083348512649542 -0.0551494862884283 -1.0089311003684995 -1.9412120580673216 5 1.5000000000000002 6 -0.31128701567649836 -1.8575717210769651 1.5000000000000002 2.3035955429077153 3.5256737470626835 3.3125395774841313 -0.59856885671615589 1.5000000000000002 1.5000000000000002 1.3441808223724367 -2.1930649280548091 -1.5847022533416746 0.037610214203596122 -0.74577468633651722 -3.5874708890914913 -2.5900564193725581 0.94679486751556408 4.5905613899230966 -2.7029128074645992 -1.11342316865921 2.3935645818710332 -2.0631282329559322 -0.63437697291374195 -1.1883186697959898 2.8830252885818486 -3.3885371685028072 0.3809946477413178 3.2305445671081547 1.1551700830459597 -4.221665382385253 2.2452824115753178 0.87371468544006359 -0.97819238901138295 -0.7614234685897826 7 -2.3098556995391841 1.5000000000000002 -1.1164099574089048 4.2150628566741952 -2.3798462152481075 -0.63129639625549305 -0.11662954092025755 -3.5056645870208736 -1.6715179085731504 0.32410115003585821 1.0873996019363406 -0.84079051017761219 0.36381161212921148 3.0058943033218388 2.0915882587432866 -1.4441919326782224 0.81670838594436657 -2.1244130134582515 2.7198963165283208 0.13707088679075244 1.2508888840675356 1.1055345535278323 -0.51713085174560536 -2.662755966186523 -2.4716589450836177 -1.0056957602500913 0.24798657000064853 -1.7736136317253111 -2.0989186763763423 -1.4720935821533201 1.1682990789413454 -1.2557244896888731 -4.231520175933837 2.8262792825698857 0.10153962671756746 0.68187269568443309 0.15973787754774096 -1.5318087339401243 1.2707547545433047 1.0751298069953921 4.1700789928436288 -0.88487327098846424 3.7249388694763188 2.8839390277862553 2.3704203367233281 2.5262916088104252 -1.1330809593200681 -1.9384291172027586 -2.0989186763763423 -0.041269958019256585 3.2933579683303837 0.27434286475181585 -1.162709057331085 -1.1795262694358823 2.092553019523621 0.9890345335006715 1.3430761694908144 0.64260423183441173 -2.006719589233398 1.1653227210044863 -2.1141477823257442 -0.63572078943252552 -0.56812992691993702 0.19628056883811953 0.23715877532958987 0.089174471795558943 -3.2118642330169673 2.0000740289688115 -3.0195984840393062 -2.662755966186523 2.4336093664169316 -1.1863939762115476 -0.79234600067138661 -0.95214909315109242 2.5624091625213627 -0.45194478332996363 -1.8988310098648069 4.1064999103546151 0.43613976240158087 -3.9139590263366695 -1.6886375546455381 -1.981041371822357 -0.26695883274078364 4.1344783306121835 -0.24022221565246579 -0.64022985100746144 0.29605217278003698 0.67332309484481823 -2.1131005287170406 1.4843881726264956 -1.3560030460357664 -1.6705375909805296 -1.1688075661659239 4.8294827938079843 1.7535015344619753 -1.8813754320144651 -1.3833879232406614 5.0426440238952646 1.9104707241058352 -2.2074370384216304 3.0820428133010869 -2.9022294282913204 1.3972525596618655 0.67187100648880016 -2.1476609706878658 -0.21286855638027188 -2.0183036327362056 -1.8856260776519773 1.2314585447311404 1.5000000000000002 -0.13514269888401029 0.60728442668914806 0.87116152048110973 0.24644760787487033 1.5000000000000002 1.221286475658417 -0.094752278178930269 -4.9042010307312003 4.9144928455352792 0.68114459514617931 1.5000000000000002 -1.6523162722587583 0.40498125553131109 2.8262792825698857 -2.410411953926086 -0.81663286685943592 -1.4143601059913633 -1.7685773968696592 -1.7501103878021238 -1.1863939762115476 0.72862339019775402 4.6570446491241464 0.49411025643348699 2.8174382448196416 0.21231421828269961 3.2503316402435307 3.7619202136993413 2.0839936733245854 -0.54189851880073536 -2.5723596811294551 -0.054122984409332268 -0.60361963510513295 -1.7317425012588499 -1.8086330890655515 -0.81625187397003163 -0.79034322500228871 0.46711263060569769 -1.3772415518760679 -1.7538781762123106 1.4359602928161623 3.2235233783721928 -2.5701156854629512 0.41397100687026983 3.5617004632949834 -0.58837601542472828 -0.89455711841583241 -2.4166030883789058 -0.46428307890892023 -1.1299536824226377 -3.842315554618835 2.3150830268859868 -0.22306343913078305 0.48957739770412451 -1.224997282028198 -1.3947976827621458 -0.4144481867551803 -0.40595360100269312 -1.6715179085731504 -0.96807873249053944 3.2235233783721928 1.3261096477508547 -1.9962402582168577 -0.94767668843269337 -1.2113193273544309 0.070586532354354872 -2.1928467750549312 4.0242977142333993 -0.48264572024345392 0.86001604795455944 -1.8371835947036741 1.3194220662117007 2.8879686594009404 0.79113018512725841 -3.5409998893737789 2.7661798000335698 2.9915266036987309 2.5342736244201665 2.9017899036407475 6.0787353515625009 0.94778424501419078 -3.6568696498870845 -1.6722393631935117 -0.55377086997032154 0.87116152048110973 -0.32514458894729609 1.974337697029114 0.52334150671958934 -0.57760655879974354 2.0839936733245854 -1.4143601059913633 0.93201255798339855
decision_type=9 1 2 2 1 2 2 1 2 1 2 2 2 2 2 1 2 1 2 2 2 2 2 2 2 2 2 2 2 2 2 2 2 2 2 2 2 2 2 2 2 2 2 2 2 2 2 2 2 2 2 2 1 2 2 2 2 2 2 2 2 2 2 2 2 2 2 2 2 2 2 2 2 2 2 2 2 2 2 2 2 2 2 2 2 2 2 2 2 2 2 2 2 2 2 2 2 2 2 2 2 2 2 2 2 2 2 2 2 2 2 2 2 2 2 2 2 2 2 2 2 2 2 2 2 2 2 2 2 2 2 2 2 2 2 2 2 2 2 2 2 2 2 2 2 2 2 2 2 2 2 2 2 2 2 2 2 2 2 2 2 2 2 2 2 2 2 2 2 2 2 2 2 2 2 2 2 2 2 2 2 2 2 2 2 2 2 2 2 2 2 2 2 2 2 2 2 2 2 2 2 2 2 2 2 2 2 2 2 2 2 2 2 2 2 2 2 2 2 2 2 2 2 2 2 2 2 2 2 2 2 2 2 2 2 2 2 2 2 2 2 2 2 2 2 2 2 2 2 2 2 2 2 2
left_child=1 3 5 4 10 9 24 11 40 25 19 21 38 56 47 22 41 57 48 89 31 43 23 27 50 44 32 37 29 -16 73 174 62 59 -27 39 206 101 52 -26 87 216 78 121 60 46 66 -11 96 130 114 64 205 158 113 -45 84 163 -47 -19 82 124 106 95 86 69 67 91 -69 -39 157 115 97 74 -31 76 -53 245 127 219 -76 -38 -3 -55 85 190 -52 209 92 -1 -63 -30 -48 184 199 102 128 105 165 200 -57 249 103 145 214 -72 244 -108 109 110 111 -25 -112 134 251 -34 118 148 196 -89 162 -4 123 186 125 152 -126 -20 129 191 131 133 -133 -41 -42 202 151 -119 -79 140 -51 142 -141 -60 -102 194 220 -128 -118 197 -151 223 -62 -67 218 -29 207 -33 -13 -59 -103 -161 229 -14 -143 166 -77 -158 169 -157 -96 -94 -167 187 -21 -117 234 -178 -109 -142 241 -124 -80 -105 185 225 -91 188 -120 -138 -10 192 -9 -35 -15 -37 -24 -46 -199 -86 201 -22 203 247 -205 -5 -32 208 -87 243 240 -136 -213 -183 -104 -216 -12 -85 -75 222 -54 -147 237 -137 -122 -49 -156 228 -198 231 -231 -121 -101 -153 235 -81 -237 239 -239 -65 -204 -98 -172 -6 -17 -78 -58 248 -43 -8 -95 252 -7 -254
right_child=-2 2 7 12 8 6 15 18 13 14 16 53 17 63 28 26 -18 33 42 20 99 -23 116 108 35 34 -28 155 45 30 36 70 71 193 -36 195 81 65 -40 49 54 135 -44 55 149 58 88 93 -50 139 51 75 146 83 -56 100 246 159 143 -61 61 90 -64 79 -66 153 -68 68 -70 -71 72 -73 -74 154 80 98 77 138 182 176 -82 -83 -84 217 94 156 -88 119 -90 122 -92 -93 171 250 170 -97 180 -99 -100 232 144 160 104 183 -106 -107 107 178 -110 -111 112 -113 -114 -115 -116 175 117 137 173 120 224 -123 181 -125 126 -127 147 -129 -130 -131 -132 132 -134 -135 211 136 189 -139 -140 141 179 164 -144 -145 -146 221 -148 -149 -150 150 -152 233 -154 -155 226 168 167 -159 -160 161 -162 -163 -164 -165 -166 172 -168 -169 -170 -171 242 -173 -174 -175 -176 -177 177 -179 -180 -181 -182 213 -184 -185 -186 -187 -188 -189 -190 -191 -192 -193 -194 -195 -196 -197 227 198 -200 -201 -202 -203 210 204 -206 -207 -208 -209 -210 -211 -212 212 -214 -215 215 -217 -218 -219 -220 -221 -222 -223 -224 -225 -226 -227 -228 -229 -230 230 -232 -233 -234 -235 -236 236 -238 238 -240 -241 -242 -243 -244 -245 -246 -247 -248 -249 -250 -251 -252 -253 253 -255
leaf_value=0.0026159529222826881 0.02999336859612901 0.003695792951271492 -0.0037567361247574692 0.015328265262041669 0.011099511112768259 -0.011457110359606094 -0.014265704201230486 0.0026048459157089737 -0.0061952077342541673 0.0047396890036550529 0.0082783020606035148 -0.00504918503303531 0.0056799446707326458 0.0020390459466407009 -0.0064297618952735107 0.0037243857624494553 0.0015932435329059714 -0.00080563128392538495 -0.0011714913445429688 0.006336497062958568 -0.0060823154475398581 -0.0062276482635757503 0.000685057426818335 -0.0031498018728436149 -0.0042714527686794207 -0.01339336035549645 -0.01334441205721895 -0.0024031635292658905 -0.0089510875957737827 -0.0055434153824290983 -0.0027791999404762078 0.0014854376212871956 -0.0074115290774555143 0.0062875791353935364 -0.0086118620016353287 -0.0024999958033452957 -0.00054626851315268477 -0.011504166258681735 0.0033712901994997573 -0.015709790315392699 0.0037507959618834031 0.0031396240887545555 0.0009777252149304771 0.0095696028925805685 -0.011406134537123603 -0.0063711272559276956 -0.0047246932241265197 -0.010730299502982524 -0.0086760768228926061 -0.011800826649464233 -0.0087314517096535316 -0.015748407725901525 0.013921325130001641 0.0049098243705775167 -0.0012072984340626618 0.0089419566614978331 0.0010366485644684228 0.01468242846439227 -0.0012431753668128002 0.0058647145597958243 -0.0085092573598544666 -0.006627135579572653 -0.010960378353435078 -0.0022420110807467582 0.00073064446771051205 -0.012468581848917429 -0.021043386823231359 0.0020466779140965656 -0.0065008521493797634 -0.0055751380440126263 0.0030289474877040635 -0.012185278348092562 -0.00013200937479471863 -0.0068494822623982026 0.0018262590267737713 -0.010669917481495067 -0.01646167592508847 -0.014152530853430829 -0.0022636382226235222 0.0014416338318848807 -0.012236001595288785 -0.0095127391890290902 -0.010885961179466908 0.0037553029562467088 -0.006985036679351536 -0.0019749194427636529 0.0011384291289705268 0.0048015821762473383 -0.0034810912289737952 -8.8647662917465625e-05 -0.010076528774077928 -0.0062523621793749394 -0.005943742498015497 -0.011050350812824371 0.0006828625704910574 0.00020734753473905323 0.0045296850702222233 0.0013909987318460049 -0.019812751586985911 -0.0025425443644828596 0.0071846664541668727 -0.0059016550614086486 0.0021747896182886103 -0.0059130663955810165 -0.0023054006428056381 0.004647092967599597 -0.0084454045247064884 -0.0016491643456741157 -0.0089600025179030155 -0.008205291228381064 -0.005045055883584745 -0.0079837435742836221 0.00011134793120101558 0.0011993729661275837 -0.0014914140378261699 -0.010660324602688648 -0.019826880828923015 -0.0025223079206924612 -0.0035474164095149032 0.00012641566680906871 -0.0094566881649861025 0.0060436100634647877 0.0049033053128311899 -0.027010324003514878 -0.010059343511517185 -0.01010612611420251 -0.0055808451151545075 -0.0053377113003807413 0.0020387624749770112 -0.0024157060994536178 -0.023346931522463039 -0.022417484349715629 -0.012218272016545212 -0.012740274333802768 -0.00077239429908348609 0.0054997406553458274 0.00950177220655022 -0.0072627131873056177 -0.0041729043493811532 -0.012469193097633861 -0.021326496672889515 -0.0074502424465922928 -0.022997827472926995 -0.0046348669115685538 0.0036321103521924961 0.0057429532992698037 0.006713364819916373 -0.012593494749634553 -0.0028395554388221831 -0.008410528476836359 -0.011722848726790133 0.0058400963525135916 -0.0019718152935868042 -0.016750593519336377 -0.00046034061716380444 -0.0085454334288217106 -0.0036477193889703904 -0.0087267014834425914 -0.00012938488569534185 0.013434151754577914 -0.0092890478604539771 0.010898130050383576 -0.0023151202095951446 0.01042761278311974 -0.011374567730596193 -0.01043334344151624 -0.013742589360634288 -0.014711675155736317 -0.010724993302089536 -0.0060257842834910268 -0.0038082585544976346 -0.0091689219601673085 -0.0054295975028728167 -0.011029497919500354 0.0048495068649495026 -0.0094121055462355156 -0.018575868138706444 0.0040324968578710017 -0.0083384899456226871 -0.015022219722456633 0.0016060486250491558 0.0016735931000320206 -0.0054207871269983292 -0.020458949320920249 -0.0058439107071768933 -0.014721485018575496 -0.022593915715029868 -0.00053821627841791871 -0.01657170136581472 -0.012179841640836101 -0.017888110594457361 0.0032598415079912041 -0.0087848281470650613 0.0095649247786463998 -0.0018625865455728485 -0.0097340742344927105 -0.021385122528104199 0.0028370791561140225 -0.012066255529041449 -0.0046984170873784143 0.0010057769972377437 0.0049937816971116515 0.0043818000148542714 -0.022782623716590317 0.0057483461494261144 0.012949297667141183 0.0026934355698759096 -0.0028308292709312063 0.0029848760288882902 -0.00085227254419567133 0.0064717975633828391 -0.0022829841745876859 0.0025891017071430914 -0.0023871025475607761 -0.002924371068493106 0.00033749491985495623 0.0066180819309205998 0.0004603134693698363 0.0033989395760305233 -4.1226097922063038e-05 0.011931582878596208 -0.0037162144202310277 -0.00034984436368821185 0.0026677058785744101 -0.0019108197547689973 -0.015974972642864033 0.0060810233388990335 -0.010786624993753862 -0.0039584190202794235 -0.0016950835673715579 0.0057151953827093687 0.0026554304754226243 0.00048393938896311342 0.0088811851554070412 -0.0046544191310563523 -0.019435077229762576 -0.00070535368335328827 -0.011588947557784323 -0.0031183095161344547 0.0031032147861578727 -0.0040913573986931127 -0.013233676811541074 -0.0058262779262808935 -0.0042406017667814769 -0.0056681264623729983 -0.0090331624599857725 -0.0028111696172233068 -0.0010224021453693693 0.0058251265434985282 -0.0027113455938652764 0.0010636171476378527 -0.018955670634865026 -0.015164009621505664 -0.010695608117966252
leaf_weight=10909.231223020724 48086.876413281891 422.810591560803 465.69038004468166 16613.406649357195 44.461642098249285 7601.929325733654 1049.464382257047 210.62689996101835 3243.3614550179009 157.9915492764776 5332.7481774081498 828.22900883234979 870.90902418623591 906.09183119019144 4601.0511379293421 312.42057329887029 7888.2342664624011 917.99056941915478 6939.0140270837983 10437.301812852762 159.8734745654765 583.93923735046701 159.16493537494534 1140.6068597156845 546.46735538623034 6383.1359240488782 7759.8911976393792 606.60669894751481 9393.0250673076825 976.98296873671461 3188.7414898841689 4693.2362903233152 2862.8485669932779 1473.2340941430375 4008.3527840541174 479.05709901429509 367.50413140714227 2511.2022526640012 411.35616371283686 10808.654531485941 8321.7205315767715 7527.7256635727717 3633.9093852722581 7335.4399027974287 4290.5235872393423 3165.8078526871359 9592.4538791995074 4531.7393223696999 377.21898544559372 4332.4001413265723 1910.7804269753406 406.79228841751319 6359.9726566896625 2616.2495465626289 3715.043926758015 2683.647564730004 1361.3014326984048 2968.8899898160726 4053.4742558318831 2996.2127547394957 769.19670631885674 2803.8103805377323 1433.1099517256407 5540.3890663829443 534.06435432865237 6826.0202677324796 160.28906979096791 645.12189251968084 2069.1932843624636 1176.2845806782352 11428.574918925191 6149.4871415735979 1714.1696396574334 228.52297251931304 2236.1175169413145 4385.7641959876601 292.08183741529501 194.3246982728233 2036.2902558545793 5646.5489664119705 129.72493938044499 1865.5397302933561 156.59278278366037 1407.4432106399036 6428.6957812781466 2250.4759803795605 272.5162177149723 1031.1717210075276 7027.666105364031 9080.2057318753177 6539.0839473272281 4548.4107616069468 3934.2347016926469 105.67978322270937 595.17742798658037 5351.8400935367245 3617.6756702498024 3196.4094919989875 288.27291993742256 2128.5800784692547 2810.5076154848916 1557.0751581105997 2079.297218472333 1435.6679830143476 8286.2647485979251 22345.335315614477 2770.2831484528033 1351.7041426679061 3414.7547009346818 5362.8507601425536 7414.5836877052934 5697.721568848785 892.01799275814665 17652.321212179751 172.00488917286566 22308.335593088661 266.76595870620076 1007.4010264775206 4785.4593321384637 7141.6044722341776 257.98622075020103 343.81681352235319 1217.2755027637468 24.637147824920248 1489.2785837343872 3172.0302143493664 12276.892461015561 1222.7105207659988 5070.7748714063091 2907.8000670447473 234.57738781830994 232.99185460217996 4813.6035609259307 3063.6983685432988 1527.9600171343845 24670.391031720428 1668.0383739266144 3759.3401362701479 1885.185508529903 4261.8871800659999 425.76352589887028 1828.3562426852732 259.66857637336943 2391.0775207219885 2590.3905230945179 128.9096580592377 455.27874734644865 351.2541739549124 76.627403244820016 14998.15999162956 1946.9988653842338 2474.3310150673133 786.65718373804702 1069.3145265906642 317.36217086205579 6823.3478844401252 2760.6890659942219 155.08422423057345 3038.5911610862349 4426.0893613348544 12199.319560266189 5597.0881644574765 1462.6987607130286 3351.9992327977816 2257.521740854565 2508.4323058874979 2746.1436713166004 128.20486386034463 1519.3481917826102 5914.6573682343624 8656.3706373385394 2302.6679347184036 792.29620328536839 254.72318203426403 18872.976920420202 16697.268231455928 32.204125374337309 1619.625340937775 416.51883723515493 2840.883355810116 3770.2520299554963 7662.8188144355117 4435.6713337429028 68.200448453208082 387.55958321660728 1519.8244462327712 25.862657700316049 1417.1457463268416 187.65910544485814 27.026575938041788 98.185138914726849 1564.6539528907524 204.79649604405859 7173.4394477786518 10459.052824687125 510.94957577079185 52.141207394335652 154.09517654535011 166.40411055211734 3824.8341110903993 4219.3887024666255 1757.4006592470942 2264.4081534137731 29.83380828044028 4622.3729876870239 2556.4534283519606 446.17723835266224 2807.174549740339 1368.8252761944495 6994.9286177942813 5548.8907590579074 618.09314912378613 7781.7545116245128 776.82554580707074 1667.2423703362438 4274.0300035381224 22610.331051781428 4500.2154662851335 210.19331974716624 7371.3526217515246 5900.9589418878331 6741.6422665455466 4441.6394799599584 1534.9606141212389 916.17706203399575 474.6884210224307 1445.9846278305922 965.35522042398225 615.10954830471019 288.77189066317806 944.31203436253782 2365.8507712618011 2778.1126100104739 2419.2531084847942 417.76989728499757 39.878753150362172 3022.2167952288437 296.11609103060619 1282.3040533471794 541.03986649183571 159.90863603902108 32.367669459090394 3753.4172375627131 1614.6388669566077 189.66532018488942 610.93363195059646 1456.7704917434385 481.69786371320151 2018.202155690371 87.908921242087672 202.35008208971703 237.16239555662469 2200.0514217700156 1063.5165280445353
leaf_count=380494 212392 13971 19395 343408 1167 382356 55670 7372 143931 5044 150618 35358 27216 32124 205111 10431 282262 34979 270055 319933 7567 25571 5881 46634 23406 334230 406372 24984 445190 42474 130065 168701 131427 45612 188571 20004 14350 126171 13707 592967 278280 254844 132104 199605 216103 140565 409982 223173 17768 218186 90747 22419 141583 84109 144888 73767 49572 63096 156431 92059 36788 126786 70097 223531 19765 350248 9736 22889 92686 50542 390506 314447 64609 10334 79271 214535 16312 10778 80368 203160 6518 89209 7495 47712 289658 89756 9841 33202 291495 341213 318721 203523 173694 5188 21825 199350 118189 114527 16889 85717 81967 68035 73080 62447 333063 727277 129344 53292 161943 249526 319312 262319 33193 640601 6753 1095826 15889 40278 199328 268337 12363 10290 38754 1675 72712 154389 536211 52684 180195 117656 14462 14348 246219 157820 58587 780614 44899 171568 79980 218558 25864 84260 16253 101201 87440 3970 13815 17950 3254 701139 97724 76249 31950 59997 12190 322744 114181 7265 115334 101344 583538 144404 58904 87581 112074 123540 145823 6878 75202 261144 361058 110033 33509 12570 604925 800755 1849 53696 19777 152799 134954 273656 192717 4249 17274 81030 1755 54686 10784 1350 5323 52369 9847 193329 413850 24666 3215 5254 8657 163395 153085 56397 74036 1915 144521 58989 15368 113633 47403 268677 168217 24590 270310 31029 67731 159459 683331 165618 7172 276969 145261 281908 168093 53120 36634 26037 44194 47967 25739 11338 29493 81744 102876 67548 17917 2304 115893 15133 51289 18624 6745 1549 165662 68517 8684 29455 58583 18280 62744 3833 7440 13575 120326 52073
internal_value=0 -0.00170518 -0.00709718 0.00325408 0.00180374 -0.00882141 -0.00995616 0.00187455 -0.00103654 -0.00706831 0.00420306 0.00466158 0.0120844 -0.00219233 -0.00564549 -0.00894615 0.00551829 0.0100354 -0.000385718 0.0031463 0.00374319 0.007169 -0.00789582 -0.00841572 -0.0121477 -0.0087687 -0.0102725 -0.00938914 -0.00504163 -0.00314643 -0.00182101 0.00420094 -0.00983647 0.00753625 -0.0115514 -0.0132411 -0.0043675 -0.010438 0.0139725 -0.0134332 0.000998482 0.00588937 -0.0021786 0.00765229 -0.00819531 -0.00565707 -0.00611121 -0.0109927 0.00145776 -0.0135742 -0.0107111 -0.00976312 0.0141086 0.00126142 0.00165189 0.00803255 -0.00418929 0.0118463 -0.00378027 0.00429669 -0.00739924 -0.00754603 -0.00691827 -0.00111253 -0.00587129 -0.0119616 -0.00761674 -0.00748537 -0.0044638 -0.00961894 0.00340683 -0.0102294 0.00368875 0.000871448 -0.000877845 -0.0105111 -0.00810237 -0.00704955 -0.00296343 -0.000361494 0.00104401 -0.0080447 -0.000231275 0.00237438 -0.00444321 -0.00333511 -0.00749268 -0.000123312 -0.00500265 0.00145967 -0.00904379 -0.00807221 -0.00567696 -0.0113396 -0.00504541 -0.00166095 0.00167907 0.00386631 -0.0112703 0.000722335 0.00663505 -0.00925132 -0.00193876 -0.00262759 -0.00110389 0.00410009 -0.00576412 -0.00642072 -0.0067326 -0.00636057 -0.00570586 -0.00718023 -0.00448957 0.00194819 -0.0121237 -0.00994152 -0.00539546 -0.00693156 -0.00446256 0.000655821 0.000334797 0.000389516 0.000787365 -0.000233738 -0.00680225 -0.00850179 -0.00623146 -0.00179805 0.00071895 -0.000647317 -0.0145393 -0.0144281 -0.0126965 -0.015056 0.00267158 0.00536166 0.00583312 -0.00626476 -0.00511904 -0.0124318 -0.0135473 -0.0114438 -0.0130821 -0.00250442 0.00548455 -0.00229917 0.0127338 -0.00577807 -0.016099 -0.00925662 -0.00879267 0.00565209 -0.00521688 -0.0130525 0.00353295 -0.00751932 -0.00218023 0.00115395 -0.00118806 0.0126312 -0.00890718 0.0120207 0.000713749 0.00945361 -0.00962443 -0.011031 -0.0118569 -0.00414883 -0.00773576 -0.00737722 -0.00418552 -0.00713816 -0.00923881 -0.00357129 0.00537973 -0.0101266 0.000847835 0.00357168 -0.00323719 -0.0158548 0.00296534 0.00175431 -0.00443027 -0.00659585 -0.0117055 -0.0120503 -0.000156687 -0.00326997 -0.00404513 0.00914025 -0.00654852 0.00194195 -0.00298166 0.00900905 -0.00155006 -0.00625475 -0.00775573 -0.0109561 -0.00486758 -0.00613407 0.00196286 0.00405968 0.00467825 0.00414011 0.0055573 0.0150047 -0.00210277 -0.00129245 -9.46676e-05 -0.00142219 0.00566652 0.00176517 0.00222858 0.00129781 0.00013569 -0.000575665 0.00693575 0.00124835 -0.00190869 -0.00103164 0.012966 -0.00353574 -0.00163363 0.00533454 -0.00358819 -0.0112337 0.00489563 -0.00858773 -0.00537261 0.00112781 0.00396768 0.00075753 -0.000826178 0.0073481 0.000352854 0.000595292 -0.00096044 -0.00237595 -0.00472325 -0.00176357 0.00381527 0.00436447 -0.00442025 -0.00381403 0.00014229 -0.0114681 -0.000947408 0.00348063 0.00370952 -0.013389 -0.00306625 -0.0122869 -0.0121382 -0.0137162
internal_weight=0 844678 404681 439997 377924 339453 206060 65227.9 173062 133392 204862 29204.2 62073.3 110383 72677.2 141062 91278.4 29775.9 36023.8 113583 83886.4 16813.4 78810 65263.1 64998.7 60715.3 62251.5 41340.5 65297.3 16013.9 11412.9 72843.1 54491.6 12560.9 10391.5 36896.5 5867.96 26476.6 32297.4 35906.5 62679.5 83390.1 18267.6 16229.5 50323.8 49283.4 39673.1 7379.83 17756.2 35360 28102.3 16827.6 31886.1 12390.7 39616.9 15420 38733.5 17215 9610.36 3914.2 28767.6 28188.2 6473.7 71649.3 2717.36 11582.8 16816 16655.8 2714.32 3687.49 43532.8 48017.9 38684.5 5544.89 3342.83 14110.2 3389.32 2982.53 14633.7 30251.1 2365.84 2233.04 579.403 8523.91 35915.4 12656.9 2183.3 23062.6 22857 29696.9 9342.89 13941.4 15829.4 7221.84 23258.5 41398.2 17378.9 36970.3 10720.9 11043.4 8084.55 14893.8 36046.4 19739.6 16306.8 33773.9 5040.59 4538.51 23922.5 20507.8 15144.9 6838.33 8306.6 35901.8 11274.7 41868.5 13546.9 5110.13 8436.76 14408.6 13377.4 809.507 18787.6 9130.71 18845.3 4727.88 14117.4 8161.72 9958.65 4887.88 19153.5 18918.9 5046.6 13872.4 18249.5 55447 32794 4766.74 2079.51 16206.5 7599.05 8607.43 4521.56 6444.55 5400.9 18235.7 12716.2 12628.1 343.393 21556.2 16945.2 31098.9 1555.85 7895.33 2202.06 14864 9315.37 4848.32 3866.82 12992.1 13756.4 10023.2 12203.2 4222.91 4085.88 10432.6 7131.91 2888.89 14257.4 12738 13005 6236.9 3300.73 6644.99 29310.3 39005.6 10778.2 1651.83 1768.22 3266.65 7420.3 9656.92 6471.96 1503.87 6913.81 6526.25 9106.07 6390.26 4973.12 1695.06 3341.55 1980.08 415.423 8646.67 11365.1 990.007 1791.77 4611.02 320.499 10253.5 6136.66 1917.27 22653 14679.8 4652.21 19169.9 3634.92 6426.48 3619.3 8654.03 7973.21 9927.81 8399.85 8439.64 8020.57 5941.27 27943.1 5907.66 438.716 19472.8 12260.9 6870.55 12101.5 26205.4 1174.16 5006.43 1763.35 1632.61 667.251 10740.5 1233.08 9507.46 4906.69 4893.58 9126.41 8708.64 3062.1 7659.85 1578.42 6081.43 2424.32 3650.04 12409.8 1659.1 502.086 903.015 2818.07 10027.6 9545.93 1137.37 308.03 11102.7 10865.5 3263.57
internal_count=33518927 33306535 18358719 14947816 13441433 16044726 9997208 2313993 6698179 6047518 6743254 946166 1506383 4410547 3178867 6686646 2871293 789620 1367827 3871961 2803385 498035 3646194 3055035 3310562 2868651 3040452 1982108 2813681 656256 451145 2397743 2634080 365979 522801 1921886 248992 1298034 716763 1877216 2287632 2589031 727928 472464 2345850 2157425 1759228 365186 639899 1853810 1388676 813593 703056 448131 1417256 442779 1630858 423641 398197 127038 1316973 1295507 291625 2779689 120353 586958 774024 764288 115575 176713 1472885 2342455 1296919 202153 128263 693240 158944 136525 595824 1148458 85789 103559 21466 297439 1522703 521105 100588 870376 985204 1068576 445507 648713 693709 360142 1001598 1631231 622131 1232310 534296 405642 243174 711076 1431881 798548 633333 1117783 221528 202413 1072927 910984 661458 308953 352505 1272368 575083 2028008 591159 230989 360170 532015 498813 29685 688082 344643 850000 223127 626873 322739 367439 187244 1025816 1011354 260567 750787 631767 1755082 1023780 211846 90758 827994 396849 431145 234811 257632 169407 731852 300659 554161 19143 1028877 798863 977531 68738 410245 73890 684074 371851 175966 150692 308844 651573 245748 449816 114797 196334 517407 360358 121059 659090 583888 548545 283727 157049 277368 924858 1896581 394819 55545 73069 178663 254692 343439 273085 66696 347514 330240 342968 264798 210112 46249 149254 69588 17219 238941 445974 44670 82802 230014 13911 453053 217049 63964 731302 482304 146436 402397 145433 250792 137159 338361 248998 353487 294900 304685 300270 227190 833949 213330 17506 753639 286844 285878 476670 833734 48997 249210 56384 76921 28954 390912 40831 350081 188593 143797 339274 321357 118197 308577 66422 242155 80781 119738 526720 69684 19115 45767 108155 335868 317588 59503 12628 568330 554755 172399
cat_boundaries=0 1 2 3 4 5 6 7 8
cat_threshold=2 5 4 2 8 2 4 4
is_linear=0
shrinkage=0.015


Tree=1
num_leaves=255
num_cat=10
split_feature=3 0 1 1 2 2 0 0 7 2 7 1 2 5 0 2 2 5 0 0 6 2 5 2 5 2 2 10 2 2 2 7 11 2 2 10 11 10 7 6 2 5 2 11 2 2 6 1 7 10 10 6 7 0 5 2 2 2 9 10 7 7 10 7 6 9 2 7 2 7 2 5 1 7 6 10 9 0 5 5 10 10 7 5 10 2 1 10 5 6 6 9 5 5 5 1 7 11 2 2 10 10 10 10 5 2 10 5 7 2 11 9 6 9 10 7 7 6 11 9 11 5 9 6 6 7 6 9 5 5 0 5 2 7 5 6 7 5 7 7 7 9 7 11 11 2 5 10 9 11 9 6 5 7 9 11 9 1 2 9 11 5 7 5 2 5 7 9 11 5 9 5 11 6 9 11 5 11 11 9 11 5 7 10 10 7 6 10 7 2 11 11 5 5 6 2 11 7 11 11 6 11 6 10 9 11 5 7 2 5 10 6 7 5 10 9 6 5 11 7 10 10 7 11 11 5 5 6 10 9 10 10 11 6 10 5 10 10 10 7 6 2 6 6 9 7 5 10 11 5 7 7 2 11
split_gain=1.09911e+06 177255 59400.8 37674.8 12674.8 7910.15 7904.97 7035.7 4015.72 3506.69 2160.31 2107.8 1767.57 1657.66 1397.71 1388.11 1350.21 1183.7 2074.91 1150.45 1134.59 2189.75 1152.06 906.598 848.957 847.803 1245.64 1107.44 837.929 1615.22 798.733 785.727 728.568 654.421 647.363 627.201 579.429 685.383 556.955 545.103 539.352 537.998 530.21 529.771 514.705 930.255 506.181 495.65 483.371 532.719 472.257 438.871 425.501 422.864 419.572 411.898 580.527 411.281 406.338 403.186 400.707 382.972 382.048 379.475 361.356 354.875 353.055 352.96 348.086 347.117 340.851 331.126 329.422 323.783 323.197 322.629 321.415 318.515 316.189 338.002 552.365 313.701 373.703 313.247 312.332 303.74 302.258 301.057 297.516 299.033 293.547 291.787 289.462 288.906 288.856 288.415 285.888 279.287 279.237 275.807 274.591 345.722 351.906 269.646 268.182 267.77 265.142 262.365 262.801 262.039 260.05 258.423 419 349.126 257.817 257.031 255.568 254.486 253.249 252.057 271.039 403.247 255.357 252.748 251.068 249.889 248.984 248.842 274.845 248.761 245.117 481.38 298.027 338.895 244.071 239.869 234.523 232.942 231.907 230.49 267.617 246.807 229.818 228.575 228.028 224.61 224.491 244.492 258.663 238.397 222.1 220.374 247.422 220.136 232.832 218.736 244.671 217.167 236.609 319.807 761.308 243.968 216.633 215.023 281.849 213.922 276.431 222.052 211.799 210.173 208.784 208.258 208.137 439.451 286.324 208.098 206.033 289.722 233.77 205.985 205.093 203.555 215.454 203.013 202.793 202.236 201.524 201.256 201.02 200.915 199.325 267.654 249.953 201.276 199.09 228.373 222.35 198.618 197.464 192.99 236.468 192.6 192.22 191.906 189.368 189.33 189.101 188.738 188.039 187.936 186.811 186.591 186.233 185.801 184.495 184.446 184.351 184.04 183.855 183.58 187.713 271.095 183.48 180.49 180.485 177.298 177.161 187.382 175.669 197.908 195.288 174.54 174.242 174.151 173.239 214.213 172.242 171.703 171.323 171.22 170.562 170.134 169.647 168.585 168.122 167.468 166.428 339.408 301.687 233.991 265.079 215.633 166.055 240.887
threshold=0 1 2.5000000000000004 2.5000000000000004 64.500000000000014 52.500000000000007 2 3 0.089174471795558943 152.50000000000003 -0.8925931155681609 1.5000000000000002 152.50000000000003 -1.2381008267402647 4 174.50000000000003 174.50000000000003 -1.7127537727355955 5 6 2.5871489048004155 51.500000000000007 -3.1556783914566036 158.50000000000003 3.921857595443726 140.50000000000003 98.000000000000014 0.23715877532958987 59.500000000000007 51.500000000000007 145.00000000000003 -2.2074370384216304 0.10165128111839296 72.500000000000014 50.500000000000007 -2.0513637065887447 0.35029837489128118 -0.060880914330482476 2.4947530031204228 1.7113872766494753 81.500000000000014 0.31627905368804937 154.50000000000003 0.38737291097640997 152.50000000000003 181.50000000000003 -1.5570427179336546 1.5000000000000002 -1.7136647701263426 1.5562866330146792 1.4843881726264956 1.2938370108604433 -1.3968862295150755 7 -3.5874708890914913 147.50000000000003 131.50000000000003 50.500000000000007 -0.37873353064060206 -1.6832227706909177 -0.840350180864334 1.0967282652854922 -1.2480642795562742 2.6536802053451543 -2.1675808429718013 -2.1476609706878658 173.50000000000003 2.5624091625213627 98.000000000000014 -1.9587243199348447 198.00000000000003 -3.1984555721282955 1.5000000000000002 0.04156691953539849 3.6056334972381596 0.19628056883811953 -0.90504097938537587 8 -3.9272066354751582 -1.6851861476898191 1.4843881726264956 0.08762222528457643 -0.74577468633651722 -2.5873677730560298 -0.27659419178962702 13.500000000000002 1.5000000000000002 2.7370958328247075 -2.2701592445373531 -1.6108979582786558 3.5256737470626835 3.7819899320602421 -2.0183036327362056 1.6843598484992983 -3.4480040073394771 1.5000000000000002 -1.5342490077018736 1.6394670009613039 8.5000000000000018 192.50000000000003 -1.1863939762115476 -0.060880914330482476 -0.261790782213211 2.2452824115753178 -2.3448803424835201 180.50000000000003 1.5562866330146792 -0.74804049730300892 -0.054904272779822343 192.50000000000003 1.9691203832626345 1.4028877615928652 -3.1753439903259273 1.3430761694908144 -0.7614234685897826 0.91315531730651867 -1.3194552659988401 4.7612483501434335 -1.7501103878021238 0.067168556153774275 1.4388326406478884 1.3502840995788576 0.067176826298236861 0.56769621372222911 -0.84079051017761219 -3.9972535371780391 -1.8788097500801084 -0.86132574081420887 -1.3466199040412901 -2.5275675058364864 9 -3.3305809497833248 16.500000000000004 1.3749058246612551 0.46711263060569769 5.2144453525543222 -3.5600947141647334 -2.467965722084045 1.3380573987960818 -1.3464571833610532 -1.5893521308898924 -0.058181345462799065 -1.0690650343894956 0.26748934388160711 0.96197974681854259 162.50000000000003 4.5003130435943612 -1.1701321601867674 0.43613976240158087 -1.3856875300407407 -1.5968803167343137 -0.55092784762382496 -2.0852464437484737 0.80318728089332592 4.8933517932891855 0.51517164707183849 -4.2663404941558829 1.5000000000000002 13.500000000000002 1.6828253269195559 1.2384823560714724 -2.8016295433044429 1.1403713226318362 1.0460824370384219 57.500000000000007 5.9528377056121835 -0.86545866727828968 -1.6211110949516294 0.40117415785789495 -2.3448803424835201 2.4312624931335454 5.4624080657958993 -1.6153199672698972 1.6382668018341067 2.8262792825698857 -0.84302896261215199 -1.4673037528991697 -0.072328597307205186 1.2021135091781618 0.93602722883224498 -0.473942220211029 -2.4105420112609859 0.19950217008590701 -1.8086330890655515 1.2323651909828188 -2.3119323253631587 -0.40510445833206171 -1.9689973592758176 2.6536802053451543 201.50000000000003 -0.1256802827119827 -0.16775412112474439 -1.2865231633186338 0.31627905368804937 5.1491084098815927 149.50000000000003 0.50235313177108776 -1.8671705722808836 0.37118306756019598 -0.66205981373786915 -2.0726987123489375 -1.2354609966278074 -3.1002178192138667 -3.4235988855361934 2.1049987077713017 -1.5371086001396177 -3.234428763389587 1.4472519755363467 181.50000000000003 -2.7203665971755977 3.5714192390441899 -3.0566142797470088 1.8120409846305849 -4.3091087341308585 1.087919354438782 -1.1160894632339475 -2.7462065219879146 -1.8200257420539854 1.5027909278869631 0.71560472249984752 0.66210955381393444 1.087919354438782 -1.2877910137176511 1.373260021209717 -2.1348810195922847 -3.3885371685028072 0.10407314449548723 0.86630743741989147 -1.4350738525390623 1.3430761694908144 -1.27155464887619 -1.8086330890655515 2.3124909400939946 1.7866177558898928 -1.0459093451499937 1.4359602928161623 3.0058943033218388 2.3476370573043828 1.141998887062073 -2.9373410940170284 -4.1596541404724112 12.500000000000002 -3.3226618766784664 -1.7427216172218321 -3.8452373743057247 2.2395493984222417 0.64943575859069835 0.31357510387897497 1.9159444570541384 -0.90190422534942616 -0.94767668843269337 -2.2307176589965816 111.50000000000001 -0.83278852701187123
decision_type=9 1 2 2 2 2 1 1 2 2 2 2 2 2 1 2 2 2 1 1 2 2 2 2 2 2 2 2 2 2 2 2 2 2 2 2 2 2 2 2 2 2 2 2 2 2 2 2 2 2 2 2 2 1 2 2 2 2 2 2 2 2 2 2 2 2 2 2 2 2 2 2 2 2 2 2 2 1 2 2 2 2 2 2 2 2 2 2 2 2 2 2 2 2 2 2 2 2 2 2 2 2 2 2 2 2 2 2 2 2 2 2 2 2 2 2 2 2 2 2 2 2 2 2 2 2 2 2 2 2 1 2 2 2 2 2 2 2 2 2 2 2 2 2 2 2 2 2 2 2 2 2 2 2 2 2 2 2 2 2 2 2 2 2 2 2 2 2 2 2 2 2 2 2 2 2 2 2 2 2 2 2 2 2 2 2 2 2 2 2 2 2 2 2 2 2 2 2 2 2 2 2 2 2 2 2 2 2 2 2 2 2 2 2 2 2 2 2 2 2 2 2 2 2 2 2 2 2 2 2 2 2 2 2 2 2 2 2 2 2 2 2 2 2 2 2 2 2 2 2 2 2 2 2
left_child=1 3 4 6 5 17 28 10 19 20 13 31 25 55 35 43 32 38 34 52 21 22 85 53 58 26 98 151 29 57 88 100 -11 93 119 68 37 234 39 130 -35 -13 59 103 60 202 105 176 145 74 -43 71 117 216 204 56 72 106 64 136 -32 -47 170 114 -7 97 -57 -56 188 205 77 222 129 127 99 81 201 187 212 80 126 82 94 -48 -45 231 228 183 110 -90 184 125 -59 115 -33 239 -31 -64 232 134 -9 102 -102 252 -68 -18 157 179 168 211 135 113 240 137 -40 218 -26 175 -83 -19 122 186 -121 -123 -55 -60 144 -42 -129 -6 131 132 207 -134 -50 153 -38 -62 -81 140 141 197 -108 -71 -80 -21 147 148 149 -20 208 -27 -153 154 -12 -100 -157 158 162 161 -161 -160 -1 -98 203 166 -94 -168 -109 -117 -54 -73 173 174 -127 -5 177 -24 -179 -91 -154 -137 -183 -75 -63 -78 -122 -25 -10 -72 191 192 -36 -192 195 196 -141 -61 -52 200 -178 -28 -46 -165 -16 -39 242 -3 -77 -34 -152 -84 -37 -138 -174 -155 -14 -41 -23 -118 -221 -222 -44 -96 -194 -143 227 -204 229 -22 -230 -8 -4 -158 -30 -236 -105 -216 -166 -95 -113 -67 -87 -136 -53 -232 249 248 -248 -66 251 -251 -15 -254
right_child=-2 2 12 8 7 24 9 11 14 16 30 41 23 15 54 -17 46 18 146 48 86 33 47 70 116 27 76 -29 36 96 44 75 209 40 190 78 42 69 63 217 73 50 51 84 45 61 83 -49 49 -51 198 244 62 124 67 66 -58 92 91 139 111 90 65 -65 246 241 104 -69 -70 143 189 171 -74 87 -76 150 185 -79 79 138 -82 118 109 -85 -86 206 -88 -89 89 107 -92 -93 165 95 223 -97 163 -99 155 -101 101 -103 -104 236 -106 -107 142 108 -110 -111 -112 112 -114 -115 -116 169 219 -119 -120 120 121 123 -124 -125 -126 172 -128 128 -130 -131 -132 -133 133 -135 243 181 213 -139 -140 194 -142 225 -144 -145 -146 -147 -148 -149 -150 -151 210 152 180 215 -156 156 233 -159 159 160 -162 -163 -164 164 238 -167 167 -169 -170 -171 -172 -173 214 -175 -176 -177 199 178 -180 -181 -182 182 -184 -185 -186 -187 -188 -189 -190 -191 193 -193 224 -195 -196 -197 -198 -199 -200 -201 -202 -203 226 -205 -206 -207 -208 -209 -210 -211 -212 -213 -214 -215 237 -217 -218 -219 -220 220 221 -223 -224 -225 -226 -227 -228 -229 230 -231 245 -233 -234 -235 235 -237 -238 -239 -240 -241 -242 -243 -244 -245 -246 -247 247 -249 -250 250 -252 -253 253 -255
leaf_value=0.00029401943096289576 0.029500659387279009 -0.0098167380504233619 -0.0062664954209973468 0.0060742245243553279 -0.0075644322504847279 -0.0064522509118644118 -0.0099687049932686046 -0.0091717446096443861 0.0052611762457694163 -0.0002289682330991815 -0.007416238273072159 -0.0128989806084456 0.0056182580968453851 -0.0054356195109870782 -0.00056187285529948883 -0.01044159611856138 -0.0075761338234155203 -0.0062287375061952487 -0.001939495721248446 0.0059924889456581046 -0.0015861398730698366 -0.0044040861987272228 -0.0055794836718487941 0.0027880507995051425 -0.0049083017669962889 -0.0040161132281889738 -0.0038880858409052837 -0.0079147312375468879 0.00044841367139813088 -0.0029288034139104929 -0.024884933615780681 -0.0013824745737156282 0.00051484272274810101 -0.00027977215731162598 0.00071006049885353106 2.8164401537418142e-06 -0.0052891178183282076 -0.0054473787793541881 0.00013493598785515253 -0.00049366733504279184 -0.0026843105673795805 -0.0080732697078342869 0.0021574859579730401 -0.0022575403686842604 0.00076396395151527726 -0.006677436133753459 -0.000111321564026279 -0.0042956764480847447 0.0028837490081768959 -0.0023189367578821825 -0.011620765764429948 -0.01119703568643636 0.0074351240283757189 0.0046561311384336499 0.0023704215495219099 -0.003413612946666836 -0.011464640378916488 -0.0011684604922498497 -0.004686373431483315 -0.00088285258094283133 -0.0089937519627091723 -0.011924947394796961 0.0058721214551297916 -0.0085931673201109903 -0.012767460022129444 -0.021947952485524485 -0.0045791851637450769 -0.00085767735337835354 0.0086882168274658601 0.00011047220257149808 0.0057637680861266473 0.0023637049311375706 -0.0083578589099940395 -0.01040258899693559 -8.2612488410450173e-05 -0.0059666791380885362 0.0024407134564725496 -0.0031931463227716419 0.00051340722327679561 0.0043160268063868806 -0.004175869157117997 0.00057198672490171799 -0.0066897165255644913 -0.0033182879623388983 0.0010066222544602773 -0.0045630751219836686 -0.0041059525288932299 0.0015843909749206399 -0.00085654786667411478 -0.0052644524536545265 -0.0062297920540080858 -0.016324412683428987 0.00042398703519786813 -0.014158496216750447 -0.006888974066214049 -0.012057084438494899 -0.0014098816220419975 0.012383497238654848 -0.0026315239654052165 0.010420082976558798 -0.0054332041408918803 -0.0071661148158517337 -0.00044389734359900359 0.0019925280955013802 -0.00936055238438269 0.0010550670233195635 -0.0037209559579329727 -0.013695038941682626 -0.005724365110768145 -0.013376771314753439 -0.020865515815776906 -0.0058552433442743759 -0.00035650650327374433 -0.020255499654871494 -0.0091881147540331873 -0.010939929614906517 -0.012739512738180034 0.0033829013145462018 -0.0062563943441613012 -0.020072196176309398 -0.0091472835462584733 -0.024489412195602415 -0.0080051411874682427 -0.0095042989368459684 0.0018603838043942098 -0.010317396421695288 0.0068878647804619334 -0.0090049811281890987 -0.0015383325510483657 -0.0043849022699964909 -0.0097071235597939592 -0.00945849289664491 -0.015746347805337242 -0.010735088745714258 0.0070960069363362344 -0.0076246327290321846 -0.0024923965560480705 -0.014909968597676416 0.0023120134343290453 0.0027023845872683628 -0.0035166646498568043 -0.0033755944694036496 -0.00048197363145660165 -0.0032054346249915347 0.0060143344672424891 0.0023454836069780063 -0.010317909289130329 -0.0093368382118730903 -0.010690680433073474 -0.0074047166353669478 -0.0096470359804738184 0.0015171417861190124 -0.012382306242488123 -0.00041430829692722885 -0.022351609012024532 -0.006907108798539111 -0.0011580199352536139 -0.0016932991474893498 0.0023141950970009305 0.00017512156318109958 -0.0080888205601274046 0.00062782649059191687 -0.0030861034259978188 -0.0085081412952080614 -0.0008359123893868412 -0.00073679597174446641 0.00032767369638420644 0.0025232406633291034 -0.0032267975969058767 -0.0055554228820507163 -0.0024201853318311286 0.0074089121839338318 -0.011997750566750271 0.0007860175932773982 -0.021123408467822562 0.0079448783271937762 -0.0028751341372808769 0.0004847070114209792 -0.0026668521001464657 -0.0027148682184414763 -0.0018966349167761319 -0.0026034936778452119 -0.017387609553340448 -0.0030434161311452337 -0.0070662642263246856 -0.0019109888816301308 0.011714471877763586 -0.00093352438074147527 -0.0018661442300915516 -0.0045331909423959801 -0.0090832605203376507 0.00030137370387771416 -0.019239257788465188 -0.0057343759644748775 0.0038668565732039644 0.0024444432230151035 -0.00081427605637331287 -0.0062800596363116806 -0.028000228884027232 -0.00099860794950370644 0.0009953943517404648 0.0011291302509478874 -0.0071218292450114613 8.0829959953797071e-05 -0.0078779214427261973 -0.0014133066837489253 -0.010685380902588601 -0.016052596129293741 -0.0097782026271749124 0.0027081024830203464 -0.0064144762933689668 -0.0093216065065853393 0.0032017882729943764 0.0044388324498925956 -0.014893369413522865 -0.0053428210114633392 0.00065096707354824759 -0.012040885580450562 5.4938680799467075e-05 -0.010989090262696743 -0.0058804184697570224 -0.011012467061431813 0.009071718972422994 -0.012036103106174957 -0.0052220911152853402 0.00086604402863919058 -0.0026752060072034755 -0.0037025504637211745 -0.0050081953166851833 0.0039359656621234407 -0.00054369043309887555 -0.0052589390195306807 -0.025031554955794053 0.0025204063575578902 0.0020385326679286976 9.2434109972928553e-05 -0.017759731964146559 -0.010005847835236932 -0.0049081632105734633 -0.0033019136110900332 -0.014537654735533317 0.003714381185242237 -0.0015637050668174516 0.0041349806197374947 -0.00069616372605796383 -0.002900871041622434 -0.014093634212345619 -0.010922158118793077 -0.027872213931267608 -0.017910462194458722 -0.015582105393692135 -0.010809399635289636 -0.0046800302889588022 -0.0017280117789896087
leaf_weight=10101.324492304062 263195.10741414595 7723.3425540792377 2300.5800093420839 17285.215106142852 7099.9889667836906 1541.6625086485874 3015.6977669863845 6534.6253619121126 5108.4349073843277 58663.276802117784 5312.775139326659 28285.065340029832 1805.3398535772976 6497.1817419681684 15743.675905379409 4362.2345738710137 859.02409091173286 15826.326626328926 2880.6098010684309 38581.198908491278 2452.5941892631818 43443.182173741428 4412.3938686777547 4402.7971855219221 1920.6704612985195 4740.6128727425821 1771.8443109480431 9515.7034817237873 51598.576238964321 19183.843121473998 376.1380049563013 2066.588313326105 11314.259479414388 15559.041240900166 1638.1395960828522 8586.4156351726269 662.95917052502045 2877.25638465886 2301.9904486692394 1620.0230670830351 3728.4674172825289 9833.6205455178861 1250.7451205268735 10312.873912144918 1474.8259370659944 14628.072940069287 8489.6528273410659 10392.568529032695 19940.141221706544 3363.0797853840631 298.75874434469733 363.24927775724791 22708.566098493255 18939.199234969608 43346.018310861269 29937.253162205336 4476.7344169116113 10449.050672773694 1059.3781308933685 11624.877976725666 15106.718322096476 10786.678259100767 13180.574547791832 8586.9043743739439 15751.811063883797 57.123373227543198 6374.5257670608116 9238.5656046199729 8647.7594402480227 116471.9338378782 2510.7517526087468 53491.919378969345 8767.4470777500537 873.47642091463786 4199.7310252516763 8319.5390373240989 2820.5004117467906 11618.665917278002 3180.8957409659633 22539.086920627753 1304.5335713622626 1516.9677430143347 7915.8180111588081 35761.894431809982 18290.577047376173 9624.6366625945902 6590.4964099701028 3194.3231134254602 4293.263781527683 19636.497624838295 3656.6008324472987 3617.7777464828105 29799.200536573524 329.32996833702782 23795.306651970994 881.11365869583096 114179.08886036399 1676.1444340029266 51291.987148394939 1587.4917113301926 15366.358089903897 21481.442685122907 4019.6060479204716 3005.2605783852632 4533.7517055475037 13498.194903658115 6713.87291093159 1943.7969839760335 7516.2184184080324 2970.4734614441986 288.97428268694784 1003.3501804912812 1771.6437876739656 722.44764240825316 937.10546663479363 1690.7027561846262 6876.0635643944952 3491.8481837025756 6199.1631746999847 401.19389479409438 928.35731346142711 793.28275344142457 29122.340483795138 380.23040927975671 11726.25184246304 9554.3658613867156 15810.007769762011 5517.5827465114999 1395.1707906057127 25496.635968055001 34206.979389271255 15750.925612516963 9936.8972586265372 4423.2618803742225 7104.9194026562618 4538.3826256758093 944.45932779903524 1674.5295384520468 30818.182877391544 5288.7897106751516 4603.9371962719451 2316.1312344296603 18587.44370347503 4872.0498384539533 3646.0773649064176 4232.2469270861475 41658.98731018843 45180.78273354574 2806.9313807874387 4810.0914764078861 68947.377058436963 6839.6358235696753 497.75352976156864 2100.6150443326351 246.22213600127725 1539.2843348952592 28435.811044864371 11074.233688518318 28390.820968817839 22654.73849446341 2819.0965201890212 60416.559342101427 7375.2358955277159 589.88770765322988 4848.6466432673042 9284.8095139279176 12562.366004044787 59683.352334511554 566.22900004882831 51701.302174452132 491.4145031273365 1908.9719527633279 55101.117820447544 770.11108702345518 588.84051271749195 60828.893421199224 4135.3328160656965 9020.2215911038384 12799.112571741598 11249.681320546777 2690.5870624668241 283.80666471750192 1063.3630573520204 25468.925098704083 2382.3312577956822 16105.538343190034 115.87956614035647 12691.402294918476 1074.2499467816669 511.10374733991921 4662.6464290758631 2425.052956274114 208.68579729634803 31244.908935569485 6168.8610761662712 14168.729815121653 17194.683973326752 1768.6500012082379 389.44624918582849 71937.781329832214 25074.53340129061 58153.507534837008 8767.3432247096716 62035.346674750057 838.03257069824031 29339.622534148846 804.26689769979566 1286.1186929890537 4524.1027207153347 39695.644641730512 4310.9663463633915 26764.363421922077 7842.7539842331316 10604.82510262914 9819.1631909977059 9316.0409662764851 24502.815133059066 384.17297952185618 2178.1989849696547 15104.807015172366 4998.5138456689792 4355.4378547525112 2840.1883582896626 1649.0124730734969 21347.356159769988 50858.490300783305 6126.9572983463295 6174.7133712588329 2593.6550199225312 3596.4907161097508 59485.46589435912 4355.7413974025985 116.8332742608618 3221.1608641063212 55095.570500872003 16570.022455661056 101.62085521081463 1972.4718705717041 4483.7164618046372 42975.351980915919 1054.266818629636 23754.722575639084 7624.8905306121214 11198.937253649892 6003.63788844808 7658.8525489175081 11893.929157032864 11596.131525463541 371.24284955440089 1200.7222965154215 29185.691108579442 5093.1416693915817 9595.3481298145198 17758.142418397401
leaf_count=77533 212392 129817 26479 52498 105523 23481 45716 106213 17901 572248 80665 516167 14286 89677 101828 68872 9368 223586 35673 126308 26159 548742 54577 20541 26163 56912 15259 123928 342111 140187 9134 18734 104301 148657 16501 40339 3911 17640 26180 19487 43077 153953 6157 122226 15867 217407 83812 123739 76629 17363 5576 4433 65184 79276 195132 382888 76071 63867 15308 65078 240694 187109 41024 135614 285591 324 87111 44463 26343 824220 17824 289794 131468 13244 18987 125223 16490 132494 14341 79905 6200 13647 116183 423235 160282 123843 78885 30323 53954 270544 51168 76551 167032 4353 353479 12854 1034643 4496 495107 4983 215008 326340 49056 22911 69356 129012 39683 34694 108409 53470 5930 15131 22095 15360 14887 24755 119484 11437 90765 8005 14867 16763 443516 6184 55900 159376 49234 72192 15980 345108 565393 253468 188143 73907 23556 66352 8236 31945 118755 32532 31734 12298 134976 36300 13137 15360 696533 732981 47640 75043 1123853 49056 4297 23683 5976 17060 256464 107688 199818 146904 21503 372113 60472 5448 34544 74413 86975 386636 7690 695679 1898 11033 968903 9813 13933 171893 41191 88250 137835 141368 19373 3597 21654 309311 37511 157487 986 94569 4617 4907 70441 26976 4063 445445 37323 82521 118254 11957 11546 731576 250067 408513 134446 507911 6841 178952 11559 25089 74845 329766 64017 435238 31486 50835 188010 132299 222657 6417 22634 257783 73763 73214 14392 27313 299751 338142 80350 82317 29291 31423 600298 57970 1927 23187 367449 113145 1348 33384 35383 503730 18864 83180 83288 40741 47078 85239 222175 198042 11091 23307 579766 85797 133180 203575
internal_value=0 -0.00235167 -0.00663435 0.000471221 -0.00829422 -0.0100563 -0.000583411 -0.00672549 0.00451365 -0.00191552 -0.00518684 -0.00861166 -0.000490327 -0.00396726 0.00281413 -0.00224856 -7.12727e-05 -0.00850692 -0.00788758 0.00580611 -0.00261373 -0.00297519 -0.0016872 0.00125787 -0.0124207 -0.00130644 -0.000922828 -0.00392408 0.000263279 -0.000166982 -0.00651286 -0.00800862 0.000910842 -0.0040317 -0.00646393 0.0038759 0.00071775 0.000278465 -0.00997355 -0.0104491 -0.00265199 -0.0118203 0.00135081 -0.00170304 -0.00757471 -0.00678923 -0.00190932 -0.00114563 0.00447603 0.00343198 -0.00891809 0.00244191 0.00664147 0.00238966 0.00114669 -0.00535339 -0.00633015 0.000553899 -0.0128767 0.000781305 -0.00952736 -0.0084566 0.00570243 -0.00694225 -0.0136653 0.004788 -0.00425667 0.00180299 0.0067436 -0.000390165 -0.000773582 0.00284257 -0.00577383 -0.00357024 0.00387161 -0.00851433 0.000442131 -0.00127833 0.00342234 0.00382412 0.00530586 -0.00777805 -0.00811711 -0.00270339 -0.000169774 -0.00462106 -0.00102452 -0.00276087 -0.00533652 -0.00462705 -0.010002 -0.0121437 0.00121775 -0.0045686 -0.00678543 -0.00355869 -0.00118493 0.00660853 -0.00216145 0.0042889 -0.0063121 -0.00585426 -0.00439954 -0.00288927 -0.00656849 0.000537107 7.29779e-05 -0.00502232 -0.00713314 -0.00908954 -0.00672099 -0.00925472 -0.00571339 -0.0100282 -0.0025597 -0.00501909 -0.0102379 0.00735394 -0.00491211 -0.00777951 -0.00855203 -0.0136211 -0.0081703 -0.0196591 0.00358647 -0.0119515 0.0058531 -0.00581491 -0.00750063 -0.00507812 -0.0106601 -0.0114874 -0.0128587 -0.0142047 0.00403374 -0.00654064 0.00337169 -0.00958585 0.00315889 0.000503635 -1.93416e-05 0.000222362 -0.00134217 -2.25656e-05 0.00345393 0.00563238 -0.00948132 -0.00885664 -0.00678777 -0.00536015 -0.00913725 -0.00135145 -8.99855e-05 -0.00563297 -0.00808436 -0.00201732 -0.0010678 0.00032377 0.000493429 0.000742086 -0.000739112 0.00116713 -0.00113165 -0.00100511 -0.000362619 0.00144186 0.00164024 0.00214168 -0.0113417 -0.00572641 0.00722563 0.00253795 -0.0120502 -0.0101188 -0.0109482 0.00753121 -0.000888472 -0.00207328 -0.00136333 -0.00433642 -0.0035417 -0.00915465 -0.0142884 -0.00328839 -0.0110477 -0.00126158 -0.0068089 2.42232e-05 0.00402027 0.0040163 -0.00544752 -0.00443428 -0.00493005 -0.00616989 0.0013732 0.000952989 1.23646e-05 -0.0015971 -0.0209386 -0.000581037 0.000446838 0.000980471 -0.00446193 0 -0.00093298 -0.00177421 -0.00357145 -0.0107103 -0.00731109 0.00222194 -0.00945711 -0.00872152 0.00153092 0.00387056 -0.0123649 -0.00443743 0.00099223 -0.00271947 -0.00419086 -0.0105639 -0.00995118 -0.00827256 0.0069625 -0.0072236 -0.00535937 0.000680949 -0.00482848 -0.00571018 -0.000756308 0.00169466 -0.000969143 -0.00718886 -0.00718959 -0.000783191 0.00111155 0.00158879 0.00133613 -0.014078 -0.00279434 -0.00338515 -0.0103161 0.00365127 -0.00323829 0.00528549 -0.00129929 -0.000812826 -0.0138131 -0.0127697 -0.0145141 -0.0142985 -0.0149774 -0.0121691 -0.00327756 -0.00276423
internal_weight=0 3.29889e+06 1.31057e+06 1.98832e+06 1.03182e+06 485963 1.57691e+06 545861 411407 612793 300672 245189 278750 156610 177725 69923.2 168282 293590 206432 233682 444511 362133 163197 88708.3 192373 190041 165757 24284.3 964122 495233 144062 206382 109673 198936 109094 108558 468889 276825 87157.7 75331.7 55737 38806.9 192064 65561 75706.6 53997.5 58608.8 137772 90207.7 47394.3 10521.8 65858.7 143475 56973.6 69166.3 86686.3 45840.8 289912 159118 126205 21709.1 31453.7 61868.5 11826 76634.3 38668.6 40845.5 52584.6 14830.4 153561 31734.7 59491.8 41364.1 40177.9 44031.2 158980 78851.4 28712.9 93728 77298.8 23941.5 72877.7 65161.6 44251.5 28603.5 25425.2 82377.6 29536.7 68355.9 45205.7 16825.6 82483.2 121779 143199 27510.9 44185.8 205321 14856.7 86905.7 39831.5 47402 40867.4 19386 36957.6 10908.3 14357.2 168133 40912.4 10026.2 37650.7 23150.2 21333 3829.26 17503.7 3239.1 99013.4 33255.5 81606 7716.13 47567.6 31741.3 2217.75 29523.5 1173.51 30665.5 78865.4 22637 10641.2 6912.75 32596.6 73327.5 39120.5 23369.6 14360.2 38244 22861.2 12212.2 16781.2 53357.3 113993 71172.1 66568.1 25301.3 121344 6826.97 42813.4 97337.4 55678.4 10497.6 7690.7 86102 14768.6 10028 16975.7 5559 84488.2 33196.3 142832 131758 114281 25473.8 88807.4 17476.6 186137 71957.6 111330 102045 72245.7 2510.03 53392 23200 55400.9 77806.1 10913.3 10143.2 78114.1 127379 26231.7 21819.3 30886.2 3188.34 5885.55 1347.17 26342.4 13169 18926 1044.24 17094.2 6182.68 3021.86 61526.8 25619.2 23194.2 35907.6 42821.1 36652.2 22483.5 13393.5 688.205 101148 29209.9 59925.4 22543.8 62625.2 16581.7 32216.9 18053.8 9009.46 12843.6 51009.9 73258.3 34680.2 16429.2 11549.3 66892.8 11416.7 26308.2 2004.2 45621.4 31334.8 24458.8 9353.95 4090.93 25444.3 21556 53174.6 21069 14942.1 75787.1 6049.08 69738 7371.44 2417.41 31657 123264 71665.6 3106.88 11791.6 9332.36 43304.7 2057.62 23811.8 17249.5 18303.9 6366.89 67144.3 75092.7 23861.3 12265.2 51231.4 35479.6 6293.86 33850.7 27353.5
internal_count=33518927 33306535 18358719 14947816 16044726 8048291 13441433 7996435 1506383 6698179 4115809 3880626 2313993 1999596 750522 802071 1651742 4603356 3164954 755861 5046437 4195142 1749611 642454 3444935 1671539 1417973 253566 6743254 3697729 2116213 3193384 1006315 2445531 1577084 402258 3045525 1879817 1438402 1261721 632784 687242 1165708 733199 1159398 806175 645427 1427235 323927 182259 171075 372887 431934 372119 348264 1197525 658170 1939613 2894528 792821 353223 493195 196106 176681 1429250 129024 539355 239595 48861 1057112 270335 321376 582099 484127 164896 2496767 597749 247604 353397 281572 82912 1108829 1004417 507047 282508 322376 851295 352878 956815 616659 275788 1465278 778923 1812747 399526 520937 1758116 45520 820224 145909 696617 590404 264064 450691 156467 138380 1160690 562705 150793 604891 340156 344089 56090 287999 41067 1291810 550407 235828 104412 713907 490321 38800 451521 22947 135176 1388727 76712 131249 88172 450631 1235817 670424 416956 262050 140926 334226 62982 272639 198660 729839 459209 427475 174659 860520 27478 141668 1587870 891337 158356 110716 1387938 129638 72726 242623 86641 791818 296711 986031 878343 740338 168407 571931 138005 1617929 583286 715056 640643 473611 42384 720434 67082 300827 1373419 183122 173309 224391 1303496 280662 226085 411912 23670 91603 25251 322555 224620 173977 15853 115110 22518 22731 863177 347291 320315 515886 270630 233307 150786 77035 17122 1022834 291258 423772 312980 513359 108669 196592 218690 154906 200068 434067 1187870 551421 71825 59071 1190297 155982 236943 25904 571376 524244 404760 146977 20549 380792 303814 350440 297113 216763 772410 57582 714828 103686 28406 279651 822705 480594 24259 221394 69927 508083 33995 83504 207131 64297 51511 685537 1405769 431308 233266 974461 688870 109104 426432 336755
cat_boundaries=0 1 2 3 4 5 6 7 8 9 10
cat_threshold=2 5 4 2 4 2 4 8 2 2
is_linear=0
shrinkage=0.015


Tree=2
num_leaves=255
num_cat=1
split_feature=3 1 2 8 7 1 7 8 11 7 8 6 6 8 2 2 11 6 11 7 5 7 5 8 9 7 2 6 5 6 2 7 6 2 5 9 7 8 6 4 7 2 6 6 9 9 11 11 8 9 9 5 6 5 11 11 5 2 5 11 11 2 8 11 5 11 7 5 9 8 9 11 5 8 9 8 5 2 5 5 9 4 6 7 8 7 6 8 5 7 5 2 2 9 11 9 9 8 6 11 9 4 9 1 7 6 5 5 5 8 11 9 2 8 5 8 6 8 6 11 9 5 5 8 11 9 9 8 7 5 6 6 6 9 5 8 8 9 6 7 9 2 9 7 8 11 8 5 5 6 8 5 9 7 2 5 8 4 9 7 5 5 2 11 9 7 5 5 6 5 8 11 8 5 1 5 5 8 7 11 8 6 8 9 2 7 11 7 9 8 9 7 9 5 5 2 5 9 5 5 7 7 7 7 8 9 6 8 4 5 6 2 11 5 6 6 5 9 9 5 7 9 5 5 11 5 6 9 5 9 9 7 2 7 11 5 6 5 7 9 7 6 11 7 8 7 6 5 2 7 9 8 8 8
split_gain=891772 80841.3 8191.51 6337.68 4573.88 4337.26 3355.92 1457.61 1421.56 1284.55 1222.74 1315.73 1190.83 1159.13 838.459 821.722 794.651 768.154 763.967 683.875 678.666 700.992 642.986 665.787 628.963 580.678 559.451 533.536 624.5 589.702 523.664 564.105 513.582 512.913 490.782 472.619 628.844 455.849 454.244 452.797 446.677 429.644 415.523 813.992 503.096 486.165 448.654 414.57 411.876 409.602 408.991 500.045 404.444 397.14 366.728 602.261 359.179 357.748 446.073 412.065 364.487 357.334 354.711 363.561 347.299 341.065 338.792 336.361 334.382 332.685 398.731 380.69 329.172 328.642 328.562 327.559 319.014 315.666 314.237 313.487 309.463 306.844 305.968 442.158 305.95 304.352 303.282 302.668 299.184 298.245 298.004 297.551 293.286 366.866 292.629 291.033 290.867 400.739 290.035 282.005 282.17 271.974 263.366 263.218 260.732 278.656 259.942 435.897 258.329 363.73 250.794 255.216 248.863 332.918 245.333 306.309 240.797 240.666 239.993 239.213 282.2 280.693 298.225 239.131 269.352 239.123 250.836 516.723 248.409 238.85 276.223 236.358 235.916 239.548 233.114 352.269 257.162 232.719 229.327 227.706 227.217 225.399 222.282 243.568 221.723 220.298 219.472 218.107 216.407 215.779 233.737 212.442 392.504 282.632 281.098 257.824 214.991 208.773 208.376 245.875 207.878 211.169 207.098 228.765 205.672 230.829 201.04 197.922 210.508 196.542 196.036 271.562 243.941 195.152 194.386 189.155 278.976 262.941 188.765 245.545 314.878 188.379 187.661 187.517 187.073 186.446 185.69 304.314 184.318 280.545 254.54 334.341 221.802 206.62 183.684 183.654 279.901 256.071 182.923 180.563 178.369 179.532 178.256 190.442 180.427 176.289 176.255 175.959 173.56 173.373 329.443 171.883 170.192 168.998 196.705 168.302 167.379 188.969 166.279 165.507 163.812 163.193 162.441 217.639 161.161 216.149 161.024 160.967 159.923 159.908 159.6 159.231 157.283 245.62 245.656 165.805 157.052 264.582 161.64 156.114 203.439 154.601 153.612 153.017 152.861 152.249 151.726 151.455 150.373 150.075 209.848 149.441 181.352 306.619
threshold=0 2.5000000000000004 152.50000000000003 -1.5646873712539671 0.06146026402711869 1.5000000000000002 0.34083348512649542 2.8830252885818486 0.33651736378669744 -1.1330809593200681 -0.073529317975044237 -2.6297556161880489 3.3571461439132695 0.85029935836792003 104.50000000000001 193.50000000000003 -1.9515774250030515 3.6056334972381596 0.82552099227905285 -1.2877910137176511 -3.234428763389587 2.5624091625213627 4.2954590320587167 -1.5646873712539671 2.7732994556427006 -2.7082486152648921 52.500000000000007 -3.9152532815933223 -4.1668608188629142 -3.9707579612731929 193.50000000000003 2.7661798000335698 4.5394978523254403 138.50000000000003 -3.9272066354751582 -1.1795262694358823 3.861528873443604 0.66674003005027782 2.5871489048004155 15.500000000000002 -0.91596385836601246 194.50000000000003 -1.9060952067375181 0.60728442668914806 3.7819899320602421 -1.1585781574249265 -1.5713257789611814 0.93759101629257213 -0.59095147252082814 0.39916945993900305 -3.6785595417022701 -2.467965722084045 -2.6297556161880489 -1.9555013179779051 -0.37454758584499354 -0.473942220211029 -1.5589820146560667 195.50000000000003 0.87371468544006359 1.5699952840805056 -0.79076099395751942 52.500000000000007 3.452889204025269 1.7972927689552309 -2.6057605743408199 -0.81941121816635121 -0.60361963510513295 -3.0689288377761836 0.33957046270370489 -0.69101196527481068 2.4312624931335454 0.2572495043277741 -1.0000000180025095e-35 2.7844326496124272 -1.7881677150726316 -1.0439457297325132 5.518193483352662 186.50000000000003 -4.3811693191528311 3.3788108825683598 1.9035940766334536 16.500000000000004 1.9991440773010256 2.6804473400115971 -0.82012590765953053 2.4947530031204228 -1.3772415518760679 -2.2271429300308223 3.2305445671081547 -0.74577468633651722 -1.3466199040412901 185.50000000000003 51.500000000000007 -0.54498392343521107 2.0839936733245854 -2.0407017469406123 -0.30917763710021967 -0.51582831144332875 -2.3798462152481075 0.43390908837318426 1.9367734193801882 7.5000000000000009 3.3670083284378056 1.5000000000000002 -3.0967974662780757 1.4480118155479433 4.7371950149536142 4.6390714645385751 -2.5485115051269527 2.6484661102294926 -0.10299628973007201 2.4750161170959477 162.50000000000003 2.1817129850387578 2.8839390277862553 -1.588916480541229 0.54634684324264537 -1.8851528167724607 -2.3098556995391841 -1.1076711416244505 1.6453031897544863 5.7553710937500009 4.4129774570465097 1.7831777334213259 -0.473942220211029 -1.211481988430023 0.78352177143096935 0.34779094159603124 -0.8925931155681609 -3.0689288377761836 4.9144928455352792 -1.1454640626907346 0.1549751162528992 -0.50180464982986439 -2.6208804845809932 -1.3558833003044126 -1.286699593067169 -0.60027331113815297 -3.435730934143066 0.62134993076324474 2.7732994556427006 72.500000000000014 -1.5632524490356443 -0.071324408054351793 0.32223328948020941 -1.2779261469841001 -2.5398432016372676 -4.5168294906616202 -1.9988580346107481 -2.0410898923873897 -1.1497874855995176 4.3707194328308114 -1.0056957602500913 -2.2307176589965816 152.50000000000003 -1.7328894734382627 -0.016573116183280941 21.500000000000004 1.9367734193801882 -0.45822387933731074 -2.1277137994766231 -0.90190422534942616 185.50000000000003 -0.23127180337905881 -0.068492837250232683 -0.77506703138351429 -2.4301139116287227 -1.9748042821884153 5.7599403858184823 -2.0385348796844478 -3.5602312088012691 1.5699952840805056 -3.0587143898010249 -2.0627477169036861 1.5000000000000002 -0.68111509084701527 -0.99118822813034047 1.6470396518707278 -3.0967974662780757 -0.4115555584430694 1.2707547545433047 -0.57660257816314686 0.44094100594520574 0.67187100648880016 68.000000000000014 1.2314585447311404 1.0949423909187319 0.68978700041770946 -0.48396334052085871 -0.089291602373123155 -0.86132574081420887 -0.27073761820793146 -0.37873353064060206 3.6953730583190922 3.2305445671081547 78.500000000000014 -0.40595360100269312 3.2503316402435307 -2.0183036327362056 -2.6208804845809932 3.2933579683303837 3.3773844242095952 -2.7082486152648921 -0.91596385836601246 -0.11662954092025755 0.78352177143096935 -1.8018552064895628 -1.8575717210769651 4.5000000000000009 -0.40595360100269312 -2.2775751352310176 155.50000000000003 -0.29164758324623102 0.46711263060569769 -0.45194478332996363 4.5905613899230966 -2.3448803424835201 3.0820428133010869 0.61261403560638439 -3.6826902627944942 4.4265763759613046 -0.37873353064060206 -2.9508804082870479 -2.921515583992004 -1.1474272608757017 -0.32622192800045008 6.4773888587951669 -0.24498997628688809 -2.4105420112609859 -3.1031844615936275 -0.63998645544052113 -1.6715179085731504 155.50000000000003 -2.0496134757995601 -0.38616447150707239 4.1117229461669931 -0.69692277908325184 -3.5874708890914913 0.26799887418746954 0.46558776497840887 -2.2845212221145625 -3.1753439903259273 -1.3856875300407407 2.3878970146179204 -4.0999486446380606 1.7207382917404177 4.1137521266937265 -0.32622192800045008 82.500000000000014 1.5421358346939089 1.769139885902405 -1.8112748265266416 -0.73145309090614308 -0.75110256671905506
decision_type=9 2 2 2 2 2 2 2 2 2 2 2 2 2 2 2 2 2 2 2 2 2 2 2 2 2 2 2 2 2 2 2 2 2 2 2 2 2 2 2 2 2 2 2 2 2 2 2 2 2 2 2 2 2 2 2 2 2 2 2 2 2 2 2 2 2 2 2 2 2 2 2 2 2 2 2 2 2 2 2 2 2 2 2 2 2 2 2 2 2 2 2 2 2 2 2 2 2 2 2 2 2 2 2 2 2 2 2 2 2 2 2 2 2 2 2 2 2 2 2 2 2 2 2 2 2 2 2 2 2 2 2 2 2 2 2 2 2 2 2 2 2 2 2 2 2 2 2 2 2 2 2 2 2 2 2 2 2 2 2 2 2 2 2 2 2 2 2 2 2 2 2 2 2 2 2 2 2 2 2 2 2 2 2 2 2 2 2 2 2 2 2 2 2 2 2 2 2 2 2 2 2 2 2 2 2 2 2 2 2 2 2 2 2 2 2 2 2 2 2 2 2 2 2 2 2 2 2 2 2 2 2 2 2 2 2 2 2 2 2 2 2 2 2 2 2 2 2 2 2 2 2 2 2
left_child=1 2 3 16 10 9 8 20 22 14 11 25 13 18 52 32 49 35 26 112 75 48 23 53 30 -3 67 29 47 78 31 110 50 81 84 36 74 64 108 208 -36 -32 45 44 92 118 -47 -29 56 61 51 -10 73 68 55 216 -22 58 60 116 -39 -1 63 -62 -21 -45 -30 85 -4 158 80 -72 103 145 90 249 106 229 -20 -69 142 101 83 -26 -28 -11 207 141 146 -57 -18 -65 137 -94 -59 -79 185 -98 174 147 219 -7 -91 167 105 175 107 138 -33 166 111 -8 113 151 115 131 -60 -70 -37 120 149 122 123 124 -121 182 127 218 -128 130 -106 -13 -23 -134 135 -131 -136 -44 -52 -90 -130 -63 206 -144 -78 -5 -43 241 173 -24 -151 153 211 155 209 239 -154 -41 159 -25 -76 244 163 -114 165 -108 -110 -19 -169 -99 171 -67 -172 200 -48 176 -54 -177 -124 180 -180 224 -56 184 -117 -50 187 -141 190 192 194 -192 193 -190 -116 197 -197 -147 -16 -161 236 -202 204 231 -186 -88 -71 -55 -15 210 -155 -153 -183 214 -92 -185 228 -218 -127 -101 -148 -135 -34 -224 225 -150 -205 -171 -14 -66 248 -204 -115 -234 235 -235 -9 -238 -239 240 -12 -77 -149 -188 -162 -230 -129 -163 -103 250 -6 -194 253 -253
right_child=-2 4 6 5 7 33 24 148 15 12 19 114 54 39 198 -17 17 72 27 37 21 132 119 69 82 -27 34 28 66 -31 41 38 222 -35 40 42 -38 57 -40 157 -42 88 43 65 -46 46 98 -49 96 -51 76 -53 104 86 125 89 -58 94 59 -61 62 87 -64 91 77 170 -68 79 117 70 71 -73 -74 -75 160 99 144 95 -80 -81 -82 -83 -84 -85 -86 -87 205 -89 139 102 213 -93 93 -95 -96 -97 97 169 -100 100 -102 230 -104 -105 129 -107 164 -109 109 -111 -112 -113 162 232 188 183 -118 -119 -120 121 -122 -123 178 -125 -126 126 128 246 140 134 -132 -133 133 221 136 -137 -138 -139 -140 186 -142 -143 143 -145 -146 195 220 242 181 150 -152 152 156 154 -156 -157 -158 -159 -160 199 161 247 -164 -165 -166 -167 -168 168 -170 227 172 -173 -174 -175 -176 177 -178 -179 179 -181 -182 212 -184 215 202 -187 243 -189 189 -191 191 -193 251 -195 -196 196 -198 -199 -200 -201 201 -203 203 226 -206 -207 -208 -209 -210 -211 -212 -213 -214 -215 -216 -217 217 -219 -220 -221 -222 -223 223 -225 -226 -227 -228 -229 245 -231 -232 -233 233 234 -236 -237 237 238 -240 -241 -242 -243 -244 -245 -246 -247 -248 -249 -250 -251 -252 252 -254 -255
leaf_value=0.0023165773662903962 0.029014301611695555 0.0051206416083516733 -0.00095221419310624036 0.0024545827219145783 -0.0057663611783184505 -0.0053003280527115417 -0.0037969616336603292 0.0027460609176472601 -0.016975242339038014 -0.0053359121393739672 0.0051950060520969928 -0.0091515773300784205 -0.0030961122243954547 -0.0026433807114977048 -0.0090924830457363489 -0.0061221930502529847 -0.002561473172348274 -0.0047532852539362474 -0.0065206961654134506 -0.0050562177155770976 -0.0081343928030889641 0.00038100905617527263 -0.01068003735140205 -0.0043768351951179911 -0.0018091084176228673 -0.0047133566517929609 -0.0058786740668786523 0.007079460633446044 -0.00081811414328394688 -0.012787496432636684 -0.020864026296005297 -0.0027093144898021259 0.00039148779496222548 -0.011638217360201222 -0.0014545424526868109 -0.018744774632844879 -0.019247867055947609 -0.00045132874412414167 -0.0043180213968680731 -0.0017765042004613443 -0.005401559197962251 -0.011127046367405391 0.00053791640363471554 -0.0099731108933136647 -0.011192596979255483 -0.014465994331751558 -0.0057929282895165272 -0.0009412815189890531 0.0028205311659705123 -0.005052290368783967 0.0014349516108681777 0.0011842119633844255 -0.0021473862392842962 1.7190803650549272e-05 0.0036471871947410055 -0.014460724586232701 5.4716566072502386e-05 0.005588546628556494 0.0046058686841630777 0.011967456195078167 0.0032350644592546267 -0.0043001678678197359 0.0057936339372109315 -0.0019626172180804763 -0.0023826695261107878 -0.0094791382550231049 -0.0033012233929462054 -0.0022116993089788123 -0.0067258472257650873 0.0015091413416216742 -0.0043762566129330457 -0.020438804990631044 -0.010794351616098593 0.0034426845140190449 -0.010673944037277797 -0.00073028382467994887 0.0037698412984551494 0.0074565305968384669 -0.0022337760343442269 -0.003885730739620453 0.00081261351558077025 -0.0047272755334886825 -0.0068563740540900087 0.0047957731377509388 -0.0017600158869787972 -0.0024638466631879299 -0.0012147761261036983 -0.0001461071696813725 -0.016493220173150476 -0.0050381297089461497 -0.0017128359575279287 0.0050506357463379276 -0.0064961110246309203 -0.004097639270666073 0.014520059506769795 -0.017283965235515408 0.014630739925640558 -0.0029400919422262316 -0.0086425040750921223 0.00227264831513125 -0.004646392668683213 -0.0062451761146601502 -0.018928585402528165 -0.0058159229611277541 0.0020803513985522613 0.0015292378342187764 -0.0055703954010640324 0.0037892892559970334 -0.019369596080656352 -0.020166272173143731 -0.0020670979885262009 -0.012608331260060614 0.0066326155648110023 0.0058734861439492993 0.0071800249379869356 -0.0044583133078819181 -0.0082621600584746428 -0.023341860406084117 0.002909576085990905 -0.002887347994968844 -0.012989097967224666 -0.0049741784751976825 0.0034600802164579387 -0.00050815656828975765 -0.011103369855448974 8.0172820370899255e-05 -0.00384193468851318 -0.0020405630882560392 0.00028424072149450455 -0.012546626563691021 -0.003562243622919673 -0.00018252256136923377 -0.0034200170808747618 0.0095056165889020935 -0.0010451220713051951 -0.0036993148351937457 -0.0026932927084641176 -0.0037429462388720086 -0.00043044764895352593 -0.027861303662540075 -0.0021095054339064245 -0.014034965635339037 -0.0018136302388305936 -0.0041918319944867681 -0.0080460303089981023 -0.0029490716329130455 -0.0059281531511296828 -0.0075743756891285766 -0.0097803905541949555 -0.009928547604735662 -0.002946198309107465 0.01077264570194721 0.0099324872817396683 -0.003578321258033959 0.0050248306116473492 0.0040710601070633803 0.0011817497299660585 -0.003187578739251832 0.0019435371366869688 -0.0091597944801765762 0.00084064585186640164 -0.010162376460067044 0.0038960613000374772 -0.0024953531277351303 -0.00047039223597794555 0.0027301681209902407 -0.0081966611499811378 -0.00076335141383015699 -0.0054743550968503647 -0.0096182237615466178 -0.0041800246678381633 -0.0044008369359291753 -0.0064713421687210932 0.010583973244760087 -0.0089036857129370147 -0.0016498576546492968 -0.0079653352801153151 0.0033007192088364691 -0.0041265086200204353 -0.00091069743247230474 0.00069531770514325432 -0.0051382600694663385 -0.0006825736864035087 0.0056612100013612053 0.0032390991537104836 0.0015219667344893604 7.4524999893778405e-05 -0.0047669369597740712 0.005900110784851571 -0.029465019393843269 0.0067117533936419081 -0.010572916615173433 -0.0071224900189883764 -0.006952759118857549 0.0029058508028538673 0.00064846962847660955 -0.0041600157241311712 0.0016563778001546252 -0.0038808927329592713 0.00049662580173220384 -0.029221947437020161 -0.0011574134307113329 0.00086522822487138703 0.0033565533668578973 0.012812306602184612 -0.012427647139377797 -0.0011829259299835763 0.0033209750008323475 -0.0036423462791316187 0.0038427581024780433 0.0024419812242496386 0.0060674692354045229 0.0013864129897122671 -0.0050567593439765791 -0.0073164103081467865 0.00032200117214519592 -0.002168251797469641 0.004132079372095779 -0.0087337004714784002 -0.0017126676779557436 -0.012552393108055268 -0.00015220456712649585 -0.015516139638092119 -0.0051464303618341291 0.0023589514917815402 0.0080596995570393036 -0.019137149901977055 0.00091358737240281854 0.001622526299498299 0.0026104279848625598 -0.0073717097034085325 -0.0036571809472905679 0.0030990905189784215 0.013177194074761428 0.0085911178040726666 0.027363283628534102 -0.00039654131241429152 -0.000698604843639275 0.0059506274273387148 0.0088898707504363305 0.0094558579679568083 0.0030908207868695133 -0.0021155376060412517 -0.011467354097822938 -0.0057180955120357726 -0.0087505438457517477 -0.0056413814884126992 -0.0072818989401416375 -0.0014721698726892275 -0.011777040870965953 0.0065670061041455058 0.0047830344846083043 0.00040828761233545173 0.024903867074837733
leaf_weight=4831.3766635005886 222690.84306701459 1620.9286578425672 3422.6979642485312 3343.1150793978013 1889.8899378750939 37356.908032797313 49392.622738422717 10640.398083316002 722.47339275619015 41392.017224935247 27948.866376759735 833.169233172026 9750.6893109915909 57414.799012234493 4731.2809040212887 5665.1307761031203 5610.9785172300762 5365.3171231954257 8206.7991077650222 1766.1647795082572 1291.8187082997174 13566.800318668254 1152.1163332780125 22615.683803406555 10923.325431677804 8056.5607522025821 5468.6102231653058 2191.4718439267454 14028.981139055424 2215.0343331057302 456.08952311019675 1194.8414058391936 925.28598093608161 3421.2819276194205 6735.561908467178 122.79526948195416 900.54760096978862 7102.2361566557665 11014.429364010637 90463.402541399817 159168.51407639508 3037.498613351725 4819.0741581396433 5729.4985926140507 2391.0504705717904 1600.5134129528888 58376.35314107583 4273.4896283617709 54470.570798436369 9146.2706566352572 16123.082249505707 642.70497145521222 7825.4579802348781 5177.7791539176233 3320.7979974014306 1016.1012326353812 17710.712173907581 3049.2972888831864 34657.977705352285 1740.2710945248837 35017.720085044799 2682.2375014433055 9486.859336936046 5958.2868132122094 1569.3261496300693 7752.6953106344226 105203.94634638677 39066.690957379731 990.23269406514009 6793.8637465686988 6830.3723868555389 348.72471545927692 1265.9470546361408 3632.5218739985139 4592.8844943303848 17117.335230937068 6139.9433806550805 151.73214133409783 7270.6253853981107 71060.317245334547 11602.343645274261 43937.57928872967 1895.6931997950305 2880.7008746649371 15806.191705977428 10414.854218163702 3943.8172658540825 4008.3204303691746 317.10713548935018 6301.8575887913903 1503.0833167698547 1762.7106371206464 17196.899226759677 87609.530216295199 1137.7532942951657 352.55747853068169 436.87792181619443 3883.9322261395464 11363.459624566414 14130.51433996766 1790.9209593514097 5867.8950852082271 323.02244833525037 5830.7711118476582 5131.1939594462456 6656.8792522157673 5199.1460760332411 6101.4035364504671 392.26281648577424 748.47945984679973 24147.288779412644 751.62529849351995 807.61389329459053 26835.041904407903 2475.9011066278908 1060.8736049684558 328.61093442584388 245.77876201987965 1632.1873409752734 1521.9076001182548 966.32445257069776 11607.122706077236 1403.5750372605398 1415.2905610646703 2212.1904200067074 9653.5135449783447 6221.9282482500785 3485.8648119374411 23898.176753437736 1065.0783318390022 3149.0400581700669 3204.0370489700581 11159.343605016147 456.10547800746281 24089.240164591582 20921.407291911804 186173.62335405903 6997.3045645931707 184157.52962065375 131.1503666760691 14228.226774275798 671.2191194856423 118549.16848875103 10564.540495932059 377.7297740598442 21571.489781152981 9384.3844254020387 1258.4900114167831 163.41520199901424 1233.5561645088601 8713.4349892049213 3981.0739221900585 781.56571372086182 2429.9007482276011 16704.512537598224 33042.936209449916 3309.0802121877805 31976.786098788929 1530.2732306489488 487.18414915108588 965.74567317875335 5000.6590989722754 10781.600219558575 2614.2897824116517 6126.0787678821362 878.37714673421578 5109.4767055655793 14669.506446350038 2499.2743148831651 330.72949489974781 15738.621112219029 3435.0115964823053 31478.988777623155 1059.5627127444604 4924.461863967008 21951.437679870192 2435.2726574069202 2709.5471984406468 17027.938474521176 19266.710751276463 3704.7483846635114 1273.115099343413 6983.9521153121605 5734.0726165564847 7202.6126785371116 45933.695312772616 3174.7879103522773 4979.2149410031543 378.20638986403355 65.064233160568619 8412.0810779553722 258.04038248875077 310.35510231391527 1081.6911911083735 26925.19335306287 13328.886242648878 3421.5831297759432 3102.7295027939253 2250.3136195805273 4036.2394496850793 54.785744452150539 657.59077584603801 6161.3350968168243 5829.6910686476622 472.59405758133016 342.54279540427888 28037.951146841027 12182.976432695274 123983.94282743675 12989.676138398299 12840.936005284029 3159.6924358743981 3054.1512449362126 16634.464512131352 24698.940800526154 1736.8440877692192 48164.457032918275 1093.0066657809075 505.73279865790391 2805.8792999758152 928.07645957014756 2816.3862773682922 530.90460889169481 3276.6010547185433 12395.426014554687 2068.3160706916242 71.328577611187939 20033.843578550492 367.90741745895502 17452.504236982782 41524.360332712356 2445.3053813813594 1262.4349347951938 587.06195709528401 2740.1838757698679 278.80472975694647 1820.4150867079152 862.33175164147178 16140.673294239405 3607.1547821600107 2783.5128894393019 2766.0453885914176 15116.907052675946 280.11740785418078 4532.8744244206464 2243.1498717502109 10966.942384113132 24115.83309904093 2001.1839204598218 684.49794430687325 369.43947556905914 2730.3217361295247 2301.4692393367677 181.35966932494193
leaf_count=45722 212392 6954 34690 26336 21736 500881 613618 63542 10778 561987 118265 8878 109324 549026 71794 77756 74274 63290 115041 14792 15068 95848 17684 269333 111740 75496 76778 18285 150465 32250 9884 15095 9348 62652 73143 2271 21147 44955 138441 964794 2205287 54624 48804 98424 44003 29234 843292 47875 316105 126478 127704 5674 76611 54565 25036 17342 119130 13134 169082 6175 188528 38382 47598 41176 9631 135747 1277184 444555 15058 64229 76913 5097 22081 28129 81594 140619 46532 737 83229 836257 107112 600996 24736 23076 184008 123627 45833 45895 7490 77670 18068 8896 255385 1213813 2942 3302 1490 32390 178645 101146 18037 88070 5499 85425 49735 60668 57440 41859 7932 15540 255371 12341 3590 118748 10497 7592 2437 5690 16379 17627 15344 152567 12705 14013 29300 94431 68347 37701 219110 17028 37299 20494 91797 2329 266000 242011 2021685 89430 1553733 5350 141230 11845 1222284 128983 3677 222647 127839 13906 1536 17601 104749 14097 3979 18382 73648 155862 18662 347761 13349 7952 11758 87113 51485 15521 56543 8886 73779 160116 33265 2876 229945 50558 481397 4739 83063 222975 29125 20210 208757 205768 35698 9018 70089 26834 36725 291080 32381 62977 1894 660 37435 2346 1951 8230 135058 105312 31912 25517 26136 45201 637 4384 36166 32702 1402 5331 284914 105302 1495065 63808 66069 14166 20179 242324 401897 10626 526934 9751 7964 22753 15184 19995 6005 39493 74595 9923 565 127175 3720 97690 662165 18993 5045 1800 9367 311 11571 4822 82228 12604 9844 19947 133136 5217 65896 32426 129606 384741 24075 8559 3121 12879 13961 293
internal_value=0 -0.00204426 -0.00328062 -0.00380503 0.00262046 -0.00333384 -0.0018708 0.00116599 -0.0013522 -0.00306539 0.00369133 0.00215819 -0.00334915 -0.00357916 -0.00227088 -0.000478479 -0.00547063 -0.0056291 -0.00402873 0.00416303 0.000660545 0.0011333 -0.00202424 -0.00165154 -0.0040251 -0.0030643 -0.00440746 -0.00310651 -0.00276295 -0.00554619 -0.00440824 -0.00390808 -0.0003401 -0.00590064 -0.00496625 -0.00582564 -0.00677347 0.00330388 -0.0062558 -0.00285037 -0.00524141 -0.006452 -0.00550417 -0.00511317 -0.00437862 -0.00642174 -0.00660139 0.00177592 0.00155535 -0.00265266 -0.000237818 -0.00842046 -0.00216213 0.000598436 -0.00211583 -0.00291341 -0.0005016 0.00372735 0.00353991 0.00483965 0.00273498 -0.000851159 0.00316858 0.00258541 0.00130944 -0.00647595 -0.0030092 -0.00376144 -0.00337301 -0.00193159 -0.00169571 -0.00516132 -0.00330883 -0.000894797 -0.00664492 -0.0007436 -0.000188089 0.00188622 -0.00450813 -0.00329204 -0.00155387 -0.00575023 -0.00120681 -0.000429431 -0.00281963 -0.00475888 0.00145395 -0.00293215 -0.00615474 -0.00688642 -0.00581716 -0.000359096 -0.00423869 -0.00449139 0.00802199 -0.00981026 0.00186794 0.000408418 -0.00643241 -0.000482266 0.00101198 -0.00626811 -0.00572043 -0.00297385 -0.00237951 -0.00128193 -0.000285666 -0.000159798 -0.00911963 -0.010342 -0.00332445 -0.00392959 0.00477899 0.00495297 0.00279118 0.00184293 0.00448434 -0.0100582 0.00137608 -0.00328552 -0.00520923 -0.0028861 -0.00236505 -0.00577058 -0.00776045 -0.0014187 -0.00173724 -0.00295194 -0.00106274 -0.00256917 -6.39329e-05 -0.00203901 -0.00103815 -0.00237322 -0.00265842 -0.00412913 -0.00250454 -0.00199591 -0.000280197 -0.00401715 -0.000608709 -0.00625673 -0.00172144 -0.00200837 0.00308163 -0.00124715 -0.00757546 -0.00125445 0.00348206 -0.00452943 -0.00381452 0.00460065 0.00657066 0.00440351 0.00348126 0.00501866 0.00285937 -0.00214517 -0.00343438 -0.00373824 -0.00766718 -0.0072675 0.00287562 -0.000335343 -0.00241287 -0.00436801 -0.00899937 -0.00223757 -0.00145029 0.000150967 -0.00613246 -0.0079218 -0.00570802 0.00424987 -0.0060353 -0.00181827 -0.00353032 -0.00110521 -0.00194101 -0.00213099 -0.00326418 0.00221581 0.000711494 0.00235372 0.00168808 0.00222662 -0.00355163 -0.00536789 0.00352114 0.0012896 0.00393385 0.00619444 0.00158247 -0.00361102 0.00326653 -0.00154631 -0.000333044 -0.00236929 -0.00741562 -0.000541874 0.00402662 -0.0033747 0.00198289 0.00100334 0.00383211 -0.00211704 -0.000657386 0.00233656 -0.00332626 0.0025682 0.00148287 0.00869391 -0.000530474 -0.00624319 -0.00699561 0.00442216 -0.0024204 -0.00202806 -0.000357927 0.00161145 -0.00652692 0.00119177 -0.00523015 -0.00659998 0.00302927 0.00674287 0.00307892 0.000741346 -0.00398223 0.0021976 -0.00699963 -0.000418205 0.00632565 0.00881319 0.0108081 0.0177886 0.00420619 0.00503058 0.0056125 0.00592989 0.00558171 -0.000197834 -0.00253642 -0.000859976 -0.00456349 -0.00728314 -0.00477414 -0.00777746 -0.0050336 -0.00561799 -0.00374099 0.00295826 0.00356252 0.00604957
internal_weight=0 3.15387e+06 2.49309e+06 1.81716e+06 660780 1.41647e+06 675933 280211 544793 1.28236e+06 380569 89549 944867 796342 337490 236866 400695 379355 492503 291020 230021 172091 307927 237702 131139 9677.49 349113 143390 125698 17692.5 115439 92751 231201 134109 187179 349724 88556 121534 18459.5 303839 165904 22688.4 261168 183149 119014 78019.8 76264.8 6464.96 144092 21339.4 226468 1365.18 330509 26305.8 148525 69260.2 19002.5 100242 96054.7 36726.9 59327.8 12193.2 52225.6 42738.7 21292.3 64134.8 119233 161934 4658.71 211396 182727 7179.1 29630.8 48400.3 87655.5 57929.9 225103 19526.1 15477.4 110127 175548 130688 15699.7 13804 21274.8 51806.9 21647.1 7361.78 22232.3 7640.98 48447.5 7721 116623 104806 4187.05 504.29 125090 24685.4 74664.3 54986.1 18727.3 86750.3 6624.88 28364.9 282108 41578.6 218586 206382 7445.06 6250.22 74291.5 50144.2 169486 155282 79871.5 34751.9 34986.6 1236.01 1754.98 70224.9 12065.4 58159.5 46552.4 5149.39 3734.1 79265.1 68960.4 24612.1 44348.3 240530 8280.23 4037.21 27998.6 14431.8 232249 21986.5 210263 11816.4 200281 8882.38 38126.4 3353.46 163946 129114 6517.67 44767.8 13350 36258.8 50190.2 11099.1 9946.99 123579 11231.4 112347 44965 67382.5 4090.65 122440 28669.4 27139.1 39208 34615.1 14203.5 3421.9 12203.6 6077.52 5501.74 22534.1 17168.8 24248.5 58405.3 11187.7 47217.6 31235.8 63300.8 34921.7 10260.7 24661 41403 39999.4 20732.7 18954.4 10304.8 30714.7 23243.7 100404 8565.27 5110.37 45119.7 7048.47 38071.2 8670.12 6983.4 1459.9 29401.1 41424.7 16750.5 24674.2 6981.59 4523.42 30176.2 712.377 22182.9 14507.7 7675.21 4286.36 34831.8 17360.8 181399 28260.5 15270.8 7140.77 4327.27 42836.5 26202 7470.92 61619.2 49257.5 10159.2 16936.4 10312.5 3272.49 4732.79 3807.51 14627.2 2231.73 5901.02 20364.6 12361.7 19021.8 49393.4 8606.64 31703.5 4868.49 3606.05 865.867 29463.8 18823.4 17003 34339.5 30732.4 19883.4 16375.4 3454.91 5498.62 2611.06 14452.8 29116.5 7869.08 2943.83 2259.33 5523.51 5213.15 2911.68
internal_count=33518927 33306535 29486159 22504467 3820376 16682766 6981692 1885417 5369077 14743927 1934959 508631 11162797 9586617 3581130 2045428 5821701 5553379 6229971 1426328 1598243 1115283 3323649 2491836 1612615 82450 4505642 1724329 1493809 230520 1453063 1132117 1967672 1938839 2539216 5189202 1388812 651075 250787 3356646 2278430 320946 3800390 2647506 1651435 1152884 1134234 66160 905314 268322 1912826 16452 3483200 266469 1576180 782666 134198 524923 508847 177694 331153 141844 286198 238600 126152 996071 1427649 1966426 55438 2225367 1889532 82010 364177 439853 1367665 482960 1896374 111360 198270 1280812 1807522 1876187 159552 134816 260786 685614 211031 96122 311062 100511 736563 50072 1607432 1469198 16076 4039 771116 163931 1105000 449544 141936 1275191 83169 342096 3043347 409589 1846165 1723296 112346 97251 881330 625959 775253 704657 426181 200977 171519 20748 18650 831813 155378 676435 523868 60940 46927 793514 698389 269702 428687 2633758 87034 29372 209969 114121 2546724 259039 2287685 138234 1681437 113415 360340 50227 1700410 1351267 50209 411724 197647 307608 287174 140034 122350 569386 50904 518482 221907 296575 22641 1312555 335835 322486 631102 549508 70596 19111 122869 66326 81711 256671 193381 162441 897647 186305 711342 171923 926355 348921 105736 243185 462928 450223 244455 115251 95125 171605 134145 607185 105925 68327 225204 39868 185336 39781 39208 10124 145555 385388 137224 248164 97930 53153 167184 5021 126553 88426 38127 51164 349143 159867 2044091 148259 84451 28263 29197 662289 419965 37460 682155 536685 102395 123899 143023 22324 54846 45498 86054 11459 33267 130051 145470 107321 774310 55159 135271 16523 11478 2111 162163 98621 87050 140713 128109 160566 147042 37598 77654 36146 167307 471854 112145 33416 24857 29084 27133 13172
cat_boundaries=0 1
cat_threshold=2
is_linear=0
shrinkage=0.015


Tree=3
num_leaves=255
num_cat=5
split_feature=3 0 2 0 4 0 2 2 9 9 2 4 2 9 5 8 9 2 2 6 4 9 4 9 4 0 5 8 4 4 6 2 2 4 2 2 4 4 7 4 4 5 2 4 2 2 6 8 8 4 5 2 5 9 2 2 5 11 2 7 6 8 4 7 9 8 5 2 5 4 4 2 2 9 6 5 2 5 9 6 11 8 8 7 5 8 2 8 4 9 8 5 8 2 6 2 9 8 7 5 4 4 4 7 6 5 2 2 2 9 8 6 8 4 5 7 7 2 2 11 7 9 4 5 11 8 9 7 5 9 6 5 2 6 7 7 11 8 11 11 11 2 7 2 2 6 2 2 2 8 2 7 9 4 7 8 2 9 7 11 8 7 7 8 7 9 7 4 4 2 11 8 8 8 5 5 7 9 7 2 6 8 11 8 4 11 2 9 7 8 8 5 6 6 2 5 6 6 5 6 2 6 11 9 8 11 5 6 6 9 6 4 6 11 11 8 2 2 9 7 5 11 9 9 5 9 6 6 6 5 5 8 6 9 9 5 8 11 8 2 2 8 11 6 5 7 9 8 6 9 5 11 8 2
split_gain=765983 166548 20626.3 17872.7 10203.9 7853.17 6692.26 5018.31 4362.38 2693.11 2677.8 2489.79 2409.28 2080.82 1762.32 1740.53 1595.98 1469.07 1330.64 1237.55 1124.63 1110.09 1072.96 1017.97 961.925 960.369 1689.13 1017.76 983.24 930.803 930.391 876.11 1035.53 851.928 850.375 841.625 794.299 692.57 679.262 654.617 707.713 609.84 605.877 604.88 598.386 593.338 587.582 555.135 536.075 485.361 451.694 437.053 435.598 399.023 381.344 377.766 377.565 377.2 364.327 363.151 365.116 357.899 323.265 309.106 298.279 298.139 297.409 282.541 273.856 269.634 266.147 264.692 262.606 259.765 254.513 272.011 247.731 244.719 242.933 269.128 242.75 241.648 240.489 239.854 237.34 234.751 231.057 226.554 223.77 222.514 222.086 218.635 211.153 210.317 229.621 206.69 206.364 202.914 202.739 201.361 199.096 196.675 249.085 196.046 195.431 194.007 191.603 323.224 196.508 189.443 188.898 188.309 187.278 182.514 180.065 177.608 177.356 177.308 214.243 196.963 175.786 178.883 173.788 173.362 172.071 223.858 170.575 169.377 169.033 167.493 235.428 267.236 167.267 167.221 168.961 167.192 162.645 203.541 161.405 158.811 186.006 158.753 157.868 157.494 207.95 196.762 172.509 157.358 157.031 177.481 156.879 156.549 155.103 153.273 153.182 151.517 153.889 151.352 149.96 157.074 149.703 149.052 149.034 148.199 147.28 146.997 145.743 144.686 170.696 142.714 142.285 142.254 195.01 141.951 141.91 141.401 141.044 158.791 140.672 139.603 139.255 138.587 137.144 136.986 136.25 133.658 133.594 133.573 133.433 132.693 132.448 129.238 129.173 142.614 128.649 134.972 128.552 128.515 126.913 126.522 140.894 125.947 173.266 125.819 125.139 124.276 123.62 122.083 123.199 188.756 121.661 121.153 120.373 188.547 134.233 120.159 126.747 149.32 119.856 119.234 118.194 117.796 117.368 116.338 159.415 217.341 116.165 149.62 115.673 114.801 113.958 113.546 113.228 113.208 113.019 176.51 112.634 218.562 147.203 112.528 112.002 111.434 122.844 123.068 111.058 110.392 110.133 155.744 127.408 109.892 157.893 110.57 109.57 108.227
threshold=0 1 58.500000000000007 2 12.500000000000002 3 52.500000000000007 58.500000000000007 -1.5968803167343137 -2.0407017469406123 51.500000000000007 10.500000000000002 58.500000000000007 -0.7551290988922118 -1.3466199040412901 -0.42782199382781977 -0.7551290988922118 186.50000000000003 181.50000000000003 -1.033649146556854 5.5000000000000009 -1.8136502504348753 20.500000000000004 -0.71049344539642323 19.500000000000004 4 -1.7328894734382627 -1.0719789862632749 12.500000000000002 2.5000000000000004 -1.033649146556854 137.50000000000003 98.000000000000014 2.5000000000000004 73.500000000000014 58.500000000000007 4.5000000000000009 13.500000000000002 -0.840350180864334 19.500000000000004 2.5000000000000004 -1.4673037528991697 16.500000000000004 19.500000000000004 137.50000000000003 98.000000000000014 0.96643555164337169 -0.25343579053878779 -0.88273602724075306 3.5000000000000004 4.5003130435943612 51.500000000000007 0.5286507010459901 0.067168556153774275 181.50000000000003 51.500000000000007 0.5286507010459901 -2.0631282329559322 198.00000000000003 0.36381161212921148 4.5394978523254403 -1.6696764826774595 14.500000000000002 -2.1392834186553951 0.3060631155967713 -0.32744061946868891 -2.8921999931335445 169.50000000000003 -3.0689288377761836 21.500000000000004 18.500000000000004 62.500000000000007 21.500000000000004 -2.5012729167938228 1.075600862503052 0.94679486751556408 185.50000000000003 0.94679486751556408 -1.8453155755996702 -1.4352290630340574 -1.6722393631935117 1.0873996019363406 -1.4092320203781126 -1.2877910137176511 1.90855348110199 -2.662755966186523 148.50000000000003 1.9600844383239748 20.500000000000004 -0.52946090698242176 0.11268647015094758 -4.8216063976287833 -0.38019508123397822 185.50000000000003 -2.3098556995391841 72.500000000000014 -0.52946090698242176 -0.27058568596839899 -3.2712410688400264 -4.0779082775115958 1.5000000000000002 6.5000000000000009 14.500000000000002 3.7297228574752812 -0.45194478332996363 1.0460824370384219 22.500000000000004 15.500000000000002 23.500000000000004 1.2406310439109804 1.3192650675773623 -1.0553523898124693 -2.1131005287170406 4.5000000000000009 -2.6959029436111446 0.66989964246749889 -2.8339010477066036 80.000000000000014 103.50000000000001 -1.6153199672698972 -2.739209651947021 1.7509351372718813 22.500000000000004 -2.0183036327362056 0.28874585032463079 0.50025141239166271 1.769139885902405 -1.5893521308898924 -2.9508804082870479 1.4544891715049746 -3.3226618766784664 -3.1984555721282955 45.500000000000007 -0.296062022447586 2.5624091625213627 0.04156691953539849 -1.0046492815017698 2.1817129850387578 1.1425254344940188 -1.5077706575393675 0.18746681511402133 181.50000000000003 0.06146026402711869 22.500000000000004 15.500000000000002 -1.2517815232276914 23.500000000000004 99.500000000000014 41.500000000000007 -0.99023729562759388 185.50000000000003 0.62134993076324474 -1.3159629106521604 11.500000000000002 -0.94767668843269337 -2.4166030883789058 153.50000000000003 -1.4235149025917051 0.87116152048110973 -0.13106635212898252 1.1141398549079897 -0.43549463152885431 2.5624091625213627 -1.9412120580673216 -1.7736136317253111 1.0275161266326907 -3.7540824413299556 20.500000000000004 6.5000000000000009 198.00000000000003 -0.89455711841583241 -0.57239070534706105 -0.21286855638027188 -0.15274608135223386 -2.4909403324127193 1.6843598484992983 2.4947530031204228 0.16363875567913058 -2.3360747098922725 158.50000000000003 -0.73142272233963002 -0.42782199382781977 -0.67430362105369557 -1.5351376533508299 2.5000000000000004 -1.0191948413848875 196.50000000000003 3.7819899320602421 -0.96913570165634144 2.591915607452393 1.4837464690208437 3.5617004632949834 -4.2914741039276114 -2.9692419767379756 125.50000000000001 2.6415138244628911 6.037384271621705 0.49411025643348699 3.8648849725723271 2.269324898719788 196.50000000000003 -3.2118642330169673 0.59435212612152111 -0.83239030838012684 2.6882293224334721 -0.38616447150707239 4.1700789928436288 -0.61175543069839466 -2.1675808429718013 2.5659425258636479 -2.3446786403656001 20.500000000000004 4.7070577144622812 -0.044123567640781396 -0.026371046900749203 0.70287406444549572 149.50000000000003 98.000000000000014 0.2427988946437836 0.44802853465080267 -2.9950733184814449 -1.3856875300407407 -0.62016665935516346 0.29013596475124365 1.4359602928161623 0.052009917795658119 1.4870866537094118 1.5314764380455019 0.9890345335006715 -1.6252521276473997 -1.3183230757713316 -0.57239070534706105 -3.754559993743896 0.8673570752143861 1.7027353644371035 -4.6383423805236808 -1.7529324889183042 -0.33530916273593897 -1.4720935821533201 181.50000000000003 193.50000000000003 -2.370032429695129 -1.0000000180025095e-35 6.1953451633453378 -2.6208804845809932 -1.8920780420303343 0.54802373051643383 0.80729836225509655 -2.1675808429718013 -0.43242555856704706 1.90855348110199 -0.26695883274078364 -2.1131005287170406 73.500000000000014
decision_type=9 1 2 1 2 1 2 2 2 2 2 2 2 2 2 2 2 2 2 2 2 2 2 2 2 1 2 2 2 2 2 2 2 2 2 2 2 2 2 2 2 2 2 2 2 2 2 2 2 2 2 2 2 2 2 2 2 2 2 2 2 2 2 2 2 2 2 2 2 2 2 2 2 2 2 2 2 2 2 2 2 2 2 2 2 2 2 2 2 2 2 2 2 2 2 2 2 2 2 2 2 2 2 2 2 2 2 2 2 2 2 2 2 2 2 2 2 2 2 2 2 2 2 2 2 2 2 2 2 2 2 2 2 2 2 2 2 2 2 2 2 2 2 2 2 2 2 2 2 2 2 2 2 2 2 2 2 2 2 2 2 2 2 2 2 2 2 2 2 2 2 2 2 2 2 2 2 2 2 2 2 2 2 2 2 2 2 2 2 2 2 2 2 2 2 2 2 2 2 2 2 2 2 2 2 2 2 2 2 2 2 2 2 2 2 2 2 2 2 2 2 2 2 2 2 2 2 2 2 2 2 2 2 2 2 2 2 2 2 2 2 2 2 2 2 2 2 2 2 2 2 2 2 2
left_child=1 2 6 4 12 8 25 10 18 19 41 21 29 31 24 71 35 30 34 52 219 92 59 78 36 26 27 85 143 55 70 32 87 -15 229 72 -10 84 123 40 -12 48 90 49 45 197 150 66 99 -28 88 -31 58 57 68 -3 97 -43 173 60 74 -19 -42 86 223 198 236 73 -40 80 117 -6 -17 201 75 76 -22 -73 79 -13 -50 93 -48 -24 100 -1 152 -14 160 112 91 171 -7 -18 -95 -76 -79 128 -68 -5 -8 -55 -103 127 148 -77 107 -30 -108 245 -67 166 -23 -35 169 -106 -91 232 210 -120 121 -25 183 185 -61 147 -123 -84 -36 130 139 151 -66 134 -109 211 157 -138 192 -87 -141 174 181 144 -27 176 -145 -126 149 -44 -20 -132 -49 206 -52 186 241 -65 -47 -160 187 -89 -94 165 -112 179 -58 168 -59 -69 204 -29 -173 -9 -81 188 -146 -178 -102 -158 -150 230 -136 218 -75 -21 -122 246 -41 191 -137 -85 -82 -194 -144 -196 -100 -37 -32 200 -172 -33 -203 -186 -46 -125 -53 208 209 -104 -119 -99 213 -118 -215 -115 217 -217 -26 -11 -204 -63 -191 224 225 -51 -86 -228 -56 -4 -34 -140 -16 -151 -131 -236 237 -38 -238 -165 -216 -157 -243 -244 -202 -45 248 -248 -39 250 -148 -251 -200 -70
right_child=-2 3 5 7 15 11 37 9 14 20 39 23 13 33 17 16 81 61 46 38 22 89 83 120 122 28 43 42 106 51 65 67 142 113 56 44 47 50 54 175 62 53 104 109 170 158 82 63 69 64 154 153 -54 101 228 -57 111 167 -60 124 -62 221 -64 136 132 110 98 114 253 -71 -72 77 -74 184 95 105 -78 96 -80 141 138 -83 103 189 226 129 -88 161 -90 116 -92 -93 162 94 -96 -97 -98 135 196 -101 178 102 207 -105 115 -107 108 133 -110 -111 164 -113 -114 215 -116 -117 212 118 119 -121 155 126 -124 205 125 -127 -128 -129 -130 234 131 -133 -134 -135 182 190 137 -139 231 140 -142 -143 194 146 145 -147 249 -149 180 233 -152 -153 -154 -155 -156 156 163 -159 159 -161 -162 -163 -164 239 -166 -167 -168 -169 -170 -171 199 172 -174 -175 -176 -177 177 -179 -180 -181 -182 -183 -184 -185 203 -187 -188 -189 -190 222 -192 -193 193 -195 195 -197 -198 -199 252 -201 244 202 220 -205 -206 -207 -208 -209 -210 -211 -212 -213 -214 214 240 216 -218 -219 -220 -221 -222 -223 -224 -225 -226 -227 227 -229 -230 -231 -232 -233 -234 -235 235 -237 238 -239 -240 -241 -242 242 243 -245 -246 -247 247 -249 -250 251 -252 -253 -254 -255
