tree
version=v4
num_class=1
num_tree_per_iteration=1
label_index=0
max_feature_idx=29
objective=lambdarank
feature_names=user_id country partnumber device_type pagetype_group cod_section_group RFM_PCA hour color_id family embedding_pca_1 embedding_pca_2 embedding_pca_3 embedding_pca_4 embedding_pca_5 embedding_pca_6 embedding_pca_7 embedding_pca_8 embedding_pca_9 embedding_pca_10 embedding_pca_11 embedding_pca_12 embedding_pca_13 embedding_pca_14 embedding_pca_15 embedding_pca_16 embedding_pca_17 embedding_pca_18 embedding_pca_19 embedding_pca_20
feature_infos=[-1:557005] -1:1:3:2:0 [3:43690] [1:3] -1:1 [1:3] [-0.66608732938766479:8.4377231597900391] [0:23] [1:638] [1:214] [-6.4573087692260742:7.5027856826782227] [-6.2286767959594727:7.3879737854003906] [-5.4412980079650879:8.0047588348388672] [-5.4722957611083984:5.7508583068847656] [-5.508331298828125:5.8681225776672363] [-6.0564961433410645:5.9091091156005859] [-6.1342606544494629:5.4701023101806641] [-4.679987907409668:5.9318037033081055] [-4.5596418380737305:4.7318258285522461] [-4.1862154006958008:5.5240836143493652] [-3.9710805416107178:4.7947683334350586] [-5.2005305290222168:4.5623593330383301] [-3.6744918823242188:5.616875171661377] [-4.1033515930175781:4.5748291015625] [-4.6895003318786621:4.8317184448242188] [-4.9601707458496094:3.2102029323577881] [-3.628986120223999:4.9303226470947266] [-4.5469245910644531:3.5106768608093262] [-4.6659770011901855:3.8845634460449219] [-4.0750079154968262:4.4184427261352539]
tree_sizes=29157 29220 29393 29243 29214 29253 29314 29257 29300 29302 29240 29378 29349 29210 29404 29286 29198 29310 29444

Tree=0
num_leaves=256
num_cat=9
split_feature=4 1 5 5 1 9 3 9 1 13 1 7 3 13 13 13 14 5 14 0 14 1 16 3 9 18 13 5 11 5 5 3 13 27 13 9 9 1 15 9 9 18 7 13 7 11 0 17 26 18 8 14 9 9 9 7 23 18 15 9 15 7 1 5 11 24 9 7 7 3 0 11 14 12 7 27 26 23 15 23 7 11 23 9 9 9 11 14 25 24 13 13 14 5 9 26 20 7 5 18 12 12 7 23 3 11 15 3 14 7 13 16 27 12 9 14 9 18 25 1 11 17 14 0 17 27 24 14 12 14 11 13 7 27 7 11 23 15 15 7 9 13 24 12 16 12 27 24 18 13 24 14 27 26 25 9 17 7 18 29 9 22 26 7 25 12 13 29 25 13 14 0 8 3 25 3 11 9 25 11 16 14 5 20 9 20 9 14 15 13 11 15 12 24 29 23 7 14 9 18 20 13 12 13 3 24 25 23 25 17 11 9 13 29 12 18 9 14 14 22 7 9 9 24 25 14 12 17 29 25 25 22 16 14 22 27 18 24 18 11 0 15 18 23 18 27 15 7 15 15 23 20 23 24 12
split_gain=179099 88816.7 24868 22081.5 10169.3 4262.35 2728.89 2631.24 2234.1 1598.4 1576.98 1343.1 952.306 935.465 931.223 872.178 820.934 625.558 602.171 549.697 529.969 502.203 480.368 439.867 412.941 404.185 401.718 349.445 338.519 335.519 321.814 296.9 293.383 290.431 273.325 271.542 263.375 584.811 244.98 232.483 375.899 276.79 228.044 221.326 219.398 211.894 208.712 202.71 192.388 185.077 184.053 182.918 178.005 175.718 287.159 172.685 162.807 162.591 160.669 156.983 153.606 149.258 148.935 146.737 146.191 144.038 141.101 138.947 138.843 134.753 176.35 133.423 132.919 132.843 132.002 128.148 127.288 158.844 147.287 125.848 124.781 121.906 121.703 117.541 114.55 181.831 114.353 113.361 110.761 107.693 107.339 107.158 103.561 100.903 99.9826 96.5495 94.695 94.6573 94.2611 91.6078 96.8235 104.319 90.8828 89.3259 84.9041 84.5087 84.236 79.7767 79.5273 79.3222 78.4103 78.2423 77.7877 76.4432 76.0812 75.0153 78.8688 74.4034 78.2627 74.3052 85.4611 72.6173 72.3724 71.1101 70.9052 70.2061 70.1424 68.8212 68.7396 68.271 68.263 68.1818 68.0001 67.0418 65.163 65.1358 65.1182 64.8802 63.8018 62.5486 61.2347 61.2118 61.1206 60.7878 60.7046 59.7586 99.4273 60.2459 59.6035 59.298 58.1394 58.1215 57.4735 57.0883 56.5421 56.4158 56.1674 55.5495 55.3942 55.0131 54.6446 54.3204 53.9784 52.2797 52.1893 52.1474 51.4023 51.038 50.8109 50.5573 50.5323 50.5246 50.4767 50.0565 49.8055 49.6815 50.4279 49.3235 48.8014 48.191 46.5618 46.4169 52.0223 45.855 45.7284 44.7484 44.3997 43.63 42.37 42.0793 41.5158 41.0955 41.0119 40.6889 40.5872 40.5567 39.993 39.612 39.0642 38.4593 38.3004 38.2943 37.1876 37.0235 36.7 36.426 36.0259 35.7513 35.434 35.3389 34.7636 34.3066 34.2525 33.9351 33.8861 33.8545 33.7162 33.0207 32.5387 32.5304 32.1163 32.038 40.2682 31.7162 31.6172 31.6007 31.5947 31.5722 31.454 31.3105 31.0203 30.6293 30.3981 30.1387 30.1043 30.0616 30.0001 29.9844 29.8615 29.7425 29.6258 29.2956 28.9831 28.8299 28.3958 28.3871 27.7769 27.5866 27.554 27.5289 26.9229 26.5836 26.479 26.2866 26.246
threshold=0 1 2.5000000000000004 2.5000000000000004 2 66.500000000000014 1.5000000000000002 52.500000000000007 3 -0.84044393897056568 4 11.500000000000002 1.5000000000000002 0.34083348512649542 -0.0551494862884283 -0.88953870534896839 -1.0614919662475584 1.5000000000000002 -0.71042644977569569 3939.0000000000005 -1.8497139215469358 5 -1.8513515591621397 1.5000000000000002 152.50000000000003 2.3002924919128422 0.038918826729059226 1.5000000000000002 -1.4039831757545469 1.5000000000000002 1.5000000000000002 2.5000000000000004 -0.81682837009429921 -2.8410544395446773 -2.1097801923751827 144.50000000000003 49.500000000000007 6 -0.60105758905410755 152.50000000000003 156.50000000000003 0.90130072832107555 21.500000000000004 -0.53979524970054615 13.500000000000002 -3.2054295539855953 1928.0000000000002 -1.8134015202522276 -0.97286075353622425 2.3002924919128422 73.500000000000014 -1.7518710494041441 152.50000000000003 152.50000000000003 181.50000000000003 12.500000000000002 0.32599183917045599 2.2431277036666875 -1.1783891320228574 63.500000000000007 -1.9104309678077696 2.5000000000000004 7 1.5000000000000002 -3.4306713342666622 -0.45162242650985712 77.500000000000014 6.5000000000000009 14.500000000000002 2.5000000000000004 12539.000000000002 -2.3503359556198116 -1.3563699126243589 1.5186964273452761 12.500000000000002 -1.4722526669502256 1.1821690797805788 -0.4117684662342071 -0.77806031703948964 0.39116728305816656 10.500000000000002 -2.1178585290908809 1.5359756350517275 51.500000000000007 72.500000000000014 52.500000000000007 0.46812754869461065 0.16178213059902194 -2.3287738561630245 -0.010391093790531157 0.91278487443923961 1.1694130897521975 -1.5698006153106687 1.5000000000000002 81.500000000000014 1.2325611710548403 -1.4359647035598753 12.500000000000002 1.5000000000000002 2.7399425506591801 -0.45078527927398676 2.6599220037460332 15.500000000000002 0.30275589227676397 1.5000000000000002 -3.0953150987625118 0.9522618055343629 1.5000000000000002 2.9876824617385869 4.5000000000000009 0.056933734565973289 -1.8513515591621397 -0.69774508476257313 -0.49859651923179621 150.50000000000003 -2.4530183076858516 193.50000000000003 0.19605617970228198 -0.24501524865627286 8 -2.9692419767379756 2.9765892028808598 -0.19739617407321927 3939.0000000000005 -1.1861172318458555 -0.10653591528534888 0.21878540515899661 -0.089152455329895006 -0.51457849144935597 -0.11896786093711852 -0.63702297210693348 1.2329605221748354 2.5000000000000004 0.74418580532073986 12.500000000000002 4.7599050998687753 -1.899408161640167 3.1761920452117924 0.41486540436744695 19.500000000000004 125.50000000000001 -1.4724578857421873 0.44135484099388128 -4.5542573928832999 -0.49247893691062922 -1.4136227965354917 -0.46564204990863794 1.1693139076232912 -0.79671591520309437 -2.2306182384490962 0.45235283672809606 -1.45816034078598 0.2312615513801575 -0.57612442970275868 0.30082917213439947 108.50000000000001 0.64589381217956554 12.500000000000002 -0.43077433109283442 1.1798117160797121 98.000000000000014 0.42570802569389349 1.5898174047470095 11.500000000000002 -2.6569235324859615 -0.49859651923179621 -1.8666899204254148 0.14012154936790469 1.6429911851882937 2.5693119764328007 0.51630204916000377 3939.0000000000005 84.000000000000014 2.5000000000000004 -0.61500242352485646 1.5000000000000002 -1.5967768430709837 78.500000000000014 -1.7614481449127195 -1.3286195397377012 -1.0307509303092954 -1.4732900857925413 1.5000000000000002 -1.2086683511734007 51.500000000000007 0.15756337344646457 158.50000000000003 -1.1518468260765073 -1.0103867650032041 2.4306530952453618 1.417701840400696 -1.6426639556884763 3.9470963478088383 0.71398174762725841 0.28795714676380163 0.89318162202835094 12.500000000000002 -2.3541873693466182 155.50000000000003 1.3989069461822512 0.28996527194976812 -1.0636040568351743 -0.95188337564468373 -3.9890782833099361 1.5000000000000002 1.0456805825233462 0.545243799686432 1.1779042482376101 1.4938957691192629 -2.0252481698989864 -0.97494316101074208 155.50000000000003 0.36434119939804083 1.6316521167755129 -1.3918929100036619 -1.1227023005485532 86.500000000000014 1.7916218638420107 2.4133130311965947 -1.8377305269241331 9.5000000000000018 147.50000000000003 138.50000000000003 -0.075883708894252763 0.10095334053039552 2.6817266941070561 -0.51457849144935597 0.70068258047103893 -0.32155197858810419 -1.5873028039932249 -0.55340033769607533 -1.3542107939720152 -0.29591238498687739 1.2074248790740969 -0.2662640511989593 0.30796799063682562 -1.5843316316604612 -0.84650391340255726 0.31357510387897497 3.4017041921615605 3939.0000000000005 0.12792003154754641 -1.3015890717506406 0.05282601714134217 -2.8742331266403194 0.53069016337394725 -1.2112799882888792 7.5000000000000009 -0.13321561366319654 -0.56509059667587269 0.46072274446487432 1.3490521907806399 -0.88739609718322743 -1.038080036640167 -3.4059988260269161
decision_type=9 1 2 2 1 2 2 2 1 2 1 2 2 2 2 2 2 2 2 2 2 1 2 2 2 2 2 2 2 2 2 2 2 2 2 2 2 1 2 2 2 2 2 2 2 2 2 2 2 2 2 2 2 2 2 2 2 2 2 2 2 2 1 2 2 2 2 2 2 2 2 2 2 2 2 2 2 2 2 2 2 2 2 2 2 2 2 2 2 2 2 2 2 2 2 2 2 2 2 2 2 2 2 2 2 2 2 2 2 2 2 2 2 2 2 2 2 2 2 1 2 2 2 2 2 2 2 2 2 2 2 2 2 2 2 2 2 2 2 2 2 2 2 2 2 2 2 2 2 2 2 2 2 2 2 2 2 2 2 2 2 2 2 2 2 2 2 2 2 2 2 2 2 2 2 2 2 2 2 2 2 2 2 2 2 2 2 2 2 2 2 2 2 2 2 2 2 2 2 2 2 2 2 2 2 2 2 2 2 2 2 2 2 2 2 2 2 2 2 2 2 2 2 2 2 2 2 2 2 2 2 2 2 2 2 2 2 2 2 2 2 2 2 2 2 2 2 2 2 2 2 2 2 2 2
left_child=1 2 5 4 6 7 11 23 17 24 13 20 16 25 57 22 48 34 59 181 110 81 28 36 51 52 49 32 79 84 44 -21 109 178 50 99 43 73 65 41 -41 -35 46 75 132 87 93 193 154 66 95 175 60 76 105 117 92 62 142 83 160 -34 157 69 165 82 130 -48 141 94 -71 127 -56 88 108 202 78 -78 -37 224 162 122 128 219 85 -20 -77 -23 -38 144 -60 210 179 -18 -53 134 161 187 153 100 125 -102 185 -86 133 -55 174 143 124 -22 229 183 -59 180 216 116 -49 118 -36 -25 -121 186 -16 -106 253 -17 -108 -15 237 -47 244 217 -8 -94 -7 201 -99 170 166 168 189 250 -50 -57 223 146 -143 -147 -142 -66 220 -46 -81 -61 205 200 -130 -5 226 -75 -4 241 -39 249 -146 -62 -113 -140 195 -131 -98 -65 -170 -173 -30 176 203 -97 -24 -26 -52 -14 247 246 -112 -32 215 -45 239 228 -84 -119 233 243 -85 -67 -124 -178 -152 -191 -76 -64 -1 -6 236 -11 -110 225 -186 -100 248 -185 -89 -180 234 -54 -29 -83 227 -13 -117 222 -31 -68 -10 -132 -157 245 -93 -3 -139 -208 -195 -44 -203 -162 -133 -9 -187 -126 -177 -70 -190 -19 -12 -129 -58 -183 -73 -91 -40 -101 -214 -28 -122
right_child=-2 3 10 14 9 8 30 38 15 12 26 18 19 71 21 35 42 47 29 31 27 45 33 119 56 -27 74 114 106 221 102 -33 61 39 55 53 37 80 68 40 -42 -43 192 97 151 129 67 115 58 -51 113 63 121 54 72 107 111 112 90 98 64 -63 135 171 149 139 89 -69 96 70 -72 91 -74 159 155 86 77 -79 -80 152 -82 131 190 194 103 -87 -88 212 -90 163 -92 140 104 -95 -96 177 137 136 209 251 101 -103 -104 -105 123 -107 126 -109 206 -111 184 138 -114 -115 -116 150 -118 191 -120 120 254 -123 196 -125 188 -127 -128 218 156 169 207 204 -134 -135 -136 -137 -138 230 167 -141 148 145 -144 -145 164 147 -148 -149 -150 -151 198 -153 -154 -155 -156 158 -158 -159 -160 -161 235 -163 -164 -165 -166 -167 -168 -169 172 -171 -172 173 -174 -175 -176 240 197 -179 213 -181 -182 182 -184 211 208 238 -188 -189 242 199 -192 -193 -194 232 -196 -197 -198 -199 -200 -201 -202 214 -204 -205 -206 -207 231 -209 -210 -211 -212 -213 252 -215 -216 -217 -218 -219 -220 -221 -222 -223 -224 -225 -226 -227 -228 -229 -230 -231 -232 -233 -234 -235 -236 -237 -238 -239 -240 -241 -242 -243 -244 -245 -246 -247 -248 -249 -250 -251 -252 -253 -254 -255 -256
leaf_value=-0.0094985747890087412 0.029993337766162833 0.0064827656495941759 0.0053798249369304448 0.014122726407978518 0.003513815362266204 -0.0042953289617672502 0.0092395910711407844 -0.0085008288050016107 -0.0072244705817194861 -0.0095013578399470219 -0.013535677101950196 -0.002584438197993805 -0.0024067717793804194 -0.0048708831270613947 0.0053217741258782033 -0.0081484424475433137 -0.002327725255514067 -0.0094311429069367878 0.0063623304914411415 0.0019572030798370361 0.0050414153697837518 -0.00020066417153020703 -0.017659264060678581 -0.0069163974550574851 0.0061780084470001084 -0.005912628035980463 -0.0030217115225892911 -0.0010338153985975389 -0.011442147678225151 0.0013191998478538909 0.0039362481621366364 0.011951940064569493 0.0035393165745612109 -0.0052719631951759736 -0.0092465927508286281 -0.0065828218002135282 0 -0.0092679942300402801 -0.008760634752931715 -0.0027461208310947094 -0.007785476030438521 -0.010635619746421193 -0.0043222979765849111 -0.011067843809987257 0.0086025685167038894 0.0056044672990152753 -0.0029747556036760557 -0.014557385686056077 -0.0066152341275605665 -0.0083198759305111048 -0.0042637665147497276 0.00053445578272668271 0.011804170692790472 0.0018802373194989005 -0.01349267592409834 -0.0045096593155143872 -0.011021941756605404 0.013186030093744383 -0.0020633201928635368 0.0023145274349202429 -0.0059220578809665528 0.0014687541658638407 0.013496537014719898 -0.0060142446344060175 0.0082303053681273726 -0.013988784044234138 0.0026268256694040831 -0.00020502355468669833 -0.018516769579475286 0.001834089990014431 0.012541326087809852 0.0087874130150701318 -0.0082313021509441125 -0.01012453886968687 -0.0065534079125886911 -0.0085950338766529136 -0.014824886895883134 -0.0024442946384311249 -0.01261067461329831 -0.001325502750564441 -0.01166224472634313 0.012829874171741945 -0.017646933725696659 0.0007821365040637957 0.0062150175289460256 0.0033178857121507837 -0.0037817887462138506 0.011910384193882247 -0.0061111856516026328 0.0048747673010099317 -0.0043993096688955766 -0.0018292340513443388 -0.00025062342990819433 -0.0066765133341701727 -0.0055162138955063339 0.0067791453508027621 -0.013002353651986442 -0.0080183815217029168 0.0047500443537537495 -0.014347762799301366 -0.0044312852513798476 -0.012647000249643986 0.0071384212742650211 0.0081480841702987073 0.0019794458615302775 -0.0052616835160119264 -0.005468298920270934 -0.0049836991201451233 -0.00096709704899628868 0.0032469456442036455 0.0014191193819861304 0.0025035361973641686 0.00037542580758392121 -0.010580349504106096 0.0017403056964096243 -0.01249436094540834 -0.029550168293886792 -0.0068349942876487144 -0.0064283421662289552 -0.0087276877360132569 -0.0093128857022336375 -0.017846197039682703 0.0087172374502215641 0.0092171491030729937 -0.0015975469229846135 -0.0055164937179007847 -0.02128210480480075 0.0015242947007684711 -0.016835946158119418 0.0099527051314802391 0.00052516779236282867 0.01319208442662438 0.0067046768759179689 0.0023049666567275941 -0.0071577109958862063 0.0068082899970948931 -0.011718127296393287 -0.021975317024838476 0.0059482995189833248 -0.01552816364848625 0.0064149960501638957 -0.014092088148014359 -0.0033439798374738268 -0.010298859995642716 0.010963908198303528 -0.012739280113298711 -0.0077211491632540241 -0.010285036754919154 0.00092810433959765557 0.004192802748452934 -0.01249898175897696 0.011090119456088529 0.0045600174986578619 0.0056859225509502849 -0.0055105152309669805 -0.004575349210800269 -0.013690270468287866 0.015898182236588187 -0.0049635554090018295 -0.0046800655487549267 0.010849557464613106 -0.019802810570674536 -0.0039474515927211571 0.0018542816959673835 -0.0010546753876244333 0.0042863830906272587 -0.0018535118786081333 0.0023393913499018242 -0.012018823028402143 0.0064810800687932144 -0.010252023225026588 -0.0021670554684684149 -0.0051641549979096948 0.010358003133542525 -0.0029663908460287841 -0.00067151201730639035 -0.0036675435507005434 -0.0022387382073490725 0.002252326274680588 -0.00024389187896204777 -0.0080845355882778452 -0.0025028622841208647 -0.0036197834496453406 -0.014260405794638773 -0.0026511788303567505 0.0021768080514503203 0.0075773842824595214 -0.00922781181910747 -0.0015776047394366868 -0.0026295723659256567 -0.027427528145703036 -0.0092360971174537364 -0.0079496671346551192 -0.0054592788195342206 0.0025514364063819028 -0.011933585141146697 0.012090591619866121 -0.00044483333259752727 -0.0086051304990431097 0.0082762922105915019 -0.003152804082551358 0.00051469632721935776 -0.016056504932461683 -0.006684520055614979 0.014348732160294949 -0.0052585871077993861 0.0098273520341401605 0.0095304303430287021 0.00089658836895150349 -0.00048761403683477008 0.0037855478480288483 0.0063134852343379585 7.4394814369373904e-05 0.0090586688074606875 0.012030939603636751 0.008965146950013058 -0.0046854401806773003 0.015395673140864562 0.004708006589451078 0.0044175313245371868 -0.014956547934423317 0.0037142701711814241 -0.012698960700224504 -0.0081618960149259078 -0.00074973556738930835 -0.012046535769525357 0.00056050849653457543 -0.0034600180059470875 0.0024584755390560085 0.00043955751777102981 -0.01515411395599308 0.0026184660795863144 -0.010047930322874508 -0.0024613395079326923 0.0099459871707760564 0.0077204575091402213 0.010392449590023856 -0.016998496725498826 -0.0037395910615755953 0.0055524963600057271 0.007440506852068372 -0.013280337892090084 -0.0051065073094636393 -0.01440753010422112 -0.0032302420522861424 -0.0032636265079509291 0.0029985553336606585 0.0017383141764062606 0.00067428357996420906 0.002043419683210227 -0.013275113554880563 0.0055372590066969487 0.0061047028129255949 0.0019283554340400596 -0.0017507726002858961
leaf_weight=314.24854711331136 42397.056184701039 201.87614866276999 1032.5065576821198 8138.5568545975475 83.64539362245705 4059.5962627891131 3826.0202040753429 449.18597318649699 256.60188799339812 2318.4237912546232 62.513935966271674 150.47992889772286 1434.6115180368797 822.65622689130396 755.0466495548244 4831.3395266804928 12886.795078994215 1260.1491907356758 15574.931721133316 1110.0098848791458 13441.418485593884 955.28029023871204 23.103195954667171 2173.8681257849894 1330.6728114341495 513.52775275190652 291.2570413708745 4427.1756585668481 174.35521679213707 2949.9814184549832 1052.9990116133813 1698.5769210111393 11511.311209840391 11919.261523984556 3133.5708813571673 1202.0445706974169 699.90037288569874 6135.7462745624143 2366.2354663155711 16405.499791603666 4185.5231618332582 2656.391577356475 4902.8058544790456 4390.3798599929778 2787.1160345608041 1318.1257060492753 4711.9943689965039 227.85402547532431 5995.80512136166 447.68658267382853 952.28639957393898 21043.537218197813 2355.9510582214934 393.26716087863315 1268.3474304878528 429.54921719746199 53.7505570564972 167.58807379803329 8377.8306367935074 1357.5549722826909 384.04488993910491 24669.822461086795 7593.8032314944903 966.6779433783995 1156.2169968835296 7040.551497978433 2336.1426207576878 30222.945899095783 353.58023703527579 1340.5250990748173 467.5778119997849 694.06446938113368 7921.0569636801483 2616.021046996535 1990.2657205279793 13691.108106576266 318.43240065682039 878.33854111878463 4023.9379288119799 424.72182831348618 8457.1160798818419 2863.3033772975868 190.45025726997119 7767.201768453664 12924.101210409786 6202.2342934451572 1224.8786438746683 210.50617926658015 14238.261739763162 3544.3752729312801 9474.616375868598 503.25757659818919 7957.132901290377 1328.2718909793439 631.14427801141574 193.46989060637134 11413.481086829272 1189.2304296828315 401.07207979652776 14.573229906178311 9424.6573511791485 362.36926588071401 1304.7122013644621 9436.3049958837728 913.05404106203059 6059.6589395392948 138.50915187875944 704.70489917011218 544.295855830449 9570.9154595345208 853.11927877175185 2978.3306726972696 295.92988177758525 2477.5403993856489 2375.3805351300034 2152.57242008295 131.88321684443508 1949.6940675953956 8021.1794095686837 528.39248584938105 107.67661806558317 19.811585262126755 1560.5759222362321 464.10073685219322 2428.3260071694313 4462.1088356590753 122.17672060979385 1350.4248694407142 4926.7523269820522 5792.7939304942556 1513.9021974039006 1199.4538409305933 6655.6968084942382 3248.1155810784694 3282.1001850751709 426.82529860008799 16356.191305461462 201.82622271150467 2088.3916476542654 2812.4959563220818 842.2469244186068 814.26204284324194 1668.9763566046349 19739.652177773631 81.638137087102223 11306.357514113564 1803.3483750160285 2962.844861869311 960.71241017533612 2941.8478977332888 1972.4688524119629 10234.99834268296 2841.7810397710491 7358.7514534823767 2438.2453810554871 340.0916353118082 1884.8788953981057 8743.5292601980473 1052.3348855845761 514.79260141710256 1619.1403710797313 723.0446588989289 475.54046962449502 3798.6720623068122 3376.5829078789557 156.08904356157291 760.59429844193073 1561.1143575920432 817.40688018679793 1175.2233060133876 1838.7014027879995 947.56352919399069 360.85086458889418 75.913033312317566 1545.2064335814866 302.29451568318473 2039.8575034396345 451.44506983426254 834.42299415950401 321.88888714992208 3257.5560681853276 379.09213930400801 546.25927380355643 16.539578154246556 5775.6654457293189 373.99134528559807 1577.1423738295998 9757.8281157951078 787.5353016731242 1257.0448592701923 277.22704301129852 11618.423526542629 516.83596962524643 979.46539526899869 4708.2097683543943 3453.7407583566564 1783.6162684054289 1501.293600434934 891.09343861752859 75.208222025830764 1233.7527374636957 115.19866499613272 634.44820599136074 1072.4336004793531 946.30908758904843 597.22391513135153 160.17902299531852 95.724729171415675 703.89192070649005 1020.5829427494609 1554.2880950233994 3033.0954783570378 191.11740720823582 208.11791012411413 2857.9077990616024 1751.5424489501347 656.07974866440054 2173.5588166820235 303.26106524602437 4740.7099135190238 3339.5552901655465 1642.7603187542773 45.174650402965199 60.897824684609077 514.873498085959 44.834246156242443 1262.6167483100071 601.08809374626435 1582.8512922493319 3994.8141099955683 1003.4652792834586 825.10828974076139 515.16047000804974 3360.1164689995421 246.08232317584043 1338.0441619253834 4057.1956899042889 127.02648143276747 388.34050449008646 136.10855249216547 148.63041114501539 1090.6949077916361 1661.5430731901142 360.78327211610303 1491.9078345171292 348.36245834470174 71.255962900730083 3472.9301235075982 113.9377665355496 1018.1250467459122 365.14927779571008 199.29554850743443 1409.1624057939989 1335.695046325458 2422.5240277078665
leaf_count=15069 185891 6083 31898 176992 2896 170706 103139 20556 11410 110104 3253 5824 57995 34647 23459 221591 513584 60589 470131 38899 426631 35902 1314 97590 40051 22490 11560 170522 8729 104899 34426 41131 384498 514140 147680 52963 25864 289921 111908 659607 190779 127869 205926 214849 77397 40895 190882 11835 267873 20423 40033 768988 57271 14021 66406 18188 2629 3929 330409 46650 16423 875964 170719 42627 32704 371278 80772 1127875 20148 47150 11297 18910 364932 125219 87246 635363 17024 34709 204253 16330 422925 66049 10986 281064 394819 208654 49797 5305 622101 112565 398399 19545 297001 58797 27506 5867 581763 54434 13057 772 396514 17575 38692 268041 32106 259465 5944 30715 20544 321801 30421 102908 10828 121132 84437 109557 8886 86945 353879 24546 5222 1199 42575 12713 94022 191248 7393 47388 274143 152552 55334 27475 198277 112601 146669 12713 812436 12303 64580 152141 25204 42880 68801 955549 2099 576416 82716 143583 35143 95472 99636 258261 92057 228086 105882 14347 99207 173629 45773 21594 41071 42718 19646 133851 129156 5023 30124 54503 41764 35454 88670 37810 15782 1974 62520 11617 84526 17616 29421 12010 150789 14859 22342 983 231344 12709 45565 459781 30610 50173 18528 547787 23406 42072 161350 174699 42648 57584 41876 2107 49279 4158 34846 47452 20310 25578 4397 2585 25376 38471 51116 91563 7074 5729 67339 48143 27472 44215 10235 152790 179276 54857 2065 2898 19344 2422 46970 24535 54768 145873 53479 28625 25199 134320 6461 38399 103598 7104 16359 4170 4446 56475 70806 19066 60595 13753 2376 123761 4122 35254 19088 6210 43339 47666 95436
internal_value=0 -0.00169875 -0.0070899 0.00326382 0.00181364 -0.0088244 0.00421845 -0.0106799 -0.00710217 -0.00103532 0.00192148 0.00345398 -0.00219218 0.00467402 0.0120727 -0.00543054 -0.00265485 -0.00903823 0.00487018 0.00256018 0.00207196 0.0100376 -0.00391436 -0.00900778 0.000998304 0.00713291 -0.000308949 0.00258565 7.58341e-06 0.00587135 0.00865422 0.00801031 0.00297122 -0.00456619 -0.00841918 -0.00698014 -0.0092813 -0.00825083 -0.013132 -0.00480016 -0.00377169 -0.0062515 -0.00160154 -0.00999871 0.00925566 0.0075662 -0.00120326 -0.0121968 -0.00463072 0.00118224 -0.00663302 -0.000166457 0.00760195 -0.00811866 -0.00725598 -0.00899344 0.0024371 0.0139505 -0.0040865 0.00309397 0.0062356 0.00212805 0.0140961 0.000354253 0.00437022 -0.0143741 0.00142792 -0.000579144 -0.0123654 0.000686293 0.00461939 0.00136063 -0.00896121 -0.00641403 -0.00220722 -0.00854532 -0.0102152 -0.00576543 -0.0112293 0.00250123 -0.0104404 0.0118038 -0.0160264 0.00222614 0.00627479 0.00549624 -0.0082012 0.00396525 -0.00582485 0.0020696 -0.00330418 0.00247095 0.00138825 -0.0027358 0.000357205 -0.00508933 -0.0133826 -0.0107253 0.00457857 -0.00567683 -0.00578664 -0.0047389 0.00411642 0.00703195 0.000922802 -0.00482377 -0.00506775 -0.0100024 -0.000971098 0.004296 -0.000896376 0.00384874 0.00506704 -0.00847283 -0.000472241 -0.0133755 -0.0201953 -0.00814037 -0.00722252 -0.00478515 -0.00322967 0.00966372 0.00957297 0.0044368 -0.00168261 -0.00688746 -0.0130164 -0.00109288 -0.0155437 0.00877465 -0.00140989 0.0126252 0.00763259 0.000489048 -0.0055782 0.0126572 -0.0114689 -0.0129352 0.00299724 -0.0134755 0.0012671 -0.0115016 -0.00590568 -0.0101767 0.000506258 -0.0118436 -0.00971562 -0.0122319 0.0035028 0.00533819 -0.0130765 0.0105599 0.00378991 0.00516304 -0.00721985 -0.00392182 -0.0159709 0.0150356 -0.00229062 -0.00923678 0.00839797 -0.0163488 -0.00888855 0.00316232 -0.000761987 -0.00294061 0.0016128 0.00441026 -0.0129776 0.00937086 -0.0126231 -0.00355367 -0.00994148 -0.00120962 -0.00384373 -0.00274519 -0.00320295 0.000452811 0.00313656 0.00491898 -0.00722565 -6.29168e-05 0.000698742 0.00582336 -0.00183266 0.0019321 0.00976692 -0.00980097 -0.00256626 8.25162e-05 -0.0235457 -0.00889297 -0.0038289 -0.00888983 0.0014513 -0.0133156 0.0105255 -0.00230626 -0.0112977 -0.00199405 -0.0052588 0.0128974 -0.0139185 -0.00593009 0.0115486 -0.00864059 0.00210667 0.000703076 -0.00226334 0.000982924 0.00512294 0.00619003 0.0061696 0.00363648 0.0114739 0.0106009 -0.00150931 0.0139443 9.74274e-05 0.00419832 -0.0139979 0.00202786 0.00109651 0.00234155 -0.00293256 0.000142718 -0.000523219 -0.000506677 0.00141634 0.000736043 -0.0163346 0.00381878 -0.00705939 -0.00356794 0.00699462 0.00944343 0.0110377 -0.0104394 -0.00081886 -0.00120919 0.00198496 -0.0145906 -0.00397952 -0.0105603 -0.00366698 0.000531623 -0.00297064 0.00131622 0.00766527 0.00424712 -0.0093766 0.00402213 0.00539463 0.00103102 -0.00208384
internal_weight=0 746924 358001 388924 333947 300223 181085 144512 155712 152861 57777.4 154462 97442.4 25855.3 54976.7 83610 88800.9 72101.8 76280.1 8641.48 78181.5 26391.3 42250.5 85928.2 55419.1 14845.9 31922.1 66652.1 6018.23 48775.5 26623.9 2808.59 59193.5 36232.3 60270.8 41359.4 80695.7 33137.4 58583.6 35166.7 20591 14575.7 57929.8 47558.3 23503.8 11052.2 49150 11831 30871.1 17873 14674 30621.1 14332.3 22065.1 15642.3 45596.8 24798 28585.4 25517.2 27504.6 8627.89 36181.1 28121.9 25472.9 4638.2 22340.6 17425.3 34934.9 36243 23482.8 1808.1 11009.4 9189.4 18069 14049.1 15864.7 6422.75 1196.77 5225.98 4037.98 15068.4 15339.1 7855.52 17366.6 44137.6 21777.2 14916 2766.07 14938.2 14216.4 17852.4 7583.61 14235 14215.1 21674.7 7986.61 16624.8 31693.6 10138 19294.3 19080.5 9787.03 3120.04 22360.4 12582.4 6452.93 1980.25 20873.9 8170.05 23012.3 11529.4 10563.1 463.518 6687.38 7458.64 8715.43 359.737 24722.9 11154.8 5232.46 3058.59 5704.45 4099.24 1377.15 6640.47 9293.45 260.686 3425.79 7387.84 8286.14 3208.88 11239.8 10481.7 11205.2 7341.7 11239.8 17545.4 14457.5 7388.43 14485 5221.32 19618.2 7664.78 20169.2 5855.26 16886.8 2617.61 14269.2 1802.96 4098.06 8355.69 13022.1 3266.5 8716.31 5353.89 5879.06 6811.63 16882.1 2655.04 3130.81 3989.69 2167.32 6611.29 8361.17 3458.22 540.134 3738.92 3649.51 11672.6 6968.02 13252.2 1990.15 1178.26 1023.48 1719.56 5148.16 4697.23 644.915 1065.64 1652.56 4209.84 5832.89 4398.28 3174.64 7332.68 1815.33 5684.64 14148.2 5013.51 3418.36 467.677 13568.1 8779.76 3115.56 12475.4 10494.3 3344.19 3541.15 2863.56 1332.25 3224.02 10813 948.697 1156.08 6202.96 2915.65 1529.58 1654.46 6479.56 1421.66 2362.29 3049.64 1810.79 1042.54 3219.19 4107.49 5083.26 5036.86 2603.14 4891.19 5492.13 4637.92 2995.16 2397.04 771.475 1558.74 1602.71 2299.88 2086.11 4196.69 1205.29 985.287 1494.63 8262.92 361.281 2957.18 5256.65 576.212 762.332 2564.43 450.925 1444.28 2449.08 1620.93 1554.42 1698.79 125.007 3852.02 808.002 4562.5 2731.38 213.869 1600.28 1626.95 2530.2
internal_count=29328109 29142218 16061316 13080902 11763284 14036790 5900440 7044974 6991816 5862844 2024526 5161180 3860823 827304 1317618 3600269 3561836 3391547 2430758 298987 2730422 690850 1752586 4026639 2002021 435658 1197222 2291325 223727 1503466 739260 80030 2008894 1528859 2793555 1847683 3803845 1527270 3018335 1492395 850386 642009 2254790 2276575 637074 320521 1891138 597992 1307046 641207 652812 1145873 413168 1013773 704824 2140743 856148 626768 1065482 927292 260990 1260462 612011 937352 149622 1186188 620784 1318757 1832147 854941 58447 391646 431338 794778 556015 735075 308949 51733 257216 139141 732492 370329 430524 601028 1341645 678785 685160 91620 647965 496595 728808 261088 506482 572381 796494 340858 855556 1541500 326264 833910 826928 414089 102186 662860 454421 273486 84586 1004452 312400 748432 439097 349666 14757 311954 282431 451066 20721 1136291 501559 222794 125204 152178 108682 44819 258834 412839 13337 130558 401010 228901 124189 261647 301416 409602 317375 261390 866870 736215 252115 755664 186940 976591 336674 973737 214925 845595 125596 719999 60347 128176 430345 335658 108387 274736 241564 243615 373350 350621 107090 146813 111368 119341 309567 281670 131255 21446 133032 119083 603523 188006 670433 82411 57546 39784 71249 208521 192458 23483 36464 52061 190822 218957 160962 97551 287141 63494 150979 674630 199608 126593 29514 634732 363652 146926 442414 545977 85223 142110 141512 52280 136525 248677 49915 50348 151383 135682 53566 60341 256720 51528 74148 92546 55718 35150 77958 105414 197994 110264 95911 158614 288833 161821 106964 83670 30754 57756 61317 85676 74313 151956 65782 33022 67271 340246 10619 79470 131073 27660 29068 98192 16063 76623 101416 79655 63848 61141 5005 138620 23032 147819 130996 6982 50413 59226 100658
cat_boundaries=0 1 2 3 4 5 6 7 8 9
cat_threshold=2 10 4 8 2 4 2 4 8
is_linear=0
shrinkage=0.015


Tree=1
num_leaves=256
num_cat=7
split_feature=4 1 5 5 9 1 9 1 3 9 9 3 10 9 1 1 5 10 1 11 14 0 7 11 0 18 9 10 7 7 9 3 7 10 7 3 14 8 9 11 7 7 3 7 14 7 17 7 7 14 18 7 7 29 9 9 21 22 7 9 10 8 21 10 5 9 14 26 18 18 29 9 18 10 17 8 22 18 0 7 9 11 25 23 17 22 29 19 18 0 25 7 10 9 24 23 15 24 8 14 22 15 24 2 21 23 11 14 15 24 10 10 3 8 9 22 25 10 17 8 26 9 19 8 25 23 14 15 10 14 23 7 18 14 19 21 25 19 15 11 23 24 29 25 18 17 5 24 7 7 10 19 11 10 5 23 29 19 10 24 14 25 22 20 9 14 11 24 17 10 11 17 25 26 10 9 10 11 26 19 11 9 18 23 21 22 21 14 14 26 14 11 26 24 24 9 14 9 24 8 22 14 19 14 22 19 5 7 25 9 20 19 24 7 9 9 3 9 26 17 14 19 9 19 26 19 2 18 11 11 20 23 18 18 9 15 17 14 14 23 19 5 9 24 23 24 24 22 10 22 9 15 20 15 9
split_gain=962590 168290 55822.7 35117.1 10630.7 9893.63 6498.24 5924.91 2449.48 2243.62 2376.97 2123.42 1810.3 2473.32 1732.42 1715.83 1476.47 1406.23 1867.24 1391.53 1340.07 1327.51 986.592 973.296 971.882 929.678 908.647 790.744 780.34 811.222 718.456 718.314 711.175 708.446 707.322 704.45 664.219 614.494 609.109 585.367 581.885 559.329 556.665 521.502 513.43 491.658 488.573 485.598 596.508 474.121 467.065 447.779 605.198 442.575 437.429 722.834 427.458 553.978 423.582 422.766 422.489 420.316 408.163 490.224 407.378 402.006 392.711 392.013 389.304 389.124 385.327 381.943 368.85 364.828 342.921 338.101 325.065 324.507 322.831 316.315 315.957 313.272 312.044 306.559 301.815 298.385 298.009 296.682 293.178 287.947 287.047 285.842 282.753 279.573 342.896 277.964 277.225 273.822 270.051 269.988 268.005 265.089 263.294 261.183 259.918 257.477 250.15 248.211 246.813 246.795 244.61 242.433 240.116 238.14 272.84 236.13 228.325 227.962 227.712 227.636 226.238 224.876 223.811 221.324 220.522 354.044 219.697 217.895 216.386 212.758 207.542 206.368 205.393 205.271 202.782 240.141 201.238 201.105 196.181 199.252 194.488 192.123 192.028 190.968 190.617 189.728 189.48 184.208 178.539 199.463 175.827 176.422 174.935 174.313 173.301 173.119 169.994 181.67 169.27 169.092 169.446 167.982 167.666 166.179 166.042 164.376 161.933 159.374 158.772 210.393 157.799 157.155 157.008 203.668 155.991 154.911 154.253 164.954 153.763 154.943 153.61 153.398 152.403 152.38 151.9 167.883 150.301 147.376 145.595 144.94 182.109 151.75 144.518 144.167 143.64 142.873 223.848 217.887 141.804 141.593 140.664 140.286 152.671 139.642 139.544 137.705 137.503 200.067 148.981 137.26 136.647 136.059 133.29 132.271 130.617 129.683 126.035 124.829 124.461 122.42 121.853 121.093 120.393 119.257 157.557 119.122 118.774 118.322 117.006 142.435 116.947 116.87 136.011 115.65 115.275 117.543 114.966 113.643 113.451 113.276 113.189 113.105 112.903 112.521 111.375 134.071 111.249 110.748 109.84 108.928 108.76 108.515 107.821 106.175 105.705
threshold=0 1 2.5000000000000004 2.5000000000000004 66.500000000000014 2 52.500000000000007 3 1.5000000000000002 72.500000000000014 51.500000000000007 2.5000000000000004 -1.338419437408447 173.50000000000003 4 5 1.5000000000000002 -1.7486221790313718 6 -1.4325087666511533 0.24294689297676089 1928.0000000000002 13.500000000000002 -3.5223550796508785 1.0000000180025095e-35 -1.7879621982574461 60.000000000000007 4.0408391952514657 20.500000000000004 4.5000000000000009 51.500000000000007 2.5000000000000004 9.5000000000000018 -3.4722839593887325 9.5000000000000018 1.5000000000000002 -1.096391975879669 222.50000000000003 21.500000000000004 -3.2054295539855953 13.500000000000002 17.500000000000004 2.5000000000000004 10.500000000000002 0.053983762860298164 10.500000000000002 -1.7471767663955686 18.500000000000004 1.5000000000000002 -1.3563699126243589 -1.1395214796066282 6.5000000000000009 15.500000000000002 1.2619971036911013 192.50000000000003 184.50000000000003 -1.0214204788208006 1.9257533550262453 20.500000000000004 13.500000000000002 -3.6317281723022456 64.500000000000014 -0.79744106531143177 1.0453306436538699 1.5000000000000002 174.50000000000003 1.474351227283478 -0.6603453755378722 -1.1047012209892271 -1.6934641599655149 -0.84883919358253468 96.500000000000014 -1.6658923029899595 0.94679486751556408 -1.3902089595794676 69.500000000000014 -1.9734289646148679 -0.066863670945167528 1928.0000000000002 2.5000000000000004 187.50000000000003 2.2945240736007695 1.0291932821273806 0.41824796795845037 2.1868354082107548 -1.8085834980010984 -0.1150601953268051 2.5876532793045048 -1.2777319550514219 1928.0000000000002 -0.016924530267715451 4.5000000000000009 2.8076238632202153 98.000000000000014 0.060090035200119025 1.4710128903388979 -1.6187232732772825 -0.66626751422882069 64.500000000000014 1.1250817775726321 -2.0173722505569454 -2.0557609796524043 -0.16575802862644193 21446.000000000004 -1.04194700717926 -0.44842305779457087 2.0319877862930302 -0.97460675239562977 1.1658316254615786 -0.26203987002372736 -2.9833921194076534 -1.2734487056732176 1.5000000000000002 304.50000000000006 174.50000000000003 -1.452749967575073 -0.24501524865627286 -5.4753243923187247 0.87427395582199108 462.50000000000006 -0.071520105004310594 126.50000000000001 -1.5606002211570738 116.50000000000001 1.9161651134490969 -1.5775920152664182 3.2980247735977177 1.1768997907638552 -1.0994737744331358 -0.11896786093711852 0.31328456103801733 3.5000000000000004 -2.5759547948837276 -1.9730149507522581 -0.93888050317764271 -1.04194700717926 -0.10402890294790267 1.0963080525398257 2.5797313451766972 -4.7850716114044181 -1.6174693107604978 1.0781358480453493 2.1217998266220097 -2.2331310510635372 -0.45477175712585444 -3.6839727163314815 1.5000000000000002 -0.88857978582382191 20.500000000000004 1.5000000000000002 -3.6317281723022456 -1.4427374601364134 -2.2582507133483882 -2.3607145547866817 1.5000000000000002 -0.16775412112474439 -0.014177098870277403 -0.17792508006095883 2.4579666852951054 0.041671022772789008 4.8196592330932626 -0.70161372423171986 -1.321284234523773 1.9090865850448611 174.50000000000003 -1.2144616246223447 -1.0562620162963865 -2.3443367481231685 0.56743913888931286 2.0317755937576298 0.29920822381973272 2.1236193180084233 1.9161651134490969 -0.75148487091064442 4.6813328266143808 50.500000000000007 -2.405550360679626 -1.0562620162963865 -1.0257987976074217 0.92554593086242687 -3.1653612852096553 198.00000000000003 1.3544186949729922 0.33965694904327398 -1.0214204788208006 1.8434393405914309 -1.6700730323791502 0.87076005339622509 0.13737755268812182 -0.30132377147674555 1.5299353599548342 4.0347929000854501 -1.4801866412162779 -0.91190159320831288 2.0639057159423833 193.50000000000003 -1.4732900857925413 155.50000000000003 0.42064881324768072 63.500000000000007 1.5261417627334597 -0.11896786093711852 -0.047660619020462029 -0.67406213283538807 -0.38224223256111139 -1.2726238965988157 1.5000000000000002 12.500000000000002 -1.8585616350173948 187.50000000000003 -0.32406523823738093 -1.0010288953781126 0.21878540515899661 8.5000000000000018 65.500000000000014 72.500000000000014 1.5000000000000002 6.5000000000000009 -0.28802019357681269 1.6873052120208742 -3.6341711282730098 -0.76946628093719471 198.00000000000003 -1.5871350765228269 -1.3340937495231626 2.2230101823806767 307.00000000000006 0.49384203553199774 -1.4891952276229856 -1.5060448646545408 2.2156000137329106 -0.0079645514488220197 -0.27579662203788752 -0.41151225566864008 73.500000000000014 -0.98727577924728382 3.7382023334503178 2.033689141273499 3.4439191818237309 -1.0846492648124693 -0.047660619020462029 1.5000000000000002 146.50000000000003 1.2795382142066958 1.162122428417206 -2.2389534711837764 -0.93801808357238758 -0.64089184999465931 -1.3089773058891294 -0.48305252194404596 194.50000000000003 2.0767581462860112 0.31215019524097448 0.84551101922988903 98.000000000000014
decision_type=9 1 2 2 2 1 2 1 2 2 2 2 2 2 1 1 2 2 1 2 2 2 2 2 2 2 2 2 2 2 2 2 2 2 2 2 2 2 2 2 2 2 2 2 2 2 2 2 2 2 2 2 2 2 2 2 2 2 2 2 2 2 2 2 2 2 2 2 2 2 2 2 2 2 2 2 2 2 2 2 2 2 2 2 2 2 2 2 2 2 2 2 2 2 2 2 2 2 2 2 2 2 2 2 2 2 2 2 2 2 2 2 2 2 2 2 2 2 2 2 2 2 2 2 2 2 2 2 2 2 2 2 2 2 2 2 2 2 2 2 2 2 2 2 2 2 2 2 2 2 2 2 2 2 2 2 2 2 2 2 2 2 2 2 2 2 2 2 2 2 2 2 2 2 2 2 2 2 2 2 2 2 2 2 2 2 2 2 2 2 2 2 2 2 2 2 2 2 2 2 2 2 2 2 2 2 2 2 2 2 2 2 2 2 2 2 2 2 2 2 2 2 2 2 2 2 2 2 2 2 2 2 2 2 2 2 2 2 2 2 2 2 2 2 2 2 2 2 2 2 2 2 2 2 2
left_child=1 3 4 5 6 11 17 12 9 10 23 20 28 19 39 22 34 36 31 37 26 154 50 178 64 92 30 41 29 -6 59 58 221 115 98 60 87 86 72 73 79 82 -23 174 74 134 111 48 -12 225 71 -26 130 78 55 67 57 -31 91 105 200 90 63 66 131 -54 121 -28 176 70 84 247 117 101 152 142 -58 -61 -25 220 -65 106 112 137 249 171 -14 138 104 -50 251 -19 147 189 -95 -57 199 244 136 146 -92 103 110 -4 254 -1 145 162 -108 -43 -52 -18 143 114 -83 -17 128 -38 -39 161 141 -35 -75 -74 193 -126 -115 -117 -104 -98 -53 -11 -122 -89 -41 209 218 -21 139 -3 170 -96 156 -8 248 -71 166 -16 149 -77 238 -152 -27 -76 203 -109 157 -46 -34 163 -161 -87 -40 -72 -133 -149 183 -112 169 -49 -84 -29 246 -174 216 -60 -62 -178 179 -7 -169 212 -85 -42 185 -30 -103 -37 -153 217 253 -192 -163 -63 -130 197 -197 -48 -199 -56 -24 -70 -203 215 -142 -94 -81 208 -208 -136 -146 -151 -137 -188 -158 -10 -20 -64 -9 -138 -13 -32 240 224 -186 -15 -155 -101 229 -113 -66 232 -45 -228 243 -236 -51 -124 -73 -225 -106 -55 -148 -68 -90 -246 -100 -5 -118 -22 -198 -36 -33 -191 -47
right_child=-2 2 14 15 7 8 27 16 21 24 47 40 13 49 25 33 46 18 43 83 69 42 35 53 51 44 54 85 184 56 32 252 158 62 61 187 38 118 107 45 99 109 -44 231 75 88 195 168 89 236 102 52 65 241 96 95 76 -59 175 77 68 124 93 80 230 -67 234 -69 201 81 159 150 123 122 153 148 -78 -79 -80 206 -82 113 140 182 -86 119 -88 133 97 -91 100 -93 205 94 120 -97 129 -99 172 227 -102 186 116 -105 222 -107 108 155 -110 -111 167 228 -114 126 -116 127 144 -119 -120 -121 132 -123 237 -125 125 -127 -128 -129 194 -131 -132 164 -134 -135 135 181 219 -139 -140 -141 204 -143 -144 -145 210 -147 242 165 -150 211 151 188 -154 226 -156 -157 214 -159 -160 160 -162 192 -164 -165 -166 -167 -168 180 -170 -171 -172 -173 173 -175 -176 -177 177 -179 -180 -181 -182 -183 -184 -185 223 -187 213 -189 -190 190 191 -193 -194 -195 -196 196 250 198 -200 -201 -202 202 -204 -205 -206 -207 207 -209 -210 -211 -212 -213 -214 -215 -216 -217 -218 -219 -220 -221 -222 -223 -224 239 -226 -227 233 -229 -230 -231 -232 -233 -234 -235 235 -237 -238 -239 -240 -241 -242 -243 -244 -245 245 -247 -248 -249 -250 -251 -252 -253 -254 -255 -256
leaf_value=-0.00056533794457843713 0.029500729301172271 -0.0087728426463909853 0.0035300084624225012 0.00086680809548168283 -0.0093483952804341089 -0.012869898643349833 -0.0095685258348097713 -0.0098328181481709565 -0.0031844823526615664 -0.0049836604921314979 -0.0077417989906196239 -0.0044976240408803516 -0.0023573867165865973 -0.014304241187726895 -0.00044056510296793281 -0.0057573782926480105 -0.011951575712420911 -0.0090659118904510318 -0.0076944304292605103 -0.0064352238412236284 -0.0032310414091270795 0 0.0025571927990269108 -0.0030114992178423322 -0.0028217641584974409 -0.0055599099387250214 -0.0014884744922098779 -0.0088728574925062368 -0.0094204003024170851 -0.0063311087154855105 -0.0039576604789363923 -0.00034079015208277492 -0.0010909739742642635 0.0020587796162093133 -0.0098006198039109153 0.0077908594432222296 -0.019373838897250827 -0.0041280723651164371 -0.023153420095562871 -0.0018257354010060292 0.0028388786051442589 -0.015708422442061259 0.0047889079738863546 -0.0084785625294042013 -0.0023420666147788189 -0.0028352360332618773 -0.012874182491504715 -0.0076796250316842262 -0.0051589863912017159 -0.0075843207714887152 -0.00015650694396194168 -9.4181350538774262e-05 -0.00076075679034992973 0.0021621385916572636 -0.029227515747251881 0.0017325792868437911 -0.014472857217318585 -0.012969056332724506 -0.01038035153289874 0.0014604236875474658 0.009580012142303208 -0.011198373942908402 -0.0055677149627270158 0.0072396197022866491 -0.0061992680223240722 -0.0032891990830554172 0.0025612161137888853 0.00074503904331095039 0.0039355298265154257 -0.0047558406758053742 0.0031894704327216864 0.00050359542064747943 -0.0033574108934626085 0.026603214483613594 -0.0050315266026982799 -0.0034744306510814988 -0.0049310285112630801 -0.00046744279818990603 -0.00117634606796387 0.00063606854413507873 -0.0048707722575544376 0.0015985607729249115 -0.010903660810359957 -0.0022936895425642884 -0.016961529751419822 -0.0072816801973483291 0.0004127108600867715 -0.024100611213222246 -0.0070046443800416249 -0.0030997833137060026 0.00072451934369160552 -0.0059412254086553592 -0.0017651403751775933 0.0027573267956427349 0.0073561270082201273 0.0070412930016604128 -0.00086815123208707889 -0.0024763047526360541 -0.0094694124422066896 0.0052052359213807086 -0.0071595466055053812 -0.010453937867740355 0.003390569593803178 -0.0090094854341201281 -0.0040328757467626951 -0.0047911182032222164 -0.0050698844852450214 -0.012715454314393856 0.0033456091327540489 -0.013305844783776312 0.0091818102709372244 -0.0063905161155572224 -0.0093988846408630533 0.0025771859928854259 -0.0021145002948727582 0.002011013286988141 0.0067974577051834479 -0.0092265754423895546 -0.01328384736964465 -0.0029395696552485143 0.010201810687006001 -0.0048094045586527549 0.0048967954430390679 -0.0073774654252167365 0.0033470826694387912 -0.010463497287413097 0.007502213876841044 -0.0024624546620741665 0.007038254395814696 -0.007889973061654152 0.0015522459703986246 -0.0016644409802275169 0.0033009201182328169 -0.013971910132580397 0.0025550409310795327 -0.0015667078440597211 -0.004725151007318535 -0.0036503183995969472 -0.020030981256605362 -0.012002417255240452 -0.012192646909664498 0.0037788222409414216 -0.014414060151519708 -0.012966752851992325 0.0043362962915085975 0.00063997241503462976 -0.001175730230395376 -0.008223782467896958 -0.0016322982664354183 -0.00080930319763559131 0.0031013699013559548 0.0054388000250133271 0.0016541764603582227 -0.016966324270145303 -0.0038491709555091343 -0.010048763072149266 -4.6691795002435137e-05 0.0026415244031114445 0.00064323320110214893 0.0017851808533522677 -0.019042887505373991 -0.0039178699258796933 -0.0044398088698511702 0.0066161288439675935 -0.0037010357465977169 0.0030754856468365641 0.0021670978206692485 0.0070491556254864808 -0.0047161542821743431 -0.0048110708240435224 -0.00013563359834884226 -0.0021145375947431385 0.0049016861568294268 -0.0075971921959789579 -0.0093456717985081587 -0.0076171878358051621 0.0081484854267611651 0.0058598979758689995 -0.0044881921157917653 -0.0061747009609718221 0.0026495154804210539 0.0074860455276646943 -0.012727152957291285 0.005572764362151629 -0.019701624669584486 -0.016330662048185781 -0.0032094374291301471 0.010520503422417308 0.0078459942687668059 -0.00037531051759678624 0.0037269333183866972 -0.0069846333285019727 -0.011459427225157097 -0.0094190096078791835 0.014818706598076525 -0.028270532378084717 -0.024469222460719264 -0.013091054669592721 -0.0065874439751586397 -0.0083959884870436954 0.009039449707524079 0.0051826692865458894 0.0071697985054742968 0.00011023811954914937 -0.0097874773955188166 0.0054789182201584741 -0.015404158765143771 -0.016900016028929665 -0.00091219183060374379 -0.011927194507118957 0.0014119694167103892 0.0013212987773626381 0.00041167443890172622 -0.0063617459425556544 0.004446356493050807 -4.2593531058863582e-05 -0.0034459569669605026 0.0037720904049187045 -0.0063974543132167471 -0.0084269434439676622 0.0026923662459007319 -0.0024681086899594417 0.0079347494401614486 -0.010922769373346932 -0.0047827225927226658 -0.004354333478703537 1.3462162011437443e-05 0.0030990967588976144 -0.00924237088442878 0.0021828926782298773 0.0028043052593966899 -0.01124183339275079 -0.010680010179196483 -0.0030259835953059524 0.0080716758251442432 0.0035318060744844166 -0.024170971119229102 -0.0037368599956638308 0.0087833980687091143 -0.0078395689004026152 -0.001176110272855332 -0.0052525561845528845 0.0032099039455371643 -0.025654612592623055 0.0057517884933305464 -0.0050957198717356701 -0.0075313475578058569 0.0042917607623757063 0.0036125577418645223 0.0018640315302564207 -0.012005970976027782 -0.0053524265712112315 -0.0040948770660626816 0.0039987563718930147 0.0020205757606011785
leaf_weight=7255.0217400187394 231001.09136774205 5386.2149106428333 1453.6845595383857 2790.6218744169455 13201.509141741422 1042.0106833240716 3985.1375341775274 3811.7232234328985 7265.9095315711893 6085.0059155981508 9269.2191650484892 540.29576199082658 12551.725202873207 4014.0742120850482 4976.1387191311442 1208.5772645414108 3387.7527921499568 7354.4945330135306 22995.081128797403 22132.128157314793 1940.5125036612153 7711.4327547859575 8627.2244417479815 29991.149016065494 19985.027640198794 844.99018905538833 20519.751058221256 1582.8025777549337 5770.5212281714194 21539.00424006462 17483.904675156715 4301.389353901046 49752.876207108988 3097.2460401034914 14250.06977515528 7881.284975706134 579.45933833798699 7927.2199624520872 112.85567055689171 13326.029878857691 12057.279697280563 15343.555892814962 18699.501278048345 10971.394876111166 2584.8745531091117 1187.3078591770027 20288.075507647904 19051.264158212616 21649.164127218472 10755.589345716406 5471.5763482702605 41192.933071102874 70655.803100216886 8571.4508475091425 79.796834419423249 3866.3074547166325 810.36556053695676 3263.8451425355161 7954.8647644660377 37401.787326718571 7401.7165301663917 12985.88575655673 328.51248173450585 18406.763246658433 8244.8635559838731 17699.269293734847 1957.3501259411569 127610.4246508658 9549.3861178752122 1473.8083339809091 14800.559149525612 1628.9096668076236 5805.5206899459263 82.886631919134743 5730.9201342024608 2542.574511347746 100894.73769855825 41360.147169224503 76992.087807587872 33880.33571711219 495.35522289795335 40655.212533036763 540.88848173967563 9496.2557270039761 276.24187134334352 2760.2914013494737 28733.309335880153 706.60145414288854 5003.822374638512 52276.91936553298 1000.1078800918549 65408.855003029377 622.61979225231335 26602.396108709749 11501.471639134263 5239.7515739131049 7999.298496160307 23990.889756182449 8292.0599891280799 14952.955390306568 28792.726900117334 1301.3206660458818 4157.2005440395642 501.29334758815821 5439.4679574809124 5881.0186781004159 3264.3637939866239 7428.7786872470751 1028.4978589978055 26707.001389749545 1025.0186511222273 3284.6822042489657 5079.9518152139644 13415.734439490217 4995.7881904008173 12344.313000255082 5498.2482515773736 3738.9094586103747 663.26645491080126 870.14145260403166 1041.9221447723339 1638.4681001710705 855.65793922124431 6622.8462600536113 755.76872877473943 927.15866712364368 2408.0791372402455 3052.3680062778221 8369.4599327610467 1104.9486497415928 29588.017126135805 44955.584533008157 14467.037527517781 1309.9082125254208 9774.903393214081 13947.845195037942 19233.938761799978 7973.3743871234183 608.84209658176405 22573.848144528041 10423.19036638382 4819.8058580970392 147.79055976925883 71205.52934111435 6370.2410059408685 223233.10984466766 4624.5140087708132 293.07771866419171 10012.266633296073 8609.3704448128701 2561.2579796427162 7718.3647313037072 7054.7736555939191 114.13218066348054 4260.8056443054811 21883.717207441725 1702.0117985609832 4516.9427818315962 16974.674055707525 11492.633160226356 86.957643761532381 596.65542220353382 2049.3284466974983 4075.1321532154325 11288.422977845723 15560.072769356857 33954.424512062433 1996.4827291056499 11724.956253373297 8308.3072032969139 709.8822828893899 1530.3770890887245 500.88352071581176 701.11526185192633 15127.97110309402 10986.221741344401 16238.959350481455 12745.713172617732 11726.957391270407 3167.7192236746778 17296.020238635901 551.96507368178573 325.19440828787629 7450.6621840536354 165.79788171040127 928.50118470867164 5074.5377641998512 10515.448903774552 21845.599796111521 9659.0820752343479 6837.1301253666406 308.83914842247032 20236.26213924271 51777.711289086961 574.62941168434918 319.64142502821051 191.70008127996698 1143.3817521632882 2288.3548626812408 885.8328599796514 826.83857009839267 21707.476557526043 14680.149990179194 20898.435147830489 11708.791171827001 10238.939919153243 164.4399823496351 195.62155206513125 4340.4922903518309 147.69704963383265 8305.6688678052451 30985.540483116623 16981.682281560225 7419.1085778223933 9798.1411146384198 4998.8331405091958 1704.2522405112904 11722.241646566137 6473.0291606429782 2260.6878422876762 22527.187394232038 41758.13097624611 257.14797839848325 3145.6060422585579 3775.8867837940343 296.7951413145056 5072.2756191677181 10124.116470131907 2999.6011736442524 499.10315463592997 334.7373632118688 22953.071016011934 15381.359414612411 6305.165981187427 3367.0108310953947 2103.1339391511865 94.54239554842934 568.91100613435265 483.03628081828356 19929.935909238033 7370.161649992835 486.83169058803469 1846.7944103585323 30.751938973553479 357.2990789131145 890.90811099950224 36325.09909883311 9065.3884445316216 4438.1843672503237 1832.6440631789155 1007.2950544226915 1374.6236647445476 2879.6673555025482 1432.0910496556899 6589.7696272336907
leaf_count=56804 185891 83584 9831 11396 190883 16200 63440 57788 78341 66553 123453 2892 142577 70787 34241 10632 56919 110296 339857 298256 14997 59872 34867 340206 207736 7023 165808 25030 85732 298407 173217 45941 433097 13624 220860 23189 11206 93330 2421 127860 50758 297114 73000 168471 17603 13792 359068 257348 272912 156580 26693 399602 674580 81123 1224 25673 13733 55500 127319 269384 19889 209788 1861 60705 101373 186221 7726 909488 34370 11472 91827 7741 78526 137 64726 19349 1309415 303857 791286 176794 2683 265144 9085 113314 2849 42036 258430 14443 62431 608677 11562 911253 4020 107253 38773 26734 60852 246347 125818 57040 408770 18133 15381 5344 59093 50057 25864 124412 6452 480380 2935 45571 82405 84224 37204 74706 18029 57678 9848 11680 3029 10223 5956 96678 8564 14680 12244 23640 26641 9397 248902 445897 58256 22752 75790 134522 250367 97446 11731 375819 178121 18491 1781 1264047 22437 1513843 26174 2294 73704 64897 8814 24543 37675 1343 47900 344289 12764 23838 139719 75019 798 8355 28759 22236 124916 81213 145105 6405 142400 102927 8892 19871 4965 10215 233377 154211 45549 40447 137098 42136 64786 3570 5276 28101 3020 16932 58042 27259 64666 49973 28384 1844 340036 798761 1323 9908 4049 20346 33687 8690 2530 72429 45015 178771 187843 44725 2075 2575 36284 1848 32626 203683 137497 92433 47117 44165 21966 50894 90445 32566 104541 407645 1832 48485 47371 4086 33778 40863 45514 5367 3404 378830 249672 51530 11166 8270 1864 5159 1403 278997 69436 5845 9344 222 2544 10375 529924 32374 15899 12075 17563 18482 33148 5627 55250
internal_value=0 -0.0022856 -0.00664243 0.000635455 -0.00831465 -0.00041758 -0.0100175 -0.00682544 -0.00195251 -0.00230298 -0.00329518 0.000600179 -0.00536171 -0.00380664 -0.000352368 0.00484813 -0.00863679 -0.00854837 -0.00784286 -0.00286021 0.000260812 0.00081559 0.00566872 -0.00189894 -0.00129392 0.000871398 -0.000337679 -0.0122795 -0.00630308 -0.0058083 -0.000976139 -0.00642013 -0.00171186 0.00352536 -0.0081113 0.00667174 -0.0102312 -0.00118912 -0.0091324 -0.00162231 0.00224338 -0.0127209 0.00339055 -0.00941917 0.000136058 -0.00120444 -0.01145 -0.004802 -0.0041534 -0.00941073 0.00466071 -0.00070539 -0.000439487 -0.00142135 0.000493642 0.000687825 -0.00543865 -0.00720594 -0.00677859 3.22005e-05 0.00613404 -0.00887531 0.00392805 0.00540777 -0.00278034 -0.00126747 0.00306013 0.000435528 0.00647912 0.000970204 0.00247637 0.0058108 -0.00681738 -0.00418429 -0.00170633 0.000789115 -0.00500742 0.000447866 -0.00169098 0.00113344 0.0069211 0.000791227 -0.0121273 -0.00494719 -0.00186792 -0.00994636 -0.000429163 -0.0119626 -0.00226274 -0.00370311 -0.00776068 -0.00625744 0.00309913 0.00340917 0.00401574 0.00478959 -0.00253658 -0.00320627 -0.00700957 0.00304808 -0.00689436 -0.00485936 0.00382557 0.000302536 -0.000892895 -0.0024587 0.000535897 -0.0103633 -0.00304972 -0.0141834 0.00265592 -0.00866706 -0.012573 0.00174207 0.00119184 0.000620874 0.00462485 -0.0105979 -0.00483893 -0.0105038 0.00506681 -0.000315087 0.00285677 -0.00550146 -0.00963676 -0.00425508 0.00332827 0.00112303 0.00622652 -0.00172317 0.000593868 -0.00235801 0.00376644 -0.0175438 -0.000216286 0.000301405 -0.00594426 -0.00569836 -0.0115672 -0.0113813 -0.0105958 0.00630108 0.0025166 -0.012787 0.00377134 0.000604484 0.00250057 0.00207452 0.000167679 0.00059577 0.00661486 0.00689075 0.000879722 -0.00289336 -0.00100128 -0.0107257 0.00265307 0.000825405 -0.000649584 0.00305455 0.00162503 -0.010782 -0.00543888 0.00393052 -0.00207355 0.00286489 0.00279401 0.00341401 -0.00618203 -0.00680939 -0.00481166 -0.00555804 -0.0077479 -0.00237672 -0.00814106 -0.00877918 0.0076395 0.00714298 -0.00537504 -0.00783948 0.0031061 -0.00033954 -0.00264257 0.00388415 -0.00835253 -0.0103839 -0.00559193 0.00935265 0.00721836 0.00223831 0.00139327 0.00326053 -0.0112445 -0.00977628 0.0075422 -0.0125704 -0.0170694 -0.0122807 -0.00876345 -0.0101756 0.00312705 0.00555945 0.00598503 -0.00063477 -0.0109216 0.0050621 0.000302156 -0.00210084 -0.00144946 0.00233619 0.00268264 0.000857637 -0.000480036 -0.00508311 0.00378017 -0.0019053 -0.00740212 0.00351557 -0.00767337 -0.00511574 0.00252303 -0.00290806 -0.00218547 -0.00784775 -0.00542131 -0.0136244 -0.00182522 0.00435578 -0.00702221 -0.00525525 -0.00584581 -0.0104529 -0.00976459 -0.0016698 0.00520491 0.0063304 -0.00773355 0.00143807 0.00240931 -0.0082612 -0.00239071 0.00176118 7.39869e-05 0.00209822 -0.00600369 -0.00197544 -0.00789218 0.00348709 0.00537717 -0.000752604 -0.0140392 -0.00941079 -0.00184884 0.000188581 0.00127692
internal_weight=0 2.97528e+06 1.19415e+06 1.78113e+06 943367 1.42493e+06 440106 503261 568123 504288 254258 856812 278389 104963 250787 356192 224872 266825 188019 89802.5 710153 63834.9 219770 131978 250030 127713 385174 173280 173426 139709 217868 98885.5 125970 136422 189463 110174 78806.8 49875.5 48221.4 123074 146659 145704 26410.9 89133.1 96021.8 105817 35409.6 122280 83195.3 15161 109596 179121 159136 116042 167306 157236 126508 24802.8 91704.4 91898 91777.5 111864 119817 31096.1 70908.6 88355.1 12194 148130 82323.4 324979 34504.7 46093.2 16746.7 17257.4 25122.3 70899.5 101705 78761.9 106983 61648.4 18902.1 290475 103653 39927 4049.4 27576.5 41285 30585.4 51086.8 73926.1 45417.5 72763.3 31690.8 88720.5 58432.6 9106.06 10069.9 30242.9 77598.5 85010.7 29792.8 15749.9 63502.7 1954.98 20843.9 13136 229000 31474.7 4292.86 42050.6 25789.1 10171.1 80270.6 61474.8 45651 16605.3 37713.6 4318.37 8590.49 24463.4 31830.2 4735.71 1507.46 12428.4 66446.5 1682.93 15823.8 15396.7 13101.3 9104.25 70781 62329 15509 2016.51 54730.1 41404.1 31779.4 30105.5 28568.9 27960.1 23382.8 16321.3 18749.8 75190.7 24612.3 224707 59933.7 20829.3 52149.8 42137.5 34237.2 32125.2 7899.76 17222.5 37424 29312.5 18602 7101.82 66727.6 30455.3 11579.6 23593.2 2162.18 18875.7 56244 15853.2 53462.4 20317.5 39084.5 27359.6 1250.77 3113.18 45819.2 1202 39827.3 18941.1 36386.4 28984.7 15936.7 4209.73 19292.5 31481.5 9821.45 19507.9 33716.2 6699.02 13795 18396.7 29564 30287.9 18237.1 7145.97 20832.9 64763.6 8944.09 25238.4 1518.64 23719.8 3431.74 965.63 9454.06 45937 36387.6 33163.2 22132 10861.6 38580.9 4700.55 4504.93 9922.6 14675.9 39594.9 30929.5 12493.6 11500.2 12264.7 24699.3 12050.8 10284.8 21494.6 23067.5 59242 13066.8 27017.2 3941.68 4310.87 11491.6 25077.1 6783.39 3783.79 8579.6 49305.8 26352.8 11377.4 7458.25 5470.14 10850.1 1424.57 2111.95 23075.5 12809.6 9058.28 6471.31 1988.1 6252.03 1248.21 44617.2 11856 9936.43 3773.16 1199 15624.7 7181.06 11091.2 7777.08
internal_count=29328109 29142218 16061316 13080902 14036790 11763284 7044974 6991816 5862844 5380795 2921611 5900440 3600269 1251794 2024526 1317618 3391547 4026639 2774341 1018477 5217894 482049 729636 1413894 2459184 827304 3041646 3018335 2348475 1867938 1833780 1382168 1153678 587982 2793555 345544 1252298 504185 743969 1197222 682546 2571327 132872 1392173 660811 1002187 597992 1507717 1005042 233317 384092 1717041 1509305 1218460 1207866 1127703 1677055 353907 1303079 680102 295096 1691467 479004 114619 742143 860801 51231 1075296 257699 2176248 219801 150937 244088 195035 196075 464736 1323148 573241 1131492 325161 63388 1956447 1793833 514292 29921 447008 401007 508329 521100 881589 659674 1021549 166493 364385 225802 52407 80163 321697 1102088 357385 420332 183783 233155 15175 199403 106861 1557631 499881 32316 777494 100819 153371 1409892 398816 302348 108978 132336 68884 103178 402107 118549 23847 11252 175204 1031793 23244 96468 98346 43345 70249 648504 637366 61285 37195 481087 353227 431166 395702 471134 459403 383941 57264 103103 1327487 88991 1525315 259482 117748 361633 287929 107167 98023 44698 151377 349177 468701 101322 41441 572816 189880 75817 390427 31180 114063 570813 83507 223964 74126 502675 360275 17977 44901 670922 15180 595200 281530 105885 85996 195434 58336 71191 275589 118590 78859 480537 102664 168608 50448 89209 138583 85828 30228 348391 1008549 27964 444621 31520 413101 54033 9914 37397 151814 117444 301277 365964 48745 217728 40934 38359 77638 55063 268580 272019 150475 59881 122506 361823 52755 148233 282933 107433 580862 130361 377873 50391 74873 86651 97903 96452 50938 104777 796973 418143 85308 27384 19436 158444 11115 9144 327482 128529 86968 35518 7948 75350 12919 655742 43770 33928 27072 21612 239342 79089 55600 69042
cat_boundaries=0 1 2 3 4 5 6 7
cat_threshold=2 5 4 2 8 4 2
is_linear=0
shrinkage=0.015


Tree=2
num_leaves=256
num_cat=6
split_feature=4 1 9 1 15 9 9 9 15 1 9 9 15 3 18 18 10 11 23 1 13 9 13 10 1 11 18 18 12 3 9 3 9 9 9 10 12 21 12 13 8 18 21 23 22 23 9 9 15 16 3 13 9 16 24 18 22 15 9 9 15 16 0 11 18 11 29 18 17 15 11 18 29 0 8 18 10 16 21 9 29 23 18 13 8 12 10 17 12 9 13 29 17 18 11 0 22 18 23 12 10 11 9 17 8 13 18 10 15 9 3 29 29 28 10 20 17 19 15 17 12 8 15 13 23 12 22 19 19 12 16 29 2 12 21 21 15 3 10 15 27 9 13 9 16 9 22 23 16 2 29 18 13 24 20 12 15 29 11 12 22 11 17 10 18 21 10 17 16 24 9 16 24 10 13 15 23 22 29 13 22 2 12 28 8 19 28 28 22 12 9 3 16 29 11 17 24 27 20 24 10 24 11 23 8 12 17 17 9 29 10 10 21 18 21 27 16 13 27 18 15 15 8 9 15 16 17 18 16 19 10 9 19 20 27 23 23 12 21 20 15 10 10 15 9 13 27 21 23 10 8 15 17 17 18
split_gain=784117 129792 21322.7 10494.3 9091.92 6068.34 5142.97 5125.89 3769.25 3462.25 2769.43 2448.4 2153.17 2125.83 2104 1931.08 1908.27 1456.45 1392.26 1198.21 1159.52 1143.16 1035.41 994.107 1430.65 922.756 890.426 860.559 1159.43 796.469 769.159 763.878 763.239 1772.98 847.543 741.141 702.089 690.216 659.072 658.37 627.62 625.269 619.497 604.507 602.648 602.558 588.882 566.885 556.398 539.976 531.836 516.894 501.935 501.613 478.764 478.382 530.951 475.208 470.227 466.953 443.484 434.869 432.599 432.014 426.036 418.315 412.164 424.181 391.336 389.965 382.608 386.872 377.21 376.013 371.431 440.645 368.516 351.755 349.903 348.058 342.722 398.216 339.407 412.797 406.278 337.999 335.679 333.797 333.355 362.481 331.861 467.56 330.234 345.323 330.173 327.058 326.739 325.839 319.558 318.765 492.738 318.474 317.737 310.699 310.668 308.693 303.819 302.485 295.981 332.62 291.317 290.116 288.867 286.137 285.217 282.104 276.817 492.409 275.777 274.174 272.535 271.499 271.038 264.605 261.478 259.535 259.478 258.204 257.418 284.136 256.594 254.775 250.762 279.048 250.043 245.323 244.369 244.237 244.179 242.29 239.914 239.111 259.268 238.683 235.225 235.21 234.912 232.446 232.095 239.964 232.01 230.943 228.886 226.192 225.535 225.842 221.928 221.075 220.001 237.441 216.452 215.497 215.146 233.974 212.15 211.411 210.741 265.781 216.385 210.738 209.613 208.999 208.104 216.293 207.995 215.621 206.979 205.568 204.418 203.629 199.921 198.829 197.88 205.208 196.555 195.71 195.215 192.556 191.912 191.712 285.34 191.02 186.04 191.055 185.928 185.759 185.638 194.702 184.917 183.108 180.806 179.651 178.711 177.12 176.722 175.8 180.432 175.509 175.214 175.157 174.627 174.595 173.516 173.21 172.002 171.37 170.515 235.655 173.343 168.895 168.322 167.797 165.004 164.566 161.326 160.227 159.676 157.697 157.459 156.049 339.601 183.406 155.768 155.277 153.743 153.509 153.451 150.966 150.926 149.031 148.547 148.507 148.152 148.085 147.917 146.32 144.254 143.459 142.913 142.903 142.649 156.981 141.512 139.389 139.222
threshold=0 1 58.500000000000007 2 -1.5616054534912107 52.500000000000007 73.500000000000014 58.500000000000007 -0.79234600067138661 3 51.500000000000007 172.50000000000003 -2.0557609796524043 2.5000000000000004 -0.45477175712585444 0.19605617970228198 -1.2522103786468504 -1.0562620162963865 0.19080060720443728 4 -0.0551494862884283 104.50000000000001 0.01638615503907204 -1.9083694219589231 5 -0.11782529950141905 -0.22306343913078305 -0.17180231213569638 -3.0978373289108272 2.5000000000000004 73.500000000000014 1.5000000000000002 58.500000000000007 51.500000000000007 69.500000000000014 0.87371468544006359 -2.0849530696868892 -0.4909371137619018 0.62413156032562267 0.77464008331298839 49.500000000000007 -1.1047012209892271 -0.78185576200485218 0.29005184769630438 1.9570142030715945 0.77058851718902599 192.50000000000003 181.50000000000003 -0.71049344539642323 2.074898481369019 2.5000000000000004 2.0734297037124638 186.50000000000003 0.033114731311798103 0.36250686645507818 1.4744375348091128 -0.33261412382125849 2.6980760097503667 191.50000000000003 22.500000000000004 0.8155621886253358 -0.35676534473896021 1.0000000180025095e-35 -0.34542056918144221 -0.55832231044769276 4.6568007469177255 0.53453531861305248 2.2431277036666875 -1.6123715639114378 0.067168556153774275 -1.5367109179496763 -0.71294111013412464 1.3944735527038576 8266.0000000000018 179.50000000000003 -2.2988454103469844 2.1074167490005498 2.9127480983734135 -1.0880364179611204 33.500000000000007 0.2806313037872315 -0.49688883125782007 -2.4409462213516231 -0.79009455442428578 107.50000000000001 -1.5920913219451902 -1.680738031864166 -0.52759021520614613 -0.099618792533874498 192.50000000000003 -1.2837683558464048 -0.16503915190696714 -0.267266035079956 -2.2004086971282955 -4.7850716114044181 71344.000000000015 -0.64089184999465931 -0.27579662203788752 -2.0951238870620723 -2.8257237672805782 -1.727583587169647 0.34280321002006536 98.000000000000014 -0.23620982468128202 169.50000000000003 -3.002923727035522 3.3547654151916508 -1.972395598888397 -0.71049344539642323 188.50000000000003 1.5000000000000002 -0.71162468194961537 -1.7152087688446043 -0.56863000988960255 -2.6183996200561519 2.6542652845382695 -1.4792520999908445 -0.079286843538284288 0.97030234336853038 -1.5707992911338804 -2.5226527452468868 5.5000000000000009 0.067168556153774275 -1.9238091707229612 -0.98272103071212757 6.223133087158204 -1.5759569406509397 2.7723386287689213 -0.25939066708087916 -0.45078527927398676 1.0821200609207156 0.46948863565921789 40444.000000000007 -4.5542573928832999 -0.79744106531143177 1.3095853328704836 0.59737128019332897 2.5000000000000004 3.9416065216064458 0.73697465658187877 -1.1607707142829893 162.50000000000003 2.7198963165283208 51.500000000000007 -0.59802222251892079 17.000000000000004 -1.9260932207107542 -0.10301067680120467 0.20734356343746188 37325.500000000007 1.0229772329330447 1.376744329929352 2.860121607780457 -0.54320240020751942 -1.5211084485054014 -3.4826143980026241 2.4346687793731694 0.27347002923488622 1.4923546314239504 -1.4862088561058042 -1.452749967575073 4.3387506008148202 -2.7410826683044429 -2.8234596252441402 1.6219478845596316 0.56842085719108593 1.6920421719551089 0.50659990310668956 -0.08835092186927794 -0.92679560184478749 64.500000000000014 -1.6149640083312986 1.8784596323966982 2.4579666852951054 -0.48694446682929987 -0.27607759833335871 1.0231126546859743 0.66914930939674389 -0.4583441019058227 2.767206192016602 1.305753827095032 41363.000000000007 0.83148664236068737 -0.3535179197788238 456.50000000000006 1.3071187734603884 1.3751812577247622 -0.76419845223426808 -0.93642526865005482 0.45853388309478765 195.50000000000003 1.5000000000000002 -2.5212047100067134 -1.2657972574234007 -2.9379925727844234 -2.3408180475234981 -0.80497026443481434 1.5938112139701845 1.5448129773139956 -0.06472520530223845 -3.7070078849792476 0.56386137008667003 -1.0036892294883726 -1.5430325865745542 404.50000000000006 -2.7553809881210323 -0.011244878172874449 0.87427395582199108 189.50000000000003 1.2000210881233218 5.6999201774597177 -1.7082815170288084 -1.4284549951553343 -0.35029280185699457 -1.2714419364929197 -0.64783421158790577 1.4004168510437014 0.19915498793125155 -2.4330205917358394 1.2645057439804079 0.32126194238662725 0.084388300776481642 457.50000000000006 33.500000000000007 -2.5373896360397334 -2.0157446861267085 2.1495834589004521 -1.4412665367126463 -2.0157446861267085 0.11367863416671754 -2.6937017440795894 182.50000000000003 -2.4080381393432613 -0.29706153273582453 -1.4325302243232725 -1.0534785985946653 -0.267058715224266 0.9150792956352235 2.4142795801162724 -0.61135160923004139 2.9440423250198369 5.4604310989379892 -3.4722839593887325 -1.8521949648857114 198.00000000000003 -1.7381361722946165 -1.0677830576896665 1.3095853328704836 -2.0951238870620723 4.4862422943115243 470.50000000000006 -1.9815262556076048 1.8411222696304324 1.5506215095520022 1.6009303331375124
decision_type=9 1 2 1 2 2 2 2 2 1 2 2 2 2 2 2 2 2 2 1 2 2 2 2 1 2 2 2 2 2 2 2 2 2 2 2 2 2 2 2 2 2 2 2 2 2 2 2 2 2 2 2 2 2 2 2 2 2 2 2 2 2 2 2 2 2 2 2 2 2 2 2 2 2 2 2 2 2 2 2 2 2 2 2 2 2 2 2 2 2 2 2 2 2 2 2 2 2 2 2 2 2 2 2 2 2 2 2 2 2 2 2 2 2 2 2 2 2 2 2 2 2 2 2 2 2 2 2 2 2 2 2 2 2 2 2 2 2 2 2 2 2 2 2 2 2 2 2 2 2 2 2 2 2 2 2 2 2 2 2 2 2 2 2 2 2 2 2 2 2 2 2 2 2 2 2 2 2 2 2 2 2 2 2 2 2 2 2 2 2 2 2 2 2 2 2 2 2 2 2 2 2 2 2 2 2 2 2 2 2 2 2 2 2 2 2 2 2 2 2 2 2 2 2 2 2 2 2 2 2 2 2 2 2 2 2 2 2 2 2 2 2 2 2 2 2 2 2 2 2 2 2 2 2 2
left_child=1 2 5 6 11 23 13 10 14 16 31 19 22 32 42 48 27 52 55 41 26 39 70 51 97 54 65 28 132 73 148 36 33 69 -34 53 154 44 74 134 242 102 171 186 198 78 128 -24 87 113 60 63 80 101 181 90 246 118 115 94 72 140 -31 127 107 108 67 224 114 111 178 161 76 207 75 -20 -26 136 194 -61 81 -18 228 84 -84 146 162 99 241 -90 91 121 106 -94 -53 -33 -80 139 -82 -11 -101 -7 227 -46 -77 199 179 -36 187 -110 152 -3 185 184 -27 137 232 -118 -39 -103 -15 -10 145 247 -85 153 -92 156 129 -19 252 221 133 -6 234 -81 -30 -40 216 172 -62 142 -51 223 212 -88 -37 250 149 211 -128 -113 249 -125 169 -156 157 -1 191 -160 -93 -72 163 -38 220 229 167 -75 245 -5 -167 215 173 -25 -99 -176 -59 239 -9 -32 -116 -13 183 -173 -44 -55 195 -14 -115 -70 -191 -149 -96 -194 -28 -42 -121 -198 -29 -17 -58 214 243 -130 -157 -140 -207 -12 -56 -95 -63 -21 -47 -141 -104 -8 217 -35 -218 -124 -76 -71 -49 -122 -43 -188 -129 -4 -50 230 -107 -231 -66 -202 -16 -65 -69 -184 -133 -89 -146 -45 -22 -68 -180 -168 -57 -114 -41 -23 251 -87 -54 -174 -248
right_child=-2 3 4 7 9 35 8 12 18 15 29 25 20 120 21 105 17 46 38 30 40 110 47 24 50 68 45 37 77 62 92 95 34 138 64 85 86 57 58 248 43 66 49 88 103 144 -48 222 82 141 -52 59 130 112 208 56 200 176 -60 79 61 210 -64 235 116 -67 202 236 189 131 71 -73 -74 166 164 104 -78 -79 96 135 98 -83 83 124 -86 147 122 177 89 -91 126 160 93 209 192 -97 -98 174 -100 100 -102 119 201 -105 -106 165 -108 -109 109 -111 -112 151 123 188 180 -117 117 -119 -120 196 143 -123 219 125 -126 -127 150 226 203 -131 -132 238 -134 -135 -136 -137 -138 -139 205 213 -142 -143 -144 -145 240 -147 -148 158 -150 -151 -152 -153 -154 -155 155 204 -158 -159 159 -161 -162 -163 -164 -165 -166 170 168 -169 -170 -171 -172 182 253 -175 175 -177 -178 -179 244 -181 -182 -183 237 -185 -186 -187 225 -189 -190 190 -192 -193 193 -195 -196 -197 197 -199 -200 -201 233 -203 -204 -205 -206 206 -208 -209 -210 -211 -212 -213 -214 -215 -216 -217 218 -219 -220 -221 -222 -223 -224 -225 -226 -227 -228 -229 -230 231 -232 -233 -234 -235 -236 -237 -238 -239 -240 -241 -242 -243 -244 -245 -246 -247 254 -249 -250 -251 -252 -253 -254 -255 -256
leaf_value=-0.010122593155102619 0.029014759930487192 1.4661747688521935e-05 -0.0027489923536600127 0.0011829225344835586 -0.016743202281744956 -0.011623505752256394 0.0089044818252470674 -0.00041847330574791087 0.0026898046212244656 -0.012104500684605257 -0.0062410019740561018 -0.0035793012347175705 0.0059937248943536612 0.00060223435108977346 -0.00081673472389069603 -0.009131949058492822 -0.0037805776117583716 -0.0070376129946084602 0.0076706093496604387 -0.001349093997432069 -0.0063203948681970811 0.001357351030280227 0.001975807971600272 -0.0084610973676601375 -0.0070425684944960985 -0.0009953762193311217 -0.0084426336667889224 -0.0076289655001550161 -0.0027222725557341462 -0.0022731673963080502 0.0023936667036685262 0.00026389852932439534 0.0067770813188308132 -0.00088646661479322353 0.0047933873563547093 -0.003282715264343517 -0.018630385457460975 -0.0041043707013567543 0.0041910849939518916 -0.015353226551100116 -0.0049236982579652601 -0.0026414456657369648 0.0052819651408205059 -0.0014987534111195479 -0.0085521393421116275 -0.0095889196253985728 -0.0094157858316184402 -0.0031816108981904071 -0.020915328015513567 0.0076324875732089771 -0.0017081985200173566 -0.015521657030581544 -0.0038840125724283062 -0.011093613135766714 -0.0001883590444400882 0.0040783576874029908 0.0027765517733251842 -0.010380923235036947 -0.003642940553177848 -0.014413709514958456 -0.020796815799076704 -0.0071797015366554329 0.0040901991227611668 -0.013118323897244644 0.0069775526993643934 -0.0011661645397450112 0.00098222938552597035 -0.01449164113244681 -0.0045183676916985688 -0.005306810986172447 0.0050839964869196768 0.00023558950480778235 -0.00098953669731088358 -0.0050184946557424101 0.0018230366559701949 0.00076194377688141646 -0.0045124669383808788 0.0016701027462787729 0.00070088700688767877 -0.003969171537424686 -0.010252549715311927 -0.00047094989794523528 -0.0041743939383336653 -0.0095721589704760822 -0.0070089454903632074 -0.005941309830144066 0.0026463132414190045 -0.0070475214072109995 0.0023704556172879625 -0.005029351363245115 -0.003084737966413223 -0.0043692457127510751 0.0039742104343991431 -0.00040276319719720544 -0.0081280926341545795 0.0043764957227949448 -0.0014921147175533801 -0.0074693621069183234 0.00085179327695728913 0.0019174298510126109 -0.0036231184687748074 -0.0088211695014337333 0.0014910572353394604 -0.016345705224203678 -0.0065153321183860392 -0.0077881808857661718 -0.011177962889034727 0.0014870784030544637 0.0014096974627244708 -0.0044994671966033274 0.0039041451923767976 0.002211615798022488 -0.0068263213982787865 -0.00030315772248001947 -0.012193850311339682 -0.001968171810567851 -0.0013591310311582819 0.0016032635957170538 -0.0062109929468005722 -0.017486508346364803 0.0027314448907558896 -0.0012296042333327277 -0.00071891984573998016 -0.013252761668149989 -0.0067559867618845028 -0.021859921553234161 0.00091768494764856215 -0.012220297496923379 -0.0082785691311446918 -0.002965790067451094 -0.014304693789373242 0.0012231216898437943 -0.0017561156584323791 -0.0085468405208509821 0.0064412671777247903 -0.017594840512376218 -0.0046362569272134354 0.0074014338724957647 -0.0036234231562788911 -0.0092337637518109927 -0.010309403380254547 0.0033470834719870482 -0.0011762016933168559 0.002205678232448805 0.00014506209914640991 -0.00010245864165749276 -0.008565335396321077 -0.010991315297089769 0.001525862905070604 -0.012081192118802094 -0.0015981429054169325 0.00020830375554953484 -0.0033543613641642215 -0.010750862999701958 -0.0058000496922866566 -0.0033529237788217361 -0.017160830467153994 -0.0082077309254304336 -0.027144709935459903 -0.013439568913096524 0.0033709278257980902 -0.0037573566784379251 -0.0019573902486822621 -0.0044735400438999876 -0.0052513898841037906 -0.025367500857259941 -0.0065908970992682456 -0.0028762135080104465 -0.0040906010702925636 -0.0058536139612073426 -0.0071092755246102979 0.0095456376208680783 0.0032810421416975418 -0.005098176325447807 -0.0080775136925889789 -0.010333907354948045 -0.024689968456281724 -0.0089793241446663018 0.0065585451779202253 -0.0039809528631968892 -0.023221656300448239 -0.016263389379446949 -0.01384671773583526 0.0069452822822571852 0.013124363493151924 0.002011717418115819 0.0058630314735406384 0.0025299325268283469 0.0034714814887640373 -0.0070621679015802075 -0.016404470025879803 -0.0057112925155362098 -0.0066217993588760871 -0.0013308998683371626 -0.0028654447993948251 -0.001903716415317655 -0.014578476426938543 -0.0079263110180458375 -0.0045763382849989083 -0.0030893603517946691 0.00047428502166648102 0.0021455713962676114 -0.0053085372135198818 -0.0025261773418902705 0.0011577337745169714 -0.00091873189420929049 0.0017552111727757089 -0.0037574697537099497 0.0070994575072148187 -0.0062954162143014089 -0.0044050741447235761 -0.0057696354074329281 0.0029527006116183844 -0.0035910761036366478 -0.0017429443227082256 0.002537070784963642 -0.028165877625361064 -0.0024635503835620538 -0.00063359191934976426 -0.0030526613440882036 0.0040015645011929109 -0.0002498242145241955 0.016136642084131361 0.0047288017889808671 -0.0050236759105316518 -0.00047517318848583199 -0.024303273861543843 -0.0099895088950871548 -0.002613915324391862 -0.007483396555804993 -0.010320674759429565 -0.012942222034192605 0.0014751445851941035 -0.0047394087877471814 0.011635654078099132 -0.0018950573837120458 -0.0057204840827838463 0.0052483854388419649 -0.0065543668512741725 -0.0034041978973581816 -0.019253891905200819 0.005253049958211636 -0.0032139105110367007 -0.0040700545314464607 0.015154281551153094 -0.00077863992112981752 -0.0039184763200003307 -0.012108971229043426 0.0022086914030189282 0.0038170091335459179 -0.0037171059951589748 -0.0099102097600345402 -0.024233014606500722 -0.0065058293947089004 0.00064922118640626679
leaf_weight=33772.415830244587 196072.69916648418 27027.699014748359 2832.5218533943989 4242.5445121403318 1063.5280593874631 16570.060147960437 1332.4507765601738 923.76213146304326 5862.1567425590511 749.16768385679461 27277.297661211924 3412.4774925965467 4224.8119179228743 13464.869905654763 233.57694879546762 1578.6741133463802 13483.980906068929 10092.022896849332 2030.7324565343442 4421.5212664633727 5115.985310642398 55096.330571888291 18809.910155384227 6663.1450539199432 19815.466333637552 450.36917333374731 1575.3239329740754 23923.743027244789 36617.815515393413 6989.0463721972628 38362.814304956977 12061.279359972066 5981.9410522700055 31642.001101725124 9033.314142688585 2247.7138013385265 346.99712732376065 35610.203290633886 34711.049649010718 104.51503248442896 5041.9644313209865 12919.234728668116 11047.138796665982 14159.68069158019 2107.4205175979296 250.75454676704248 5395.753128854034 7325.289901771619 106.22293461195659 19805.035840862078 7737.6024648938328 567.87224695584882 2630.4833816958126 422.05939368547115 1476.0454143499919 2310.5444074542611 931.06239085199195 1857.0059274873929 1674.3286729689571 2241.1174196199863 578.47441687702667 22992.045034959672 3661.871592592739 312.1216421603458 1225.3078013455379 12179.973287111323 7051.1346342303441 1183.1844340156531 6243.0967184653491 1502.0712259159191 12855.298357374188 6650.5346375843874 4766.1284201050876 39065.361428245633 13114.465445012502 37124.117368066305 37661.654073152502 3093.0272271618014 22554.246892278439 1938.5442904973752 596.53030162496725 20823.298930970544 27202.376781581119 9769.1511488426549 19629.579348402574 2628.085246145667 8950.673074233724 3790.9937120339309 19063.540758427134 1613.1265898718266 4936.1880221041501 835.7132835733355 4176.3085588085814 23971.439893456336 1783.5570444003097 6812.2648373557404 47384.747809427041 19463.154589806218 23146.183119119101 4944.5492875585333 13358.397698240111 1819.1590591011336 5568.526539455539 2583.23315323313 1366.7573956010747 19870.892058272737 383.50409127504099 20104.144228191144 57476.275304447954 2223.7604808148462 12838.802335183587 64666.94983014941 4656.6850963313627 3426.8207640207474 2522.9643178308015 1481.2569165033638 32580.371568286799 20607.676327797111 23131.651759450266 4906.2522413051938 17423.726880861381 12354.270703683334 32054.498803060298 10761.366913062564 31484.864329800614 537.73989394860109 49067.16468615413 647.93835643556667 1293.1399869454908 6271.2400009453995 772.51787659537513 39521.250229876052 1053.4568499325542 8067.5576011812082 8012.3835315500692 351.39931871090084 25528.891992503712 6321.6572888461087 2734.4208011163864 10465.020953511832 3421.0181507733214 4160.8678731539294 778.03661182220094 48732.091418270589 14832.415840203656 32147.208884434302 12472.979944263992 27446.821438040832 1990.5356539273635 779.99452501710039 9909.1496256109676 16210.477720381583 2173.9102458666312 34714.349989866547 8484.6228487968692 21672.031184115411 835.47413217747817 22986.486032254688 315.57044056546874 3199.4207374108373 26514.336681275207 648.70753251574934 26724.5109186552 1092.8696152323973 687.03880985983415 141.70496319467202 1064.3808243350959 19626.940418685139 11964.159747630874 1234.8112171274261 24128.087821703375 13603.174076312687 892.79558936902322 12319.280268130184 16744.964399845077 22549.455068225929 261.39638644293882 3088.271722151665 13158.757341881976 1158.5911632677307 439.8326033137273 302.47668853169307 93.31885175826028 13916.764050350503 771.79729580599815 645.13352670331369 1067.5294970348477 25221.233562019348 25728.194455803408 6986.4747674747614 825.48733186221216 1651.7354093466856 2102.2156911869606 5731.2702487196366 9340.7021897038794 51130.240978149988 13146.627176800683 1088.1198645536206 5534.3164089615821 4005.1536783463234 1465.3065324275085 7472.3754749489744 1671.4805977544747 17911.935372371954 2142.0186989417998 11490.352968455816 11215.177269129112 8424.7504423002247 1483.5491557234782 1190.5554900796269 6614.4023295492298 3704.1639443369204 13899.581789374701 1399.4140203484003 11005.648217621281 3359.4998255143291 50.06449537188746 65574.53633663003 31419.361122608621 8928.9226385110014 20527.968508438695 82724.263093882648 99.144664937164634 20013.875859413303 12759.795123194106 5572.7128118704786 411.63602709036786 893.08844120809954 6918.3099665200716 22156.9526456249 30149.143616509151 1488.1343025224633 21135.678990328539 10154.767272293942 4030.915516753681 2239.1545264678571 738.64096516149584 4482.4774211214608 567.44645652017789 7680.2485701307851 87.848562990315259 770.69131158443633 10778.128985182106 1600.2072099390207 468.91046530078165 11535.590210015775 1752.5698876259848 1559.1610825096723 5737.1307121190985 5890.9885831723805 1073.634332050744 16517.081278441154 78.129675215575844 514.84149957360933 10420.800657754695
leaf_count=608643 185891 185323 30598 32401 20676 334098 4229 7450 35784 13129 381634 38123 19429 73382 999 25689 152854 146302 7208 52949 61233 341257 108254 108222 299767 3654 19476 363955 429532 75153 238199 105415 24180 286239 46917 32427 5364 464227 174886 626 54221 138170 44517 129702 37642 2841 94681 73947 2257 68501 84844 12255 33968 8377 13932 13991 6190 29597 14492 45090 12880 360233 14083 5820 6632 115344 64941 22236 79690 13731 57632 45404 59099 514390 71187 227877 522984 24264 191065 29194 8077 209609 378596 165018 305499 38362 63217 56235 141105 18164 38809 6159 18666 204670 30050 33242 439622 322968 191449 45597 162951 34463 40888 52602 9501 326922 6440 129249 445672 22290 56500 396533 81245 19324 44262 8700 233638 131292 331957 117191 80989 80578 324606 230963 475474 13809 307179 12811 18827 71460 13835 263806 14709 126761 29973 7012 341842 23330 23519 178861 58217 18292 3531 233248 127402 312764 217803 536756 13702 12602 70617 111906 17233 662341 110843 244952 18207 374985 10573 66701 140169 5250 276277 12017 5087 3756 13812 239723 144898 15241 386469 40784 9185 185431 280566 407582 5525 48288 51025 12134 9692 5671 634 51941 1958 7736 8951 163715 122519 106302 17542 27415 34310 70748 95878 498435 287025 19979 74509 54374 10327 56232 21522 209663 20582 99972 87359 107593 8253 13319 94706 50676 94775 20673 108583 15740 804 642936 274395 95786 106625 601401 267 89433 173286 53507 11748 13166 85134 357526 530990 30759 140163 84390 10912 27776 11469 17790 4496 99979 1334 5841 114680 21683 1184 131738 13405 30148 24162 32086 15505 307280 2099 7736 68534
internal_value=0 -0.00200146 -0.00602055 0.000560742 -0.00435905 -0.00863605 0.00150301 -0.000886181 0.0027096 -0.00536877 -0.00236982 -0.00135809 0.000251923 0.000588581 0.00427094 -0.00671534 -0.00422246 -0.00260488 0.00150822 -0.000625459 -0.000232418 0.00265126 0.00283963 -0.00727059 -0.00670216 -0.0057826 0.000426034 -0.00519536 -0.00399836 -0.00401488 0.000605469 -0.00109216 0.000187664 -0.000126903 0.00128595 -0.0109681 -0.00145458 -0.00614539 0.00269388 0.00603722 -0.00144936 -0.00212699 0.00575788 -0.00100247 -0.00785321 -0.000508841 -0.00479641 0.000590063 -0.00548855 0.0048845 -0.00549367 -0.00872723 -0.00114556 -0.0118542 -0.00103558 0.000474207 -0.00131238 -0.00518671 0.00414678 -0.00619881 -0.00579964 -0.00718951 -8.37146e-05 -0.00933475 0.00097194 0.00144039 -0.00337962 -0.00433604 -0.00759532 0.000700887 0.00453956 0.00319944 -0.00504884 -0.00436673 0.0018359 0.000862753 -0.00538515 -0.00326304 -0.00117484 -0.010207 -0.00081341 -0.0017723 -0.00607512 -0.00632832 -0.005363 -0.00977632 -0.000849659 -0.00382809 0.000558561 0.0017921 0.000915541 0.00189364 0.00118866 -1.89644e-05 -0.00441292 0.00174933 -0.000784691 -0.00807585 0.000571537 -0.00251959 -0.00212548 -0.0131855 -0.000416621 -0.0128513 0.000502904 -0.00824123 0.00207685 0.00251282 0.00179671 0.00118923 0.00184374 0.00136067 -0.0109161 0.00382676 -0.0121567 0.00445403 0.000377422 -0.000211058 -0.00493432 -0.0144188 0.00258832 3.09795e-05 -0.000364582 -0.0110741 -0.00742356 -0.0114676 0.000217941 -0.00959772 -0.00409485 -0.00547841 -0.00667725 0.000128068 -0.00870599 -0.00950573 0.0080098 -0.00607677 -0.00350884 0.0046863 -0.00137422 -0.00686229 -0.0118372 0.00663508 0.00729873 0.00289848 0.00134299 0.000495904 -0.00776016 -0.0103376 -0.00309828 -0.00413361 0.000494693 0.00181028 0.0014246 -0.0113437 -0.00321949 -0.00369682 -0.00946165 -0.0093476 -0.0111239 -0.0146853 0.00313364 0.00465779 -0.00226272 -0.00791148 0.00298404 -0.00843707 -0.00381378 -0.00430245 -0.00264537 -0.00040182 -0.00721806 0.00731744 -0.00586732 -0.00627998 -0.00874295 -0.00937309 -0.0121699 -0.0055389 0.00639415 0.00220627 -0.0138469 -0.00462224 0.00775043 0.00823164 0.00579696 -0.00316551 -0.00188762 0.00302769 0.00302731 -0.00648537 -0.00805425 -0.0106924 -0.00375309 -0.00275369 -0.00367273 -0.00217518 -0.0149492 -0.0140719 -0.00705624 -0.00480242 -0.00357054 0.000214409 -0.000820665 -0.0029149 -0.00294652 -3.08038e-05 0.000401405 -0.00565556 0.00346147 -0.000682532 -0.00656058 -0.00336677 0.0027284 -0.00857001 -0.000655456 0.00435079 -0.00163968 -0.00195042 -0.00067921 -0.00122782 0.0031529 -0.00034028 -0.00291841 0.00379976 -0.00382597 0.000542634 -0.0169563 -0.00449201 -0.00289721 -0.00883832 -0.00931518 -0.00782839 0.00177778 -0.00408069 0.01095 -0.00328088 -0.0111354 0.00485127 0.00111242 -0.00461031 2.79144e-05 -0.00114873 -0.00421527 4.54497e-05 0.00685705 -0.00127155 0.000643574 -0.00815642 0.00188806 0.00159527 -0.00906773 -0.00936668 -0.0044896 -0.000290964 -7.54857e-06
internal_weight=0 2.83588e+06 1.10405e+06 1.73184e+06 675147 428900 1.04883e+06 683010 452178 505169 296505 169978 386506 596649 196624 232241 272928 102495 255553 145835 325565 94118.6 60940.3 270520 194599 24142.8 211252 170433 75424.3 129609 80139.4 166895 497015 386346 110668 158380 148022 95009 119039 18118.5 114314 65695.8 102506 98419.5 34148.7 109926 40964.1 26234.3 128722 65717.9 103587 75921.2 61531.1 90826.7 6674.55 136514 27035.1 60860.3 44188.3 14716 95849.2 33605.9 10650.9 61205.2 104686 101326 37923.7 27600.9 17468.2 232220 34706 20154.5 62243.2 118958 74851.1 40521.6 57477.1 65239.7 80855 4531.06 58050 34307.3 95110.5 88086 46832 67553 110246 33611.6 35607 20676.7 109479 45566.5 69243.2 29338.3 10184.9 18873.5 69939 91012.1 23742.7 19052.1 18302.9 37530.2 27772.2 4690.65 38490.9 103519 39904.9 29137.5 89146.1 59700 76000 107905 53296.5 40974 3413.17 42514 75549 53188 58741.9 20960.2 99634.6 18216.4 82081.3 52229.3 41254 46013.5 63912.5 58654 35568.3 16363.3 3481.13 124315 10184.5 9131.09 12276.9 2289.94 62146.7 41032.7 154126 32254.5 3999.49 24743.9 20583.1 86169.7 29070.6 41097.9 14720.7 52832.3 10896.2 8905.68 58976.3 80877.4 63161.2 45475.7 37776 32298.7 57594.4 56758.9 32613.5 3514.99 27350 13504 28164.4 1439.87 34329.5 97934.9 83256.4 58692.3 24564.1 5477.36 24269.8 36787.7 20390.1 18982.4 58757.6 39294.4 2118.4 14559.5 14551.4 39521.4 2962.8 3714.95 32095.7 27519.9 11818.9 1067.19 62812.4 29446 29155 14055.1 7811.96 29098.6 9617.04 7833.49 10916 56172.2 19141 14234.7 29458.1 5583.83 12551.1 24046.6 10322.8 19205.1 23814 25440 22705.5 35702 2959.59 25162 29606.4 8125.69 14150.3 11864.4 16574.2 4691.95 128686 97216.5 31469.4 40983.4 33642.4 84226.3 7424.43 37437.6 25679 6640.24 1059.57 3725.61 7024.53 73665.1 50020 23645.1 22361 11620.1 4264.49 2551.28 1921.83 4575.8 40088.7 11471.2 14920.3 14930.4 15894.1 8651.34 13627.7 12600 14483.9 6215.85 5841.65 60987.3 20218.8 19145.2 2708.61 1407.64 12173.4
internal_count=29328109 29142218 16061316 13080902 8678516 7382800 6630076 6450826 2448533 7025264 3275731 1653252 3175095 4181543 923508 3554642 3470622 1152824 1525025 1326131 2824682 513748 350413 4302603 3013954 327121 1738843 2317798 957784 1623024 623357 1652707 3704491 2992420 712071 3080197 1514050 1360014 648893 66672 1085839 702774 409760 909926 528708 972393 540933 182468 1838157 278642 1492730 1288649 611891 1827375 65979 876132 196837 831306 221408 228659 1407886 526036 89236 1059990 687891 766450 453307 345161 261142 1577196 167945 108286 881850 1533788 427485 244586 822751 795638 746041 81296 561989 362463 1411978 1324587 684095 1252822 1090031 426179 294812 159269 679295 262690 493428 236655 147363 138657 630687 1521224 199526 221677 208548 792756 249467 90244 237378 1716485 256773 176166 651106 467962 447076 693762 1034619 188318 57608 206916 511725 364930 796184 458658 477052 116362 796373 1018506 640492 907113 416605 1026394 446252 217762 49902 883434 162146 147437 41884 36206 771374 198216 1415224 510108 71097 90324 72032 403670 226352 375981 250230 1002592 129929 116227 377796 508439 390576 893304 424019 376377 1001835 983628 641445 77274 146328 62882 293658 17381 182899 1636422 1044561 754113 290448 47642 390225 131118 310574 293653 1011116 688148 35122 204502 59659 250333 53954 43794 111149 92725 46475 16113 615114 183144 141843 203534 123844 564171 135108 105058 115354 552656 424195 307004 438464 80063 100907 205703 108146 228490 265534 210850 187331 489227 22185 217989 454939 103625 97616 199534 149471 19969 1204374 929175 275199 420392 177812 615132 74214 170422 311456 62458 24559 43764 87391 1246197 857912 388285 146795 94717 11911 33596 33705 18424 268302 156214 128736 135543 175913 86624 52209 145550 95930 111393 24788 373343 361147 345642 36067 16921 81939
cat_boundaries=0 1 2 3 4 5 6
cat_threshold=2 10 4 2 8 8
is_linear=0
shrinkage=0.015


Tree=3
num_leaves=256
num_cat=7
split_feature=1 5 5 1 3 9 1 1 9 13 1 10 6 3 5 9 9 12 27 1 5 13 13 13 23 13 11 5 13 11 6 1 10 16 17 17 13 3 17 20 9 9 20 25 12 3 23 25 17 16 9 6 9 9 9 3 21 18 21 13 16 5 19 11 9 24 13 18 23 16 10 3 15 27 3 28 19 28 12 27 2 25 18 12 8 24 8 28 13 15 5 12 16 16 13 9 16 9 18 13 28 26 6 23 10 23 8 11 24 27 20 10 18 16 18 27 27 3 13 21 9 12 24 9 12 21 25 24 12 6 27 2 11 21 10 12 25 18 19 24 12 21 15 5 9 9 11 11 21 21 27 21 13 9 9 13 2 21 16 17 8 15 24 23 24 23 17 23 9 12 17 9 26 15 27 13 28 20 17 8 20 27 18 28 20 20 26 12 28 25 8 10 27 9 8 8 27 27 24 23 10 12 11 26 18 8 11 16 13 15 10 19 18 15 24 27 13 3 12 8 12 21 16 11 12 21 25 23 25 2 25 2 11 21 9 9 9 9 11 19 23 17 28 9 9 8 20 13 27 27 16 9 3 26 23
split_gain=93759.5 49613.3 43084.7 8576.81 6878.51 5494.69 4023.06 3967.59 3776.16 3402.14 2013.93 1513.93 1395.53 1351.95 1268.76 1116.94 1642.48 1087.17 1056.64 966.448 931.216 897.149 811.191 655.449 598.399 576.12 546.16 580.945 542.179 518.936 515.242 1031.56 497.376 494.245 484.636 450.362 448.207 446.039 445.367 487.636 439.104 923.347 432.552 396.711 373.784 362.872 347.487 346.688 346.553 341.465 337.064 333.881 333.727 375.662 361.711 332.657 330.958 328.789 327.881 324.716 307.599 305.933 300.146 299.325 310.898 294.653 293.482 292.061 284.158 280.032 278.896 276.495 269.299 345.307 268.139 267.787 266.238 265.079 539.594 371.014 278.754 264.882 263.782 260.647 256.889 257.406 256.448 255.507 251.199 248.307 247.193 245.592 244.953 244.573 305.523 261.301 241.369 240.042 234.111 233.293 233.047 267.228 228.874 225.538 224.805 221.566 261.465 218.737 216.516 216.231 215.003 212.11 210.083 209.688 223.005 206.359 205.439 202.043 201.008 199.91 199.565 198.825 196.059 195.966 193.213 189.432 188.706 187.326 187.155 186.606 186.182 214.117 184.59 225.197 184.497 183.069 183.044 181.039 180.035 179.672 176.938 192.735 176.899 176.656 234.395 431.72 174.991 174.021 172.653 172.201 172.132 169.874 169.645 187.187 295.189 167.136 166.16 163.528 163.447 162.784 162.466 160.931 160.766 182.743 160.352 162.468 159.047 158.012 157.773 157.57 157.495 157.016 155.745 199.965 169.179 155.636 154.749 153.459 153.248 151.904 151.419 149.495 147.97 146.557 145.329 144.611 141.407 140.941 195.973 157.215 140.655 140.267 139.661 138.522 138.364 155.306 137.675 135.91 135.439 134.501 134.307 210.447 208.151 134.168 133.905 133.547 133.32 132.902 181.646 145.272 132.591 132.209 131.521 130.899 140.788 129.774 129.49 127.911 127.02 127.006 125.851 123.947 123.487 182.841 123.438 122.749 122.436 122.233 125.792 121.768 121.722 121.313 121.257 119.748 119.511 155.358 129.65 118.709 118.618 118.379 130.681 118.375 117.436 117.333 158.844 127.344 117.213 116.105 114.391 113.599 113.306 113.285 112.818 112.806 112.618
threshold=0 2.5000000000000004 2.5000000000000004 1 2.5000000000000004 64.500000000000014 2 3 52.500000000000007 0.056933734565973289 4 -3.0547478199005123 2.2534904479980473 1.5000000000000002 1.5000000000000002 173.50000000000003 155.50000000000003 -0.31978240609169001 -2.0589668750762935 5 1.5000000000000002 -0.22591941058635709 -0.0551494862884283 -2.1097801923751827 -0.49688883125782007 0.26012703776359564 -0.40037786960601801 1.5000000000000002 0.01638615503907204 -2.2582507133483882 1.0000000180025095e-35 6 4.5341362953186044 -4.6158406734466544 -0.79232126474380482 -1.6430372595787046 -0.90981990098953236 1.5000000000000002 1.4132591485977175 1.0704960823059084 52.500000000000007 72.500000000000014 -1.114240765571594 1.0790454149246218 4.3618028163909921 2.5000000000000004 -0.4117684662342071 0.80624723434448253 -0.8267078399658202 -1.073380649089813 192.50000000000003 4.7590363025665292 13.500000000000002 52.500000000000007 66.500000000000014 2.5000000000000004 -1.0672440528869627 2.3002924919128422 0.84306323528289806 2.767206192016602 -0.62677147984504689 1.5000000000000002 -3.1958149671554561 -0.97494316101074208 186.50000000000003 0.060090035200119025 -1.4488717317581175 2.2431277036666875 -1.5430325865745542 1.1369251608848574 -3.5483467578887935 1.5000000000000002 -2.162636280059814 0.27619299292564398 2.5000000000000004 0.5574491322040559 1.9771146774291994 0.52639195322990429 -4.5542573928832999 -0.95433241128921498 28499.500000000004 1.4938957691192629 -1.0861756801605222 -1.5486031770706175 135.50000000000003 0.14753672480583194 72.500000000000014 0.33351467549800878 2.7198963165283208 -1.5234799385070799 1.5000000000000002 0.059979438781738288 -1.5369651913642881 -0.508399337530136 2.8879686594009404 192.50000000000003 1.8576989173889162 179.50000000000003 2.0996754169464116 -2.2306182384490962 -0.20414051413536069 1.2325611710548403 4.9992027282714853 2.5893052816390996 -0.89211869239807118 -1.4832248687744138 96.500000000000014 4.7599050998687753 -2.7803146839141841 -1.3097605705261228 1.9090865850448611 -1.4369866251945493 -2.145940780639648 -0.54613354802131642 0.5076902210712434 0.45301109552383428 -2.4330205917358394 1.5000000000000002 -2.2845212221145625 1.1641811132431032 14.500000000000002 -1.1805089712142942 0.40742178261280065 189.50000000000003 -0.45078527927398676 -2.1448829174041744 -2.2331310510635372 1.5340893864631655 -0.16368129849433896 4.969388723373414 0.17285346984863284 31556.000000000004 -4.3875446319580069 -2.0676645040512081 -3.4722839593887325 -0.1871128976345062 0.64645496010780346 -1.8156213760375974 1.0015735030174258 -0.93801808357238758 5.5534918308258066 -0.080310754477977739 2.5302845239639287 1.5000000000000002 52.500000000000007 57.500000000000007 -2.0217869281768794 3.1304290294647221 0.81501841545104992 1.7570208311080935 0.015480954200029375 -0.50250416994094838 -2.9556778669357295 152.50000000000003 86.500000000000014 -4.1894943714141837 8283.5000000000018 -1.945800185203552 1.8354003429412844 0.98684668540954601 19.500000000000004 -1.6187232732772825 -0.89874613285064686 -0.16775412112474439 0.55608671903610241 0.044314019381999976 0.38095024228096014 -2.0951238870620723 171.50000000000003 -1.0516059994697569 -2.2868883609771724 50.500000000000007 -1.1328187584877012 0.91750448942184459 0.11551145464181901 -1.5036941170692442 -0.20414051413536069 1.0361340641975405 -0.267266035079956 456.50000000000006 0.32793965935707098 -0.60833048820495594 -2.8742331266403194 1.4581857919692995 0.86765253543853771 3.1189274787902836 0.70036613941192638 3.2383878231048588 0.50963336229324352 -2.2331310510635372 171.50000000000003 2.6189208030700688 0.34381252527236944 13.500000000000002 557.50000000000011 234.50000000000003 -0.48437452316284174 -1.8160893917083738 -1.4591838121414182 -0.083977960050106035 -1.8749345541000364 -0.70318579673767079 -0.52875098586082447 0.40601715445518499 0.29156622290611273 177.50000000000003 -2.9692419767379756 -1.7163389325141905 -2.8241797685623165 0.067176826298236861 3.5386492013931279 -1.1981305480003355 0.029395058751106266 1.6413226127624514 0.72846823930740368 -0.66879537701606739 3.0711380243301396 1.5000000000000002 -1.8309651613235471 5.5000000000000009 4.3618028163909921 -1.4001160860061643 -2.098161935806274 -3.1653612852096553 1.2650077342987063 -0.6910794973373412 1.5385951399803164 1.1228982806205752 1.8316348791122439 30111.000000000004 -1.709482669830322 955.50000000000011 -1.1454640626907346 1.045647203922272 152.50000000000003 173.50000000000003 54.500000000000007 152.50000000000003 -4.2213053703308097 -0.92220652103424061 -1.2694779038429258 -3.155648827552795 0.95061013102531444 98.000000000000014 52.500000000000007 402.50000000000006 0.024576276540756229 -2.8241797685623165 -2.4330205917358394 -1.1342398524284361 0.91785022616386425 99.500000000000014 2.5000000000000004 0.38780568540096289 -1.3394542932510374
decision_type=1 2 2 1 2 2 1 1 2 2 1 2 2 2 2 2 2 2 2 1 2 2 2 2 2 2 2 2 2 2 2 1 2 2 2 2 2 2 2 2 2 2 2 2 2 2 2 2 2 2 2 2 2 2 2 2 2 2 2 2 2 2 2 2 2 2 2 2 2 2 2 2 2 2 2 2 2 2 2 2 2 2 2 2 2 2 2 2 2 2 2 2 2 2 2 2 2 2 2 2 2 2 2 2 2 2 2 2 2 2 2 2 2 2 2 2 2 2 2 2 2 2 2 2 2 2 2 2 2 2 2 2 2 2 2 2 2 2 2 2 2 2 2 2 2 2 2 2 2 2 2 2 2 2 2 2 2 2 2 2 2 2 2 2 2 2 2 2 2 2 2 2 2 2 2 2 2 2 2 2 2 2 2 2 2 2 2 2 2 2 2 2 2 2 2 2 2 2 2 2 2 2 2 2 2 2 2 2 2 2 2 2 2 2 2 2 2 2 2 2 2 2 2 2 2 2 2 2 2 2 2 2 2 2 2 2 2 2 2 2 2 2 2 2 2 2 2 2 2 2 2 2 2 2 2
left_child=2 4 3 5 7 8 22 20 11 10 37 77 36 19 17 16 18 23 75 34 40 102 57 100 49 67 38 33 84 42 31 61 43 -28 56 111 90 66 39 -20 130 81 58 89 52 50 194 -46 -27 149 59 113 137 171 -55 62 124 117 -25 97 161 63 -13 64 191 -50 107 74 -45 -65 221 88 73 227 120 185 170 80 -79 -80 105 83 138 136 85 -19 99 -60 104 115 197 238 -40 95 -95 -48 -29 -17 219 177 180 203 152 167 139 -1 -107 122 -106 -70 178 -16 184 164 151 230 -22 128 -116 176 -8 247 150 -99 -11 -84 -91 -37 -4 -32 131 187 133 -132 -21 -15 -42 -23 179 -30 141 -87 -112 144 193 226 -86 183 -34 155 242 -115 213 154 -154 -18 -152 -136 -128 -135 -149 168 163 210 225 -166 -85 -44 -31 -153 -61 -54 173 -64 -174 -124 -82 -26 -62 -74 211 -81 -72 249 215 -7 -67 189 -189 -2 -127 -6 -193 -38 195 -43 -71 -9 -111 216 201 -58 -202 254 -188 -198 -101 208 -164 -209 -122 -5 -163 214 -14 -36 -90 239 -39 -51 -148 -24 -133 -224 -88 -12 -146 228 -68 -49 -10 -204 -165 -215 236 -236 -63 -145 -52 240 -184 -134 -3 244 -241 -245 -213 -118 -92 -114 -162 -59 -53 -177 -102
right_child=1 9 6 14 30 15 25 12 32 13 51 55 21 135 35 45 24 28 26 134 116 44 70 29 86 48 27 96 71 60 129 -33 148 -35 112 127 143 218 92 -41 41 46 103 68 47 -47 93 229 65 98 91 252 53 54 -56 -57 200 251 87 76 110 234 172 69 -66 186 72 -69 109 196 182 -73 82 -75 -76 -77 -78 78 79 181 119 -83 125 166 146 140 224 -89 199 126 248 -93 -94 94 -96 -97 -98 123 -100 206 101 -103 -104 -105 108 106 -108 -109 -110 198 142 -113 147 114 118 -117 121 -119 -120 -121 162 -123 175 -125 -126 190 158 -129 -130 -131 132 222 241 159 157 -137 -138 -139 -140 -141 -142 -143 -144 237 145 -147 220 160 -150 -151 156 169 153 -155 -156 -157 -158 -159 -160 -161 250 212 207 232 165 -167 -168 -169 -170 -171 -172 -173 174 -175 -176 253 -178 -179 -180 -181 -182 -183 217 -185 -186 -187 204 188 -190 -191 -192 192 -194 -195 -196 -197 205 -199 -200 -201 202 -203 231 -205 -206 -207 -208 209 -210 -211 -212 246 -214 233 -216 -217 -218 -219 -220 -221 -222 -223 223 -225 -226 -227 -228 -229 -230 -231 -232 -233 -234 -235 235 -237 -238 -239 -240 243 -242 -243 -244 245 -246 -247 -248 -249 -250 -251 -252 -253 -254 -255 -256
