tree
version=v4
num_class=1
num_tree_per_iteration=1
label_index=0
max_feature_idx=11
objective=lambdarank
feature_names=country cod_section_group family pagetype_group hour embedding_pca_1 embedding_pca_2 embedding_pca_4 embedding_pca_5 embedding_pca_6 embedding_pca_9 embedding_pca_14
feature_infos=-1:1:3:2:0 [1:3] [1:211] -1:1 [0:23] [-6.4573087692260742:7.5027856826782227] [-6.2956123352050781:7.3879737854003906] [-5.4722957611083984:5.7508583068847656] [-5.508331298828125:5.8681225776672363] [-6.0564961433410645:5.9091091156005859] [-4.5596418380737305:4.7951984405517578] [-4.1033515930175781:4.4610147476196289]
tree_sizes=14541 14536 14583 14578 14464 14561 14490 14619 14465 14603 14450 14469 14482 14515 14510 14501 14453 14494 14631 14542 14623 14632

Tree=0
num_leaves=127
num_cat=8
split_feature=3 0 1 1 0 7 8 0 7 0 8 7 7 8 8 0 1 0 7 8 1 10 6 5 6 1 1 8 6 5 9 7 5 6 5 6 6 6 10 11 8 7 8 5 10 5 6 7 10 5 10 10 0 6 1 10 5 6 11 8 5 7 11 8 6 10 9 7 8 10 9 8 9 11 8 7 5 5 9 9 8 7 5 5 9 6 5 9 7 7 5 7 9 9 6 9 7 6 7 10 10 7 6 9 6 8 10 10 7 6 9 9 6 11 8 8 10 6 9 6 5 8 6 6 8 9
split_gain=203182 100389 27821.1 25044.5 11447.1 2999.83 2025.27 1826.7 1809.19 1428.75 1264.88 1105.85 1065.06 1057.51 1042.87 864.647 590.349 589.315 529.248 507.843 515.215 484.15 453.511 473.877 451.568 429.689 369.703 358.791 337.832 309.147 348.059 302.395 276.272 264.728 248.109 218.322 216.475 210.857 205.865 204.768 204.299 203.671 201.277 198.641 187.555 185.937 293.277 179.687 176.595 170.672 165.274 216.353 154.897 150.234 149.233 145.859 141.335 140.844 140.541 139.575 134.007 138.238 132.852 131.026 129.8 129.233 122.549 118.163 116.894 114.947 113.002 119.283 110.735 108.981 108.592 107.733 105.886 208.131 104.348 103.79 103.534 102.37 102.235 96.0424 95.9713 95.6148 95.1399 94.4074 94.3755 94.1973 91.873 113.683 108.094 87.3213 86.8351 108.952 86.1642 85.9665 85.6473 85.3903 136.922 109.191 84.884 88.2138 84.7021 82.5515 81.9043 80.0379 79.9974 79.9182 99.5428 79.3827 78.9493 78.5796 86.0456 78.4062 77.0353 76.5572 74.7742 74.0162 73.8974 73.797 82.5542 73.4229 72.3999 71.9785
threshold=0 1 2.5000000000000004 2.5000000000000004 2 -0.74577468633651722 -1.0942041873931883 3 -0.840350180864334 4 0.19894533604383471 0.34083348512649542 -0.0551494862884283 -1.0089311003684995 -1.9412120580673216 5 1.5000000000000002 6 -0.31128701567649836 -1.8575717210769651 1.5000000000000002 2.3035955429077153 3.5256737470626835 3.3125395774841313 -0.59856885671615589 1.5000000000000002 1.5000000000000002 1.3441808223724367 -2.1930649280548091 -1.5847022533416746 0.037610214203596122 -0.74577468633651722 -3.5874708890914913 -2.5900564193725581 0.94679486751556408 4.5905613899230966 -2.7029128074645992 -1.11342316865921 2.3935645818710332 -2.0631282329559322 -0.63437697291374195 -1.1883186697959898 2.8830252885818486 -3.3885371685028072 0.3809946477413178 3.2305445671081547 1.1551700830459597 -4.221665382385253 2.2452824115753178 0.87371468544006359 -0.97819238901138295 -0.7614234685897826 7 -2.3098556995391841 1.5000000000000002 -1.1164099574089048 4.2150628566741952 -2.3798462152481075 -0.63129639625549305 -0.11662954092025755 -3.5056645870208736 -1.6715179085731504 0.32410115003585821 1.0873996019363406 -0.84079051017761219 3.0058943033218388 -2.1244130134582515 2.7198963165283208 0.13707088679075244 1.2508888840675356 -0.51713085174560536 -2.662755966186523 -1.0056957602500913 0.24798657000064853 -1.4720935821533201 1.1682990789413454 -1.2557244896888731 -4.231520175933837 2.8262792825698857 0.10153962671756746 0.68187269568443309 0.15973787754774096 -1.5318087339401243 4.1700789928436288 -0.88487327098846424 3.7249388694763188 2.8839390277862553 2.5262916088104252 -1.1330809593200681 -1.9384291172027586 -0.041269958019256585 3.2933579683303837 0.27434286475181585 -1.1795262694358823 0.9890345335006715 1.3430761694908144 -2.1141477823257442 -0.63572078943252552 -0.56812992691993702 0.19628056883811953 0.23715877532958987 0.089174471795558943 -3.2118642330169673 2.0000740289688115 -3.0195984840393062 -2.662755966186523 2.4336093664169316 -1.1863939762115476 2.5624091625213627 -0.45194478332996363 -1.8988310098648069 4.1064999103546151 -1.981041371822357 -0.26695883274078364 4.1344783306121835 -0.24022221565246579 0.29605217278003698 -1.3560030460357664 -1.6705375909805296 4.8294827938079843 -1.8813754320144651 -1.3833879232406614 5.0426440238952646 1.9104707241058352 1.3972525596618655 0.67187100648880016
decision_type=9 1 2 2 1 2 2 1 2 1 2 2 2 2 2 1 2 1 2 2 2 2 2 2 2 2 2 2 2 2 2 2 2 2 2 2 2 2 2 2 2 2 2 2 2 2 2 2 2 2 2 2 1 2 2 2 2 2 2 2 2 2 2 2 2 2 2 2 2 2 2 2 2 2 2 2 2 2 2 2 2 2 2 2 2 2 2 2 2 2 2 2 2 2 2 2 2 2 2 2 2 2 2 2 2 2 2 2 2 2 2 2 2 2 2 2 2 2 2 2 2 2 2 2 2 2
left_child=1 2 5 4 10 9 24 11 40 25 19 21 38 56 47 22 41 57 48 81 31 43 23 27 50 44 32 37 29 -16 69 -21 62 59 -27 39 -32 -8 52 -26 79 -12 72 104 60 46 65 -11 86 111 97 64 -5 -13 96 -45 76 -14 -47 -19 74 107 93 85 78 -30 -33 98 -68 -31 71 -53 108 -65 -1 -55 77 -10 -52 -6 -48 -3 -63 -49 -78 90 109 -72 -22 -57 91 -15 -92 -17 95 -25 112 -7 -34 101 120 -24 -81 -104 -4 106 -83 -62 -20 110 -9 -41 -42 -43 123 -102 -51 -60 -91 -54 -101 -46 -123 -115 -29 -79
right_child=-2 3 7 12 8 6 15 18 13 14 16 53 17 63 28 26 -18 33 42 20 88 -23 99 94 35 34 -28 124 45 30 36 66 67 -35 -36 -37 -38 -39 -40 49 54 113 -44 55 121 58 80 83 -50 116 51 70 119 75 -56 89 -58 -59 117 -61 61 82 -64 73 -66 -67 68 -69 -70 -71 87 -73 -74 -75 -76 -77 84 125 -80 102 -82 105 -84 -85 -86 -87 -88 -89 -90 118 92 -93 -94 -95 -96 -97 -98 -99 -100 100 115 -103 103 -105 -106 -107 -108 -109 -110 -111 -112 -113 -114 114 -116 -117 -118 -119 -120 -121 -122 122 -124 -125 -126 -127
leaf_value=0.0024638619675143281 0.019995579064086007 0.0017439686148551031 -0.0025044907498383128 0.010003105764126564 -0.00094812828732041281 -0.008191265994954889 -0.0061675460453297793 0.0012946330641525009 -0.004365678941281587 0.0031597926691033684 0.00462383029110952 -0.00079204093493130624 0.0063024052997961433 -0.0015327772721929114 -0.004286507930182341 9.4859843992792383e-05 0.0010621623552706477 -0.00053708752261692337 -0.00078099422969531249 0.0035864863001215702 0.0013085714662178674 -0.0041517655090505005 -0.0051704840783261367 -0.0038039070525862835 -0.0028476351791196144 -0.0089289069036643 -0.0088962747048126328 -0.0016021090195105937 -0.0049902457788369029 -0.00058522998204126292 -0.0014018439997255138 0.00076930293511270117 -0.0049410193849703434 0.0060060344014530699 -0.0057412413344235524 -0.004169831253737365 -0.0053631318979612767 -0.0079743965600395494 0.002247526799666505 -0.009618741876101889 0.0025005306412556024 0.0031188326249229027 0.0006518168099536514 0.0063797352617203798 -0.0073040428266161932 -0.004247418170618464 -0.0037846399606600752 -0.0078036601698084056 -0.0057840512152617374 -0.0090315643811371884 -0.0058209678064356889 -0.01049893848393435 0.0086439823655232225 0.003273216247051678 -0.00080486562270844122 0.005961304440998556 -0.00063160556908518981 0.0084208023643611886 -0.0008287835778752002 0.0039098097065305495 -0.005667857235876028 -0.004418090386381769 -0.0073069189022900525 -0.00068775876071515212 0.00048709631180700807 -0.014028924548820907 0.0025775416104315317 -0.0081235188987283762 -8.8006249863145755e-05 0.002355300094124596 -0.0073539926313688228 -0.0046997025115233914 -0.002953510388247716 0.00056522327866146587 -0.0072573074529779392 0.0008322363798171032 -0.0040893813687245938 -0.00086163298745435882 0.00075895275264701786 0.0032010547841648924 -0.0023207274859825301 -0.00010445807787421052 -0.0067176858493852853 -0.0020441657400001971 -0.0027903440484257649 0.00013823168982603548 0.0019768964172400772 -0.013208501057990608 -0.00055078561029933226 0.004789777636111249 9.046026603928683e-05 -0.0043972312052018457 -0.0015369337618704253 -0.0042804825731809562 -0.005973335011935344 -0.005470194152254043 0.00079958197741838923 -0.00099427602521744672 -0.0067510897027117083 -0.013217920552615343 -0.0016815386137949743 -0.0023808585899874044 0.00047583261096561288 -0.0023921282765224025 0.0040290733756431921 0.0011695369832084796 -0.018006882669009922 -0.0041543042794306411 -0.0035584742002538277 0.0013591749833180076 -0.0016104707329690786 -0.01556462101497536 0.0011767779642233667 0.0035563577697984034 0.0060935021690918688 -0.0048418087915370793 -0.0076292183042753082 -0.0030899112743790359 0.0024214069014616641 0.0044755765466109156 -0.0018930369592147888 -0.0056070189845575727 -0.0078152324845267556 0.0048987325179406724 -0.0051571737854587919 -0.0027658885363986484
leaf_weight=422.810591560803 48086.876413281891 10909.231223020783 465.69038004468166 19169.860077709156 8654.0291268491383 11102.65967110483 14893.768021875749 1980.0773488958293 3341.5465939326277 157.9915492764776 27943.079229189578 3866.8201699185847 4222.9082569840175 18235.696580482101 4601.0511379293421 502.08589348375972 7888.2342664624011 917.99056941915478 6939.0140270837983 29310.278733273022 6136.6628362791962 583.93923735046701 1791.7709114979734 15144.93010902791 546.46735538623034 6383.1359240488782 7759.8911976393792 606.60669894751481 16655.751005796832 3342.8254250584741 3634.9187282368312 4848.3205145538304 2862.8485669932779 8646.6735419216893 4008.3527840541174 990.00667478508694 2233.0438617004984 11582.821627665555 411.35616371283686 18918.948315557409 8321.7205315767715 22653.04002745451 3633.9093852722581 7335.4399027974287 4611.0228743368098 3165.8078526871359 15829.356515610558 6913.8117728415091 377.21898544559372 7599.0470230355586 1910.7804269753406 406.79228841751319 12260.931598577496 2616.2495465626289 3715.043926758015 2683.647564730004 2818.0719244418433 12992.067515608403 4053.4742558318831 2996.2127547394957 4727.8841044062701 2803.8103805377323 1433.1099517256407 19472.841178964049 534.06435432865237 160.28906979096791 36970.319726538597 6149.4871415735979 1714.1696396574334 2202.0630909591273 10432.636376477127 2982.5256761686178 6471.9615895974821 10778.243878388286 156.59278278366037 5907.6586769250371 10253.529892368546 6426.475806314349 272.5162177149723 1031.1717210075276 7027.666105364031 9106.0683895756338 6539.0839473272281 308.02986531242641 13004.965302887833 5351.8400935367245 7420.295369664389 288.27291993742256 4906.6926884797285 2810.5076154848916 8020.5695923465246 1503.8684314675556 8286.2647485979251 4538.5061283558643 3414.7547009346818 5362.8507601425536 17652.321212179751 172.00488917286566 39005.603824544531 266.76595870620076 1007.4010264775206 6644.9873659444274 12203.237929234723 1174.1632827841968 343.81681352235319 9656.9198630063293 24.637147824920248 14117.425218704861 1222.7105207659988 5070.7748714063091 2907.8000670447473 234.57738781830994 9927.8076778826835 26205.351645841667 1695.0649498646562 3759.3401362701479 8607.4337399792075 2391.0775207219885 2590.3905230945179 455.27874734644865 76.627403244820016 14998.15999162956 1946.9988653842338 4893.5841235521075 14257.353444457098 2888.8939298545665
leaf_count=13971 212392 380494 19395 402397 338361 568330 711076 69588 149254 5044 833949 150692 114797 731852 205111 19115 282262 34979 270055 924858 217049 25571 82802 661458 23406 334230 406372 24984 764288 128263 145433 175966 131427 238941 188571 44670 103559 586958 13707 1011354 278280 731302 132104 199605 230014 140565 693709 347514 17768 396849 90747 22419 286844 84109 144888 73767 108155 308844 156431 92059 223127 126786 70097 753639 19765 9736 1232310 314447 64609 73890 517407 136525 273085 394819 7495 213330 453053 250792 9841 33202 291495 342968 318721 12628 548545 199350 254692 16889 188593 81967 300270 66696 333063 202413 161943 249526 640601 6753 1896581 15889 40278 277368 449816 48997 10290 343439 1675 626873 52684 180195 117656 14462 353487 833734 46249 171568 431145 101201 87440 13815 3254 701139 97724 143797 659090 121059
internal_value=0 -0.00113679 -0.00473145 0.00216939 0.00120249 -0.00588094 -0.00663744 0.0012497 -0.000691029 -0.0047122 0.00280204 0.00310772 0.00805624 -0.00146156 -0.00376366 -0.0059641 0.00367886 0.0066903 -0.000257145 0.00209754 0.00249546 0.00477933 -0.00526388 -0.00561048 -0.00809847 -0.0058458 -0.00684836 -0.00625943 -0.00336109 -0.00209762 -0.00121401 0.00280063 -0.00655765 0.00502416 -0.00770095 -0.00882743 -0.00291167 -0.00695865 0.00931497 -0.00895545 0.000665655 0.00392625 -0.0014524 0.00510153 -0.00546354 -0.00377138 -0.00407414 -0.00732846 0.000971842 -0.00904948 -0.00714074 -0.00650875 0.00940576 0.000840944 0.00110126 0.00535503 -0.00279286 0.00789754 -0.00252018 0.00286446 -0.00493282 -0.00503069 -0.00461218 -0.000741687 -0.0039142 -0.00507783 0.00227122 -0.00681962 0.00245917 0.000580965 -0.00700739 -0.00540158 -0.00197562 -0.000240996 -0.000154183 0.00158292 -0.00296214 -0.00222341 -0.00499512 -8.22077e-05 -0.0033351 0.000973115 -0.00602919 -0.0075597 -0.00336361 -0.0011073 0.00111938 -0.00751356 0.000481557 0.00442336 -0.0012925 -0.00175173 -0.000735925 -0.00384275 -0.0044884 -0.00424038 0.0012988 -0.00808245 -0.00662768 -0.00359697 -0.00462104 -0.00297504 0.000437214 0.000223198 0.000259678 0.00052491 -0.000155825 -0.00453483 -0.0011987 0.0004793 -0.000431545 -0.00969289 0.00178106 0.00357444 0.00388875 -0.00417651 -0.0082879 -0.00166961 0.00365636 0.00848922 -0.0107327 -0.00617108 -0.00586178 0.00376806 -0.00501288 -0.00145349
internal_weight=0 844678 404681 439997 377924 339453 206060 65227.9 173062 133392 204862 29204.2 62073.3 110383 72677.2 141062 91278.4 29775.9 36023.8 113583 83886.4 16813.4 78810 65263.1 64998.7 60715.3 62251.5 41340.5 65297.3 16013.9 11412.9 72843.1 54491.6 12560.9 10391.5 36896.5 5867.96 26476.6 32297.4 35906.5 62679.5 83390.1 18267.6 16229.5 50323.8 49283.4 39673.1 7379.83 17756.2 35360 28102.3 16827.6 31886.1 12390.7 39616.9 15420 38733.5 17215 9610.36 3914.2 28767.6 28188.2 6473.7 71649.3 2717.36 16816 43532.8 48017.9 38684.5 5544.89 14110.2 3389.32 14633.7 30251.1 579.403 8523.91 35915.4 12656.9 2183.3 23062.6 22857 29696.9 9342.89 7221.84 23258.5 41398.2 17378.9 10720.9 11043.4 8084.55 36046.4 19739.6 16306.8 5040.59 23922.5 20507.8 35901.8 11274.7 41868.5 13546.9 5110.13 8436.76 14408.6 13377.4 809.507 18787.6 9130.71 18845.3 8161.72 9958.65 4887.88 19153.5 18249.5 55447 32794 4766.74 16206.5 6444.55 5400.9 12716.2 343.393 21556.2 16945.2 31098.9 14864 9315.37
internal_count=33518927 33306535 18358719 14947816 13441433 16044726 9997208 2313993 6698179 6047518 6743254 946166 1506383 4410547 3178867 6686646 2871293 789620 1367827 3871961 2803385 498035 3646194 3055035 3310562 2868651 3040452 1982108 2813681 656256 451145 2397743 2634080 365979 522801 1921886 248992 1298034 716763 1877216 2287632 2589031 727928 472464 2345850 2157425 1759228 365186 639899 1853810 1388676 813593 703056 448131 1417256 442779 1630858 423641 398197 127038 1316973 1295507 291625 2779689 120353 774024 1472885 2342455 1296919 202153 693240 158944 595824 1148458 21466 297439 1522703 521105 100588 870376 985204 1068576 445507 360142 1001598 1631231 622131 534296 405642 243174 1431881 798548 633333 221528 1072927 910984 1272368 575083 2028008 591159 230989 360170 532015 498813 29685 688082 344643 850000 322739 367439 187244 1025816 631767 1755082 1023780 211846 827994 257632 169407 300659 19143 1028877 798863 977531 684074 371851
cat_boundaries=0 1 2 3 4 5 6 7 8
cat_threshold=2 10 4 2 8 2 4 4
is_linear=0
shrinkage=0.01


Tree=1
num_leaves=127
num_cat=9
split_feature=3 0 1 1 2 2 0 0 7 2 2 7 1 0 5 2 2 5 0 5 7 6 5 2 2 2 10 2 2 2 7 2 2 11 2 5 7 11 11 0 2 6 7 2 2 7 6 5 2 7 7 9 2 5 10 1 9 10 11 2 2 2 7 6 7 7 7 5 10 10 5 6 6 10 10 0 2 11 10 9 2 7 0 10 10 7 5 5 7 5 6 7 1 1 6 11 10 10 10 9 9 2 5 1 6 5 2 6 10 2 5 5 7 9 11 5 10 7 7 7 7 9 11 11 11 11
split_gain=1.19288e+06 202005 67638.1 35329.2 14278.7 8895.13 8094.68 7901.46 4026.18 3810.19 3212.43 2739.59 2383.89 2380.35 1957.89 1733.41 1642.56 1378.62 2367.61 1317.62 1083.57 1057.99 963.724 937.443 912.658 1303.72 1182.6 911.339 903.281 1042.7 868.798 852.453 1364.65 1014.58 887.759 814.664 790.901 762.279 723.45 719.597 682.964 680.536 634.442 606.471 1012.18 594.14 610.527 585.402 579.018 627.31 575.74 542.208 533.883 531.861 668.522 508.545 489.571 489.235 478.247 459.003 451.659 637.862 447.866 444.373 442.824 430.334 427.028 405.065 423.309 397.529 397.261 393.237 378 371.973 369.138 368.195 368.018 363.776 363.42 359.132 354.734 354.087 353.445 351.819 350.069 440.032 349.414 498.655 353.777 349.05 356.204 347.919 342.521 340.157 334.056 327.307 325.141 423.656 366.086 324.562 316.441 315.055 311.265 306.163 304.84 312.146 301.064 299.146 298.079 292.326 290.997 287.449 285.947 282.556 277.557 277.13 275.591 271.128 270.283 269.923 268.779 267.526 294.244 266.226 264.275 262.754
threshold=0 1 2.5000000000000004 2.5000000000000004 64.500000000000014 52.500000000000007 2 3 -0.96913570165634144 72.500000000000014 51.500000000000007 -0.8925931155681609 1.5000000000000002 4 -1.2381008267402647 152.50000000000003 174.50000000000003 -1.7127537727355955 5 -3.1556783914566036 -0.19628016650676725 -2.4913232326507564 3.921857595443726 158.50000000000003 140.50000000000003 98.000000000000014 0.23715877532958987 145.00000000000003 152.50000000000003 100.50000000000001 -2.2074370384216304 149.50000000000003 51.500000000000007 0.19808368384838107 59.500000000000007 -1.9988580346107481 1.2314585447311404 0.38737291097640997 0.32410115003585821 6 50.500000000000007 -1.595537483692169 1.070411801338196 152.50000000000003 181.50000000000003 2.4947530031204228 1.7113872766494753 -2.0852464437484737 99.500000000000014 -1.0690650343894956 -0.79034322500228871 -0.79234600067138661 50.500000000000007 0.31627905368804937 1.4533810019493105 1.5000000000000002 -0.37873353064060206 -0.27659419178962702 0.43390908837318426 186.50000000000003 147.50000000000003 131.50000000000003 -0.86545866727828968 -2.6575260162353511 -0.840350180864334 1.0967282652854922 2.6536802053451543 5.518193483352662 -1.3361231684684751 -0.13193666934967038 1.6843598484992983 -2.1675808429718013 4.7612483501434335 2.2452824115753178 0.19628056883811953 7 173.50000000000003 -1.2354609966278074 -0.31338068842887873 3.7819899320602421 198.00000000000003 -1.5342490077018736 8 -0.060880914330482476 0.08762222528457643 -0.74577468633651722 -2.3448803424835201 -2.4105420112609859 0.99640345573425304 0.56715285778045665 -1.0038230419158933 2.7661798000335698 1.5000000000000002 1.5000000000000002 -1.0553523898124693 -1.8856260776519773 -1.1863939762115476 -0.060880914330482476 -0.261790782213211 -1.8453155755996702 2.8262792825698857 13.500000000000002 4.1117229461669931 1.5000000000000002 -1.6108979582786558 -0.74804049730300892 157.50000000000003 5.0426440238952646 -0.7614234685897826 8.5000000000000018 5.9528377056121835 -2.1051564216613765 0.87116152048110973 1.4028877615928652 0.95004290342330944 -1.7127537727355955 -1.1164099574089048 -1.3194552659988401 -3.842315554618835 0.91315531730651867 -3.9972535371780391 0.067168556153774275 1.4388326406478884 -0.84302896261215199 -0.21884685754775998 0.51517164707183849
decision_type=9 1 2 2 2 2 1 1 2 2 2 2 2 1 2 2 2 2 1 2 2 2 2 2 2 2 2 2 2 2 2 2 2 2 2 2 2 2 2 1 2 2 2 2 2 2 2 2 2 2 2 2 2 2 2 2 2 2 2 2 2 2 2 2 2 2 2 2 2 2 2 2 2 2 2 1 2 2 2 2 2 2 1 2 2 2 2 2 2 2 2 2 2 2 2 2 2 2 2 2 2 2 2 2 2 2 2 2 2 2 2 2 2 2 2 2 2 2 2 2 2 2 2 2 2 2
left_child=1 3 4 7 5 17 12 31 39 10 19 14 30 21 60 24 37 45 40 101 28 47 56 63 25 109 -26 86 29 93 96 32 52 69 81 83 94 73 -30 72 121 59 89 64 -45 46 -3 58 50 -50 107 -51 -1 -14 -55 -21 71 -39 -10 -35 61 92 114 -17 -29 -46 108 68 118 -33 119 -7 123 -16 84 -65 -62 -27 -41 120 82 -34 -25 -23 85 -32 87 88 -13 -15 -91 100 -8 -11 -37 -86 -6 98 -98 -79 -22 -9 -83 -72 -88 -106 -40 -36 -47 -4 -64 -78 -104 -66 -54 -61 -70 -24 -43 -12 -58 -19 -123 -5 -52 -111
right_child=-2 2 15 8 6 22 11 9 13 20 70 27 53 42 16 23 -18 18 -20 55 91 35 117 80 26 77 -28 43 38 -31 74 33 34 41 48 36 -38 57 106 78 -42 67 -44 44 65 66 -48 -49 49 51 124 -53 62 54 -56 -57 79 -59 -60 115 76 -63 110 75 113 -67 -68 -69 116 -71 103 -73 -74 -75 -76 -77 111 99 -80 -81 -82 102 -84 -85 95 -87 104 -89 -90 90 -92 -93 -94 -95 -96 -97 97 -99 -100 -101 -102 -103 112 -105 105 -107 -108 -109 -110 125 -112 -113 -114 -115 -116 -117 -118 -119 -120 -121 -122 122 -124 -125 -126 -127
leaf_value=0.00021976264133038038 0.019773960581258888 -0.0073542124826344243 -0.0047733248373137355 0.0037836707783143455 -0.0063753685774367913 -0.004578940182392837 -0.0034363146932734402 -0.004804841806819584 -0.000262872161980953 -0.00017820285799413077 -0.0028137843038646289 -0.0057354751003829262 -0.0088374099726854123 0.0010727872406261977 -0.0021800993426589125 0.0042332762018853784 -0.00714543348738005 -0.0042774274318348659 -0.0065367554419724916 -0.0004611713718219727 -0.0011703931733983654 0.0052670632993764947 -0.0034917697708635774 7.0879488394632581e-05 -0.00083766845665371708 -0.0032606965732006527 -0.0052949497243677136 -0.016795380307443798 -9.4251599118690805e-05 -0.0043218035871983983 -0.0046452192314680564 0.00074637045772254151 -0.0020270741039319418 0.0017881653052372109 0.00025473181730088068 0.0045531398493246318 0.0017748607624785849 -0.0014130712265336184 0.0018805493916167313 0.0037142676845975265 -0.003758277048732443 -0.0058274546114997477 0.00010068525987505136 -0.003114413716934346 -0.0045955382863570428 0.00028389514710552307 -0.0018554652740677131 0.0041675931516430686 -0.0039769542184871047 0.0018509725331957603 0.0015780961970432549 -0.0012447162605163228 0.00074554341205334846 -0.0055915625861020458 -0.014823537231811654 -0.0027368105105283562 -0.0033413088102711413 0.001343309807204216 0.0023328525580524778 0.0048485092508340558 -0.0022929922204474747 -0.0077838563590448889 0.0016883688007923487 0.0021171659814326373 -0.0069616062878864009 -0.0068872737143910682 -0.0059626159790802961 0.0049858784679750667 -0.003502261320991754 -0.00029269104251598908 -0.0021241354883280977 -0.0095153122110878292 0.0018553600701879628 0.0016382134160364793 -0.0063103873606100355 0.00044423372664995466 -0.0033544554127334265 0.0010239095538396121 0.0020293352981437672 -0.01126091433973689 0.0027493716709499688 -0.0008083259184291224 -0.0021566539962808167 0.0026304703774229199 0.0012246144254483709 -0.006273533685197427 -0.00077892054985023002 -0.010012848328989807 -0.0031465617143845255 0.0039457152658690965 0.0012077376883344931 -0.0026414042334375032 -0.0056253893052584858 -0.0026203560750106955 0.0029300954259758433 -0.0042696281216499489 -0.003675485571089977 -0.0049821775737980316 -0.00033845632941157332 -0.00029752605975832865 0.00068218219916738032 -0.0023782185746852326 -0.0012916512491333218 -0.0080405060515128576 -0.0029902429682075217 -0.004971914956563999 0.00010875796637663483 -0.00093260501551696128 -0.0062937336990054205 -0.0017238710819457402 -0.00026528110914818135 -0.0068442683045020214 0.00089988196696429113 -0.004025870028429736 -0.0011336974259259528 0.00014729121611374376 0.00034309654870258368 -0.0072652826420515019 0.0023839686647472175 -0.0038330928617882174 -0.0082700009331065309 -0.0055797322252208962 -0.0092685014789339031 0.0050159912352147054 0.00044654121643477728 -0.00059345232008848291
leaf_weight=170221.01505123579 281831.94823288033 78125.67162579787 2468.1434041883913 22753.752297338142 6990.3594269548703 1657.1914290948189 33800.493627423566 7558.0172063551909 17527.986685560667 55120.972025229043 47666.299511628953 9559.3583719132948 30369.243922667403 34352.233837393644 34468.965568120038 5851.6857554501767 4608.0763369242195 16476.860814968626 103173.95748041398 129817.23002179903 87230.153829233343 24845.836556936873 2033.7987751698674 17548.952950840037 15122.380542178318 2655.1735037952894 9823.0367233828292 421.37222481297795 71637.248966108396 7757.8310429819539 28563.237800407907 65010.064990635859 20182.979349783476 42630.505261122977 61656.623249542266 23317.43176962962 38762.890726145604 10353.858412709087 39686.636652675879 49080.831615817122 64003.91652174171 411.24624028365361 48529.656603425603 23498.52379815391 15267.859600819713 2248.4246163752978 2078.6016252147383 6206.1800057074906 5977.4920443137489 7716.6934973132265 39729.831682070784 21185.470876819563 25763.697084973628 10429.134578492027 849.43313661456341 10625.858124173057 1130.1866324879811 17022.548592972395 11920.585458232261 8604.4857156737708 30722.279779472039 4700.7190055457177 75684.584332403931 27904.77945769213 18540.489322445457 17815.516670528341 9049.0783837452109 2179.5692503300379 1930.8765062720631 84894.843158848365 43640.273685566543 81497.573431990648 4780.4040761857905 2751.528879434627 91117.51240537806 24952.546562139949 7842.5636839625076 47085.291215662088 17365.747463326217 4053.7743005779339 3047.9240554198041 160917.3829325971 11972.615647090781 6381.030487401109 1297.1728385519818 39918.0716025211 4660.1966024800349 1649.9812691935804 11861.69782469987 10917.537745244932 8437.8663589918287 14378.737978617399 9094.7800422730506 6362.4678134725837 27956.677081900067 6512.0158581562428 15892.237385595421 22679.712936109987 4153.6270827928674 30692.59402868904 10302.198133099067 18452.481938077031 8187.3494833422483 893.0376011308399 32670.191188142377 10539.559468602496 12662.495417377912 32348.243011202059 990.62503611384454 52636.980414672056 8468.3457726467896 3393.2891978396219 21798.724787830561 4010.8578544036136 11306.15731504322 1473.0056752751116 52640.143813367082 33249.540655355333 13791.493269939827 57465.743764731786 82981.622947288022 30873.388520139153 2337.1392348255031 77847.892355846838 43023.133120837912 33800.349077055682
leaf_count=1160690 212392 1235817 28406 66281 106213 23481 450631 103686 74262 536424 575793 139248 516167 151639 426432 30996 68872 223586 1587870 1316999 968448 74065 26163 115110 129638 24571 123928 9134 690388 95667 399526 414513 140187 231088 372821 70418 144278 122226 331810 156349 863177 2551 233767 312980 217407 26180 25904 19791 48780 54030 281350 179523 140245 153717 17358 124668 15308 160282 44116 42887 382888 76071 505130 120523 287999 275788 135614 12654 12206 546651 508495 1405769 14845 24259 1387938 220600 104884 317217 60760 76551 22731 1389725 132494 22056 12861 604891 56551 29341 156520 36222 33454 169376 131468 72026 93778 91551 215008 326340 49056 255961 102529 219619 68016 12867 424362 150793 119050 211575 14887 495107 69428 51583 160188 56090 64120 9169 308184 524244 72207 750334 1373419 451521 38800 210302 245336 296711
internal_value=0 -0.00163268 -0.00460335 0.000361722 -0.00574401 -0.00694829 -0.0046501 -0.000319367 0.00290445 -0.00120297 -0.00197241 -0.00355757 -0.00595533 0.00211735 -0.00264112 -0.00027354 -0.00137758 -0.00587513 -0.00543887 -0.00101642 -0.000405842 0.00289092 -0.0085551 0.000863072 -0.000807596 -0.000544454 -0.0025934 -0.00452449 4.76131e-05 -0.000867239 -0.005535 0.000236394 5.45593e-05 0.00071106 -0.000308385 0.00333641 0.00285336 -0.000965867 0.000558604 0.00409151 -0.00444145 0.00138157 0.000929535 -0.00525968 -0.00470254 -0.00689783 -0.00721185 0.00137628 0.000149246 -0.00102814 0.00038164 -0.000417806 0.000581025 -0.00814769 -0.006289 -0.000633435 -0.00886535 0.000300458 0.000787564 0.00224237 -0.00361741 -0.00428467 0.00108822 0.00161792 -0.00663121 -0.00583012 -0.00484693 0.000741965 0.000607252 0.00015786 -0.00303555 -0.00941711 0.00460635 -0.00189753 -0.00587992 0.00132812 -0.00286018 0.000377937 0.00327361 -0.00834473 -0.000497298 -0.000767257 -0.000832918 0.00472871 -0.00536559 -0.0055946 -0.00369983 -0.0047118 -0.00430257 0.00167845 0.00275275 -0.00118887 -0.0039008 -0.000431124 0.00366846 -0.00335567 -0.00437323 -0.00404528 -0.00298458 0.000502321 -0.000974601 -0.00308388 -0.000634002 -0.00224318 -0.00321181 -0.00347394 0.00145218 -0.000153745 -0.00172603 -0.00137905 0.00149165 -0.0044098 0.000301153 -0.00644012 0.000172098 0.00416242 0.000206792 -0.00704816 0.00214511 -0.00337107 -0.00820393 -0.00532206 -0.0058399 0.00473741 0.000989936 -0.00128196
internal_weight=0 3.40953e+06 1.36955e+06 2.03998e+06 1.08399e+06 515961 568026 1.60899e+06 430985 621258 316119 309255 258772 259156 158759 285562 69205 309358 216865 166454 305139 156919 206604 91278.5 194284 169339 24945.4 150496 193228 69241.3 217124 987734 714168 273566 422724 121264 90037 64596.9 123986 171829 113691 123661 102237 79554.6 56581.9 92492.4 80204.3 35654.8 211637 34879.7 176758 28902.2 291444 41647.8 11278.6 140443 171320 27376.4 29448.6 52708 89554.1 47596 121223 58709 22972.7 33083.4 12288.1 70953.3 68773.8 149905 149665 83154.8 105382 37220.5 167408 52857.3 41958.1 80433.1 66446.6 88165.6 32569.5 211086 29521.6 31226.9 76290.5 68481.3 70941 23071 21421.1 53707.6 19355.4 111911 42895.3 61483.4 51274.1 7809.19 49715.9 42725.6 20045.9 77777.9 97532.4 26010.5 190903 44533.3 47869.9 43209.8 52349.1 94004.9 3239.05 88905.5 84152.9 11235.9 29986.1 22551.3 37069.9 10077.5 54571 35283.3 14202.7 105132 84111.8 49687.4 33210.5 100602 82753 86437.3
internal_count=33518927 33306535 18358719 14947816 16044726 8048291 7996435 13441433 1506383 6698179 3612461 4115809 3880626 997846 1999596 2313993 802071 4603356 3164954 1764972 3085718 542764 3444935 642454 1671539 1417973 253566 2116213 1845365 704117 3193384 6743254 5091144 1652110 3151531 404595 308474 733199 1141248 508537 1577084 690946 455082 1159398 806175 1438402 1261721 138169 1393415 282333 1111082 233553 1939613 687242 171075 1441667 2894528 282508 118378 283144 1197525 658170 778923 372119 353223 493195 176681 407802 395148 961164 1847489 1429250 291428 450691 2496767 341123 539355 597749 217109 1465278 270335 1758116 247604 96121 1108829 1004417 956815 325109 295768 221315 69676 1240353 582099 608450 164196 104412 696617 590404 264064 573178 1070977 323305 1617929 521362 631706 575155 450860 584396 41067 820224 574558 156467 228204 344089 204365 52056 320390 550407 74758 1326127 1388727 713907 490321 276583 526686 791818
cat_boundaries=0 1 2 3 4 5 6 7 8 9
cat_threshold=2 5 8 4 4 2 4 2 2
is_linear=0
shrinkage=0.01


Tree=2
num_leaves=127
num_cat=1
split_feature=3 1 8 7 7 1 2 6 1 8 8 2 8 6 2 11 6 5 6 11 5 6 2 2 2 7 7 6 5 11 8 7 7 5 7 8 8 11 2 6 9 2 2 6 5 5 5 11 6 11 7 2 5 11 2 11 8 6 2 9 11 8 7 8 6 9 6 7 2 2 9 8 6 11 8 8 8 5 6 8 6 11 7 6 11 5 5 9 5 5 6 9 6 2 6 11 2 9 9 8 1 8 5 5 9 7 9 9 7 6 5 6 4 2 8 5 9 7 9 6 7 9 4 2 5 9
split_gain=995962 86638.7 9305.27 5373.56 5028.12 2853.88 2848.99 2614.62 2209.18 1819.54 1582.61 1581.33 1305.02 1377.25 1130.21 1394.96 1058.48 1028.53 956.986 1049.77 933.244 1070.38 901.462 891.873 826.993 825.961 643.133 631.497 623.018 576.587 564.554 556.002 542.764 534.931 482.764 480.903 480.503 473.01 595.513 583.847 458.185 457.661 778.183 563.225 514.747 453.067 451.175 450.673 439.481 524.245 429.121 423.918 534.354 434.07 420.497 416.475 416.145 409.966 445.604 408.43 439.577 404.401 403.11 398.744 397.738 394.913 393.484 377.326 368.261 834.21 368.253 368.234 495.468 364.412 376.388 362.814 362.64 360.545 357.968 387.562 343.196 341.241 338.661 397.731 337.793 326.564 319.077 309.678 308.197 368.287 307.297 299.22 298.848 428.409 288.352 287.899 287.444 284.85 283.303 282.422 278.602 278.354 349.563 272.653 272.36 256.681 364.839 415.249 253.966 245.88 243.584 241.301 240.669 240.031 283.573 251.015 446.188 320.657 247.803 238.965 238.926 236.572 235.823 234.82 233.648 228.209
threshold=0 2.5000000000000004 -1.6165799498558042 -0.840350180864334 0.04156691953539849 1.5000000000000002 152.50000000000003 -0.75476622581481922 1.5000000000000002 1.4837464690208437 1.8218192458152773 82.500000000000014 -0.073529317975044237 -2.6297556161880489 152.50000000000003 0.33651736378669744 3.5256737470626835 0.71250653266906749 3.6056334972381596 -1.9515774250030515 3.7619202136993413 -0.66882523894309986 52.500000000000007 133.50000000000003 13.500000000000002 -1.3968862295150755 -2.7082486152648921 2.5871489048004155 4.5830094814300546 -0.32514458894729609 2.8830252885818486 -3.0967974662780757 -2.1392834186553951 5.9528377056121835 -0.81625187397003163 -2.370032429695129 0.78192946314811718 -0.10299628973007201 155.50000000000003 -0.25887188315391535 -0.66071927547454823 145.00000000000003 71.500000000000014 0.49411025643348699 -1.02025830745697 -2.3448803424835201 -2.8921999931335445 -0.29164758324623102 0.21289658546447757 0.22300069034099582 1.070411801338196 195.50000000000003 0.87371468544006359 1.5699952840805056 96.500000000000014 -0.094752278178930269 -1.0719789862632749 -2.9692419767379756 186.50000000000003 -1.5632524490356443 -1.1299536824226377 2.9510011672973637 -0.840350180864334 -0.91921269893646229 4.6570446491241464 0.27434286475181585 -2.3798462152481075 3.0719060897827153 86.500000000000014 147.50000000000003 0.39916945993900305 0.30505397915840154 4.8294827938079843 -0.80421525239944447 3.5134215354919438 2.519065380096436 2.4343556165695195 0.052073456346988685 3.107451438903809 3.2669200897216801 -1.7427216172218321 2.0839936733245854 -1.7136647701263426 -1.9060952067375181 -0.083977960050106035 -1.9988580346107481 -0.83216124773025502 -3.1031844615936275 5.0163381099700937 3.2305445671081547 -1.4894847869873045 4.433143377304078 -1.0553523898124693 52.500000000000007 -3.8047373294830318 0.28220300376415258 73.500000000000014 3.1585197448730473 -3.203698873519897 3.452889204025269 1.5000000000000002 -0.15274608135223386 4.7371950149536142 -1.9988580346107481 -2.0407017469406123 -1.691387891769409 0.39916945993900305 0.41727723181247717 2.8879686594009404 4.7612483501434335 -0.32622192800045008 -1.2808399200439451 16.500000000000004 162.50000000000003 2.1136721372604375 4.3707194328308114 -1.0056957602500913 -2.2307176589965816 0.32151259481906896 -0.57660257816314686 -3.0967974662780757 -0.068492837250232683 7.5000000000000009 152.50000000000003 -2.0852464437484737 1.4544891715049746
decision_type=9 2 2 2 2 2 2 2 2 2 2 2 2 2 2 2 2 2 2 2 2 2 2 2 2 2 2 2 2 2 2 2 2 2 2 2 2 2 2 2 2 2 2 2 2 2 2 2 2 2 2 2 2 2 2 2 2 2 2 2 2 2 2 2 2 2 2 2 2 2 2 2 2 2 2 2 2 2 2 2 2 2 2 2 2 2 2 2 2 2 2 2 2 2 2 2 2 2 2 2 2 2 2 2 2 2 2 2 2 2 2 2 2 2 2 2 2 2 2 2 2 2 2 2 2 2
left_child=1 2 6 8 12 10 18 32 14 17 16 -10 13 26 23 27 20 63 19 66 21 24 -23 31 -5 113 -3 59 41 34 50 75 -8 35 -18 88 57 38 39 91 -7 42 43 -21 -44 -36 97 -48 67 84 -11 52 73 80 65 62 -56 -27 -59 -16 -61 -51 -43 111 101 -22 -1 87 -13 -70 86 110 -73 -38 -75 94 -41 85 79 -29 -54 -53 -15 -84 -50 -20 -68 -39 89 -9 124 -12 98 -94 -4 -65 -95 -40 -19 -33 -87 -17 -103 -32 -60 -34 -107 -108 -97 -66 -31 -6 122 114 115 117 -117 118 -14 -105 -92 -118 -42 -119 -71 -116
right_child=-2 4 3 5 9 40 7 33 11 30 37 68 25 82 15 64 29 92 77 28 54 22 -24 -25 -26 36 -28 78 -30 71 103 99 105 -35 45 -37 51 48 46 76 112 55 44 -45 -46 -47 47 -49 49 61 -52 81 53 -55 56 -57 -58 58 104 60 -62 -63 -64 95 109 -67 70 -69 69 90 -72 72 -74 74 -76 -77 -78 -79 -80 -81 -82 -83 83 -85 -86 100 -88 -89 -90 -91 120 -93 93 96 -96 108 -98 -99 -100 -101 -102 102 -104 119 -106 106 107 -109 -110 -111 -112 -113 -114 -115 125 116 121 123 -120 -121 -122 -123 -124 -125 -126 -127
leaf_value=-0.005117826805369605 0.019553305599508457 0.0034860723411783358 0.0015314286215973411 -0.0041327817379377702 -0.0039164340765350551 -0.0025743382211671807 0.0014570168911003643 -0.0067747358240180904 -0.0041471025507974855 0.0019723621556518699 -0.0025097897907835716 0.0021850033027434723 0.0031818495060228092 0.0023237276832114681 -0.00032700090183425504 0.00067836321645273093 -0.012449015629064321 0.0039820821973829976 -0.0039893032836409879 -0.0038049924431101194 -0.0018546177951834744 -0.0021863160527486147 -0.0037711127808296497 -0.0060482387242441326 -0.0023109392776534967 -0.0028920824911848222 -0.0032683423460566925 -0.00066457325431925089 -0.0019065196992713584 0.00024240754211796051 0.0029704112440955151 -0.0017277868372509962 -0.0046308774717736109 -0.01612765326029689 -0.0039820044519820056 -0.002700645765644162 -0.00025473300144520874 -0.004148628370225645 -0.002136523756559055 -0.00021464375877899776 -0.0039061667733165189 -0.0059610010669657485 -0.0037970289540083303 -0.0046891700365460209 -0.0003307614468227787 -0.001816010889944203 -0.0032180715233269099 -0.0069613042647233819 0.0021117025987430118 -0.00074779367642443693 0.00047918400430945358 0.003856506525728054 0.0038564147955918843 0.0081274380371734005 0.0016376485959051744 -0.0072534363152159378 -0.0015512578637622454 0.0016027078118057642 0.0029301841223747529 -0.0030840445809114472 -0.0016305352870178693 0.0014432854515936267 -0.0034741785766586185 -0.0010014370239761917 -0.010782859816430479 -0.0027556039009689419 0.0010047006418334042 -0.0051820189582012181 -0.0075736353859144302 -0.0060371690752368395 -0.002976490924336269 -0.00043903517104780315 -0.003071158842584419 0.0017082547970175804 0.0038565083559004049 0.0016034799731362206 -0.0017386140685611133 -0.0072131602344602036 -0.00082168832254033428 0.0035068681074657271 0.0018187298005160981 0.010401535693564595 -0.0040517568203794728 0.0012598472170433409 -0.0022615601100424831 -0.00061528013080665886 -0.0028843100480067515 -0.0013936856705953876 -0.018851363011152485 -0.0020064343855334889 -0.00030375637228754012 -0.011192118805411828 0.0021544031689205156 -0.0013830202340582856 -0.0011329250842789414 0.00054882200381815404 0.00058280906051287368 0.0031745270187263082 0.00066876417686101669 0.00068235889155085039 -0.0035293482464940906 -0.00024433695321780682 -0.0026449266935750222 0.0020825960166725404 -0.010836874474283583 0.00097962176933010978 -0.017302559882613519 -0.0017356854071795477 -0.0015689912327219377 -0.0022355441879653216 -0.0046281743891253124 -0.00083960456882799272 -0.0035296343299942735 0.0019650496716180628 0.0042744311903958237 0.0061299453446611021 -0.00066213738174935308 0.001686609046489965 0.0051273458205294779 -0.0005050754349978844 -0.0025366901509110531 0.0041718528491338034 -0.0051682814625464701 0.0032198786545598922 -0.00040864707010637431 -0.0021096192421851665
leaf_weight=3094.740250925126 242630.22870051023 1697.7964990541223 4409.9832937625106 27561.801286687754 5680.1291497217026 19710.224663657486 17464.199104777883 6384.9105666229152 46262.529755553347 31477.203556271183 42098.314493499762 2358.4385397443548 61336.170928238775 51446.576883613117 18284.945273062738 32248.119615661679 458.2997409269592 5723.4289341949825 5326.3513031459988 160137.73214782469 96788.228771645387 46016.628138197353 163781.94500465179 4426.1857914389111 261314.75474563715 2403.9177597047528 8254.0529101785505 4300.879922793727 12244.092925782548 23817.434643136112 31848.59202594369 335129.82004759694 1780.9547357192478 375.22015836730134 11484.736066942467 11150.215341114563 7519.9145690315563 4295.4475395411282 2925.4213199903606 27588.706107994782 26216.296973237011 12661.67680423936 8318.7799397603576 131394.26988357704 8847.0048001346677 61061.755910147622 23360.914140259807 3737.4131829907383 1962.8860786182922 18580.901993938936 49597.353458166035 2827.8464079358382 21697.21399610443 1792.3293490940705 4616.2334065457762 8292.6329384036944 35820.717871672845 27705.965330929263 205.27387978299521 26105.5769255466 102971.80864593296 15404.225389038347 13511.758121488652 44347.878142795453 538.18002558196895 98063.78592021075 7687.6057455195587 2925.3856027175061 2433.7441537655832 765.59285376826301 7341.0479055847354 15861.632757915941 13038.763268110237 46180.154160265476 9918.7747433958575 6345.0407147745791 36024.141986912728 1285.4158782187151 26706.126046286532 4610.518863310921 13395.153747529832 1114.4922672006069 1475.4343882857938 30873.887027035016 17376.110554830782 16208.500241735415 2906.311984647371 82828.34738336844 178.03927517251577 2180.5234274222748 5758.9174879519851 400.50310631247703 14325.934202302662 9435.4578859348403 50947.765912015835 32172.869761159745 35103.174437454632 1540.4413891257136 4714.8722745258365 4927.0383348597679 4117.1316380596836 145072.22115946724 6330.8458386868006 15229.05119963715 467.67745473881951 7460.539199165647 174.23342639184557 8152.1924072741549 6869.6286771824816 908.09502578084357 1072.0329634000773 4641.9758318203385 30378.525552007384 14028.224338791042 32018.673053887556 6804.148141181051 1877.0217374127242 25817.188758384516 7354.6535878822906 4652.9338375074367 28857.874696039638 2188.4240721142869 34386.114471912078 16347.64706234444 19729.451304471746 567.22859657485969
leaf_count=45372 212392 6954 34488 365350 55966 247085 151853 97887 636230 176044 481487 19362 263174 249576 163133 257699 7098 28423 64978 2208105 1050500 517135 2142609 70288 3078674 19625 73296 37957 148415 234563 171923 3541869 21315 8777 139156 135049 43991 47926 33680 269825 340834 206171 109914 1941969 94148 658761 283596 51028 18245 178762 328029 12754 93490 6175 39723 125333 391721 142453 737 278293 1015978 120885 184742 337929 5648 1122793 80489 39030 41665 11544 97096 145127 135585 242099 45763 48956 382979 22081 247133 29628 68064 2942 13278 163076 180415 180885 39317 799259 5192 27055 62016 5513 83754 66279 496057 214162 210959 12702 28181 42319 56280 1128354 64314 86054 3896 73998 3969 96066 50855 8606 12781 30645 403715 65291 129144 25567 10852 128882 27733 30101 348312 10337 519410 68966 211902 2957
internal_value=0 -0.00144204 -0.00228195 -0.00200406 0.00169832 -0.0024249 -0.00357413 -0.00144528 -0.00140537 0.000711197 -0.00227625 -0.00275819 0.00243324 0.0014017 -0.00121985 -0.000818439 -0.00248901 3.25302e-06 -0.00386596 -0.00399629 -0.00263479 -0.00287978 -0.00342357 -0.00158358 -0.00248481 0.00275177 -0.00211479 -0.00143762 -0.00412477 -0.00164508 0.0015801 -0.00153435 0.000208408 -0.00430382 -0.002224 -0.00407951 0.00216952 -0.0016246 -0.00204336 -0.00168443 -0.00395812 -0.00420388 -0.00408168 -0.00420354 -0.00201127 -0.00215909 -0.00324958 -0.00373495 -0.0012224 -0.000502644 0.00105905 0.00249321 0.00236681 0.00332477 -0.00211548 -0.00529796 -0.00118694 0.0010709 0.00140704 -0.00172644 -0.0019246 0.000245062 -0.00467777 -0.000679762 -0.000206288 -0.00230812 -0.00182437 -0.00164849 -0.00168535 -0.00184418 -0.00125526 -0.000859139 -0.00162696 0.00181121 0.00208832 -0.000660742 -0.00107784 -0.00204427 -0.000242342 0.00149265 0.00307897 0.00571148 0.00181947 0.00101716 -0.00181708 -0.00178459 -6.14296e-05 -0.00152967 -0.00583627 -0.0055624 -0.00159085 -0.00259211 0.000926978 0.000650197 -0.000920469 -0.000450105 0.000166104 -0.000302006 0.00248666 -0.00169284 -0.00120619 -0.000165081 -0.000344799 0.00239648 -0.00662448 -0.00103227 -0.000625405 -0.00206467 0.000175901 -0.00542829 3.20438e-05 -0.00253393 -0.00425777 0.00321941 0.00333337 0.00311118 0.00456329 0.00296867 0.00339037 0.00147651 -0.00216552 0.00193792 -0.00462254 0.00228137 -0.000619673 0.00416293
internal_weight=0 3.28474e+06 2.5916e+06 2.13293e+06 693136 1.2525e+06 458676 55301 880430 295820 1.14181e+06 106167 397316 93747.7 774263 368077 860759 163015 403375 376438 733964 498675 209799 406186 288877 303568 9951.85 182980 355408 126795 132805 401760 35032.1 20268.9 73004.8 19893.7 135229 281049 137676 106112 110691 343164 308698 291532 17165.8 72546.5 31564.2 27098.3 143373 53324.1 81074.6 104446 100504 36884.7 235289 34466.1 40437 30782.8 28378.9 147362 129077 33985.1 26173.4 93712.5 185097 194852 21029.7 90049.2 59904 57545.6 17935 53789.9 28900.4 63618.8 56098.9 61702.8 63612.8 26937.4 35617.5 8911.4 35092.4 3942.34 83795.9 32349.3 19339 25652 10593.9 87123.8 8743.47 8565.43 55111.8 42498.8 69302.9 58864.6 55357.7 83390.4 44538.6 4465.86 10438.3 340057 20325.6 183651 151403 51730.6 672.951 17567.9 15787 8326.43 39042.5 1446.28 24889.5 10322.1 90980.9 168339 154311 121725 10869.6 110856 68690.8 19882 34616.8 4065.45 60602.4 42164.8 20495 32585.9
internal_count=33518927 33306535 29486159 23259703 3820376 14457952 6226456 621161 8801751 1899304 12946908 1331031 1921072 506180 7470720 3236743 10041576 1107153 5605295 5281071 8708505 6103768 2659744 4233977 3444024 1414892 80250 1772122 5018797 1333071 792151 4163689 347201 273960 805015 265183 681989 2905332 1520810 1139804 1511044 4870382 4354136 4150074 204062 797917 381006 334624 1384522 498307 504073 515278 499582 167729 2604737 516246 431444 166711 147086 1457404 1294271 299647 390913 689557 1464621 2173293 262274 886215 694801 675439 216902 528056 280712 331853 287862 579501 652804 324224 314718 67585 161554 15696 425930 176354 198660 302143 119806 847185 130134 124942 633774 487000 417596 360992 530545 602946 277238 46382 56604 3584188 237165 1450367 1192668 288078 4633 195348 174033 100035 265017 14254 247344 86611 1263959 732903 667612 535511 46756 488755 290907 116155 410328 21189 860244 197848 223446 132101
cat_boundaries=0 1
cat_threshold=2
is_linear=0
shrinkage=0.01


Tree=3
num_leaves=127
num_cat=6
split_feature=3 0 2 0 4 0 2 2 9 2 9 9 2 9 5 2 7 8 4 9 6 4 4 4 4 6 4 8 0 4 6 5 4 2 2 4 5 4 5 2 2 8 4 4 4 5 4 8 5 7 2 8 6 8 7 2 5 5 7 9 11 2 2 5 8 9 2 11 9 5 2 2 4 7 8 0 4 2 2 5 9 8 2 2 7 8 7 2 9 7 11 7 2 11 9 8 8 6 11 4 11 8 8 4 2 9 2 4 4 8 5 11 6 2 5 6 11 6 6 6 2 6 11 9 6 5
split_gain=871077 192004 24038.8 19186.2 10849.7 8832.37 7792.91 5455.38 4954.09 3047.19 2777.31 2631.26 2417.67 2048.05 1991.34 1815.23 1616.92 1541.64 1375.58 1367.09 1267.82 1202.74 1185.72 1129.55 1102.47 1093.26 1066.14 1028 1439.67 1005.65 956.03 942.073 929.203 901.451 900.531 825.927 791.205 777.865 775.886 726.281 709.233 691.846 687.153 745.965 686.504 652.534 603.49 578.331 572.395 479.605 476.139 419.917 412.974 404.466 394.764 388.652 386.753 381.458 377.209 369.727 439.651 369.113 367.579 362.855 361.607 357.486 356.717 374.718 351.696 344.456 337.613 431.786 333.773 323.501 319.152 296.077 287.876 284.772 280.397 277.382 277.301 274.712 312.435 272.192 269.069 259.798 256.867 255.537 253.081 248.009 247.933 244.795 292.691 238.069 236.331 234.688 234.254 234.038 233.533 211.698 211.351 208.596 204.822 203.114 202.944 200.153 196.908 194.012 227.418 192.545 189.39 188.825 269.555 249.462 206.384 188.059 274.64 185.299 185.162 183.597 183.065 181.814 180.857 235.012 178.807 178.221
threshold=0 1 58.500000000000007 2 12.500000000000002 3 52.500000000000007 58.500000000000007 -1.5968803167343137 51.500000000000007 -2.0407017469406123 -0.71049344539642323 58.500000000000007 -1.6705375909805296 -1.3466199040412901 186.50000000000003 1.7835705876350405 -0.42782199382781977 12.500000000000002 -0.6743791103363036 -0.9289390742778777 10.500000000000002 5.5000000000000009 2.5000000000000004 20.500000000000004 -1.033649146556854 2.5000000000000004 -1.0942041873931883 4 19.500000000000004 -0.97565448284149159 -1.4673037528991697 10.500000000000002 73.500000000000014 137.50000000000003 4.5000000000000009 3.6953730583190922 19.500000000000004 -0.041269958019256585 181.50000000000003 162.50000000000003 -0.25343579053878779 19.500000000000004 2.5000000000000004 13.500000000000002 -0.50918906927108754 3.5000000000000004 -1.1069381833076475 -2.0183036327362056 0.36381161212921148 181.50000000000003 -1.6696764826774595 4.6570446491241464 -2.8556383848190303 -2.0894228219985957 51.500000000000007 -2.8921999931335445 0.5286507010459901 0.77470117807388317 0.067168556153774275 -2.0631282329559322 51.500000000000007 198.00000000000003 1.6843598484992983 -0.65474209189414967 -2.0407017469406123 80.000000000000014 -1.6153199672698972 0.3060631155967713 0.71250653266906749 22.500000000000004 15.500000000000002 14.500000000000002 -2.739209651947021 -0.32744061946868891 5 21.500000000000004 77.500000000000014 172.50000000000003 2.1787664890289311 -0.62016665935516346 -0.39848530292510981 77.500000000000014 96.500000000000014 2.5624091625213627 0.52334150671958934 -1.691387891769409 16.500000000000004 -2.448916912078857 -0.81625187397003163 -1.7096168398857114 0.15973787754774096 16.500000000000004 -1.2553685903549192 1.0929648876190188 1.0873996019363406 1.3192650675773623 1.2938370108604433 -1.6722393631935117 1.5000000000000002 -0.27656398713588709 -2.0740453004837032 -2.7459688186645503 19.500000000000004 22.500000000000004 -0.43242555856704706 195.50000000000003 6.5000000000000009 14.500000000000002 -1.5351376533508299 -1.1222695112228391 -0.072328597307205186 -0.55092784762382496 195.50000000000003 4.7371950149536142 0.88620412349700939 -0.60516226291656483 -4.5107500553131095 -1.0553523898124693 -3.4919848442077632 105.50000000000001 5.8248162269592294 -0.907270848751068 0.63119506835937511 5.2144453525543222 -3.5056645870208736
decision_type=9 1 2 1 2 1 2 2 2 2 2 2 2 2 2 2 2 2 2 2 2 2 2 2 2 2 2 2 1 2 2 2 2 2 2 2 2 2 2 2 2 2 2 2 2 2 2 2 2 2 2 2 2 2 2 2 2 2 2 2 2 2 2 2 2 2 2 2 2 2 2 2 2 2 2 1 2 2 2 2 2 2 2 2 2 2 2 2 2 2 2 2 2 2 2 2 2 2 2 2 2 2 2 2 2 2 2 2 2 2 2 2 2 2 2 2 2 2 2 2 2 2 2 2 2 2
left_child=1 2 6 4 12 11 27 9 16 31 20 21 26 40 29 25 38 89 73 33 57 65 -12 -15 49 66 61 30 37 35 69 47 104 -19 58 -10 44 46 64 48 84 56 43 -11 99 -32 -29 -5 -22 52 119 -17 -24 -40 -43 -28 -37 62 -35 60 -33 -3 -9 87 121 -4 -16 -68 -65 75 71 -34 -45 124 -27 125 98 -66 -79 -39 -25 110 -83 -51 88 90 -26 -48 -14 -6 -38 102 -93 -85 -73 -21 -76 -42 -49 -8 -82 -67 -77 -46 -30 -106 -99 -61 -109 -31 -23 -75 114 -114 -113 -52 -117 -100 -55 -18 -121 -7 -111 -124 -13 -1
right_child=-2 3 5 7 17 8 36 10 14 42 22 18 13 23 15 51 50 19 -20 95 39 81 24 80 86 74 55 28 32 109 45 59 70 34 -36 41 85 79 53 -41 97 54 -44 72 103 -47 63 76 -50 83 115 -53 -54 118 -56 -57 -58 -59 -60 107 -62 -63 -64 68 77 101 67 -69 -70 -71 -72 94 -74 111 96 91 -78 78 -80 -81 100 82 -84 93 -86 -87 -88 -89 -90 -91 -92 92 -94 -95 -96 -97 -98 106 117 -101 -102 -103 -104 -105 105 -107 -108 108 -110 122 -112 112 113 -115 -116 116 -118 -119 -120 120 -122 -123 123 -125 -126 -127
leaf_value=-0.0057135031975476249 0.019346556310098951 0.0013506575651897185 -0.0017584524122573656 -0.0034208031887528459 0.0022429213247534435 -0.0030897831268182018 -0.0086801289506050778 0.0015969341613003552 -0.0052888313145226223 -0.0045158009985416777 -0.0018252480657783882 -0.0027729843399472726 0.0038555465481035162 0.001702660997804098 -0.0028692420698973996 -0.0093044019235842667 -0.018553081413606717 0.0026591910329044031 -0.0059196677950127206 0.0020211829547338374 0.0029198144455324423 -0.0062916612421147159 0.00086098288762784193 0.00095201442259695054 -0.00026087549543181437 -0.0017100127965218809 -0.00023121883759054981 -0.0059454071567075148 -0.0037846247441323771 -0.00660405789520892 -0.00053985355018045943 0.0042721079283221811 -0.006283062751986649 0.0060198294905216077 0.0034304731521939964 -0.0050210956343641963 0.0023172725805997315 -0.0062458066913889457 -0.013175582840507322 -0.0014631900444934123 0.0017408215651082317 -0.00082697235674322289 -0.0037438986469732157 -0.001319504268199967 -0.0081357575174176907 -0.0056563812403061806 -0.0026945299795460734 -0.0044664223176049947 0.00023464026425823109 0.00060927968074791724 -0.00026694121248577228 -0.004625954836280202 -0.00039185945614941321 0.0017580938068566373 -0.0025604789191852662 -0.0012141867184637519 -0.0031168937597470269 0.00445723237327163 0.0038119948097732033 -0.0021733698784420609 0.00025842823785518455 -6.0216678843867364e-05 0.0093151792550390747 -0.002053876674289697 -0.0019429522232366464 -0.0061411213162232596 -0.0034978996994106913 -0.00025030422946444497 -0.0037041661431253844 -0.0044112961535827909 -0.0068291313426318513 -0.0043708362468539343 -0.0025292401414021655 -0.0049446058360891063 -0.0041642275022649132 -0.018517721113987626 -0.0029369518301765279 0.00026451954641981413 -0.0018816014765609596 -0.0044992654095176001 -0.00053352789117776256 -0.0058856914088287636 -0.0036555739723507508 -0.0022702166020259029 -0.00035528610178543849 -0.0049139178973087528 -0.0014352894617798539 -0.0045047215627681452 0.0025237215017032844 0.0014906428439933311 -0.0068831005998103191 -0.0070567022148415818 -0.009956665610840125 -0.00041331065770185702 -0.00022606547028173937 0.0026816953699448803 -0.0021232362813996338 -0.00044156398730889107 -0.0034107900324382365 -0.0069827735734172358 0.00032225988088430347 -0.0029315338085455496 -0.0058683698027690509 -0.009185712655884656 -0.0041444853437460957 -0.0056655985178354898 -0.0072560867053104708 0.00037106478641714836 -0.00094491193770910177 -0.0058458224627865431 -0.0042796662932566331 -0.0036337061650173435 -0.0044765431009724946 -0.0090925216648094116 -0.00094424333196248473 -0.0039134636239049024 -0.0085987794514874819 -0.00051437045168586308 -1.8232098574315236e-05 -0.0029975157768373311 5.2761655398394029e-05 -0.013259104452888689 -0.0034878559489010868 -0.0051131529463036016 -0.010206441182165387 -0.0081191839794608998
leaf_weight=12485.374912597123 218067.72581501817 47768.482151400087 37050.67557855037 13766.571327391364 71743.128049619758 3510.9366202326346 8411.2507402912161 9837.0926824538037 14606.022794075077 11918.231210661121 36638.44345895882 14893.415256686625 29953.330175524061 80547.156910156889 6712.2293233901291 2445.964025508787 65.83664896490518 63111.724637035775 94735.598850312817 99734.460490294645 16729.852525154365 8947.7280409793275 155641.46742998212 44534.180204768141 30754.237404305466 18667.775464064252 104871.82756236472 10036.171827092476 20642.790720648292 4761.5469525646331 4199.955956750051 2867.9246623745348 16750.801511064536 27339.460992926059 60467.826140559846 15346.826281191818 294.01598626398118 16969.498288427782 190.9451179143507 9833.6474292936946 6866.2010004353142 16622.565696322577 37209.855015785433 51411.236745580929 48109.400074499412 6147.9972908285454 10405.674974620135 1684.9318205949967 15123.806335705514 22125.705861136419 561.59756186406594 9025.0705958242615 31650.40166910665 27279.64263016995 62999.331258750899 65283.566838603467 35226.526410484112 19155.831123352124 10846.992151534872 7360.0743485695202 56246.659760001799 30286.335652596907 658.21003500651568 28382.553857371953 9655.5882147349912 2130.3992628405467 3778.4791358266884 59499.27307704687 23771.50417347654 4629.5023994478033 44445.537108383054 6249.6493987425365 41080.164795604112 49551.476481149039 15981.053947128443 131.632319266384 7454.2191296835808 40353.290274603933 7168.0910974928411 19794.72731693523 43231.271234398722 6984.8573175211277 64240.488052698587 8297.8380211828917 2180.3592247087508 10275.385025877669 47307.749186447669 31592.892033651067 27399.221856495613 113062.57304714652 27134.009850605988 5799.2458961705488 8891.8991343375747 41242.78864379022 1770.663178208486 117355.64922813728 8721.563917219697 5407.5755774661666 2335.8290905018221 62606.53026298339 86787.258479140219 43489.756088688126 4745.2153332878443 30444.333308076733 14910.449347648362 20912.825098902045 459.61780444532633 21151.232335629633 34597.482294533758 8018.7181675829852 9947.4569744149521 16821.731457255431 30661.793564983724 1222.0840468523675 3449.8441623118124 2387.176483050629 2660.6534467799356 40860.026091861007 7462.2782406692604 5432.0675168455346 3074.5971655707108 184.98633618047461 20920.571673989492 15594.018718867737 331.05487322720001 4137.3744695828645
leaf_count=218274 212392 327365 300504 189286 485042 51287 165566 56348 210425 168821 347033 189248 112458 489914 78755 47293 1541 368492 1481292 664367 81643 151737 1193154 260366 239477 221037 773427 154379 299565 81429 52178 16472 270358 86592 295880 240934 2288 264931 4471 96699 36140 168693 508580 640021 935478 103943 135935 21616 97367 199923 4456 127489 305589 144160 802453 658674 485009 70422 40844 82461 507828 289504 1792 355834 102336 37833 47880 544146 345746 71584 760274 89333 536414 763238 216552 3182 79469 283349 74317 284577 329320 94508 654148 97531 11056 161353 455565 473677 126886 959414 478530 108450 175973 386508 23013 653276 105009 43533 28380 1168653 559253 504894 79319 610050 224881 347024 5643 208000 363133 124086 112252 223131 457359 24842 43121 36069 50426 390838 47561 60399 22349 3559 259627 226695 5941 76531
internal_value=0 -0.00130282 -0.00423935 0.000719816 0.00154553 -0.0031753 -0.00595292 -0.000494052 -0.00218849 -0.00146846 0.000228392 -0.00427603 0.000579778 0.00114412 -0.00281967 -0.00183417 -0.000358347 0.0025317 -0.00502371 0.00289701 0.00203643 -0.00336029 -0.000116774 0.000723075 6.89341e-05 -0.00145042 -0.000164496 -0.00499928 -0.00474993 -0.00345343 -0.00629831 -0.000635014 -0.00552918 0.00359302 0.00419029 -0.00303321 -0.00757117 -0.00405431 0.000108057 0.000911764 0.00263023 -0.00278005 -0.00257668 -0.00216058 -0.00789784 -0.00358094 -0.00361294 -0.00159676 0.00164528 0.000382984 -0.00350962 -0.00562513 0.000649211 0.00129607 -0.00219872 -0.000608418 -0.00369502 0.00361721 0.00539306 -0.000114786 0.000453389 0.000803097 0.00208278 -0.00336414 -0.000573551 -0.00248885 -0.000677163 -0.000444437 -0.00280632 -0.00698682 -0.0063067 -0.00536869 -0.00185694 -0.0042977 -0.00269802 -0.00731587 -0.0011167 -0.000377368 -5.90222e-05 -0.00530585 0.000270982 -0.00415954 -0.00387449 -0.000312629 0.00308842 -0.00627477 -0.000972741 -0.00405654 0.00321952 0.00178275 -0.00678403 -0.00816246 -0.00881316 -0.000724576 -0.00345717 0.0023783 -0.00344415 0.000487189 -0.000814099 -0.00718407 3.76309e-05 -0.00308177 -0.00621557 -0.00854292 -0.0045768 -0.00503289 -0.000978242 -0.000647158 -0.000445449 -0.00468752 -0.00523325 -0.00450141 -0.00408006 -0.00465406 -0.00317657 -0.00577553 -0.00638623 -0.000671302 0.00137628 -0.00202525 -0.00189399 -0.00360493 -0.00448223 -0.00418235 -0.00293594 -0.00630953
internal_weight=0 3.23263e+06 1.31845e+06 1.91418e+06 1.13924e+06 813374 505079 774942 428915 329944 444997 384458 575576 327366 318928 124831 109988 563662 211667 378856 71338.4 172791 373659 255100 337020 113360 248210 317804 266636 194096 51168.2 188325 125683 161766 98654.3 144801 187275 140953 95805.8 41687.3 72266.3 130195 141619 104410 149572 10348 104189 66101.6 31853.7 258958 14181.9 11471 187292 34932.9 79621.9 170155 50573.4 29651.1 38186.5 122223 59114.6 78054.8 10495.3 94152.6 60872.9 82670.8 69990 63277.8 52154.1 40820.2 69216.7 24771.1 92491.4 116931 43370.4 36190.7 52335 57177 47521.4 36764.2 174553 90120.5 71225.3 71666.3 59532.9 37703.4 78062 41998.6 57352.6 184806 27428 19568 14691.1 49540.6 8020.31 217090 24702.6 12733.4 44880.8 71017.8 130019 45620.2 4876.85 78553.7 56466.1 35823.3 5867.19 63108.8 55748.7 49294.9 18895.2 101707 52155.5 31883.9 20271.6 5609.43 5047.83 43195.9 34741.9 8572.5 8506.66 3695.92 44533.3 36514.6 15224.5 16622.7
internal_count=33518927 33306535 18358719 14947816 7577446 9917840 8440879 7370370 4873792 3741319 3629051 5044048 4023539 1974569 3987512 1388161 886280 3553907 3188172 2109451 404271 1855876 3224780 1638853 2877747 1213379 2048970 4918961 4029527 2599351 889434 1887483 2014448 791808 423316 1907514 3521918 2015079 711040 275709 335716 1697089 1853836 1345256 2879747 156121 1465571 709589 179010 2182705 175240 174782 1498743 196192 971146 1432101 725943 128562 127436 1177894 524300 616869 58140 1311192 514848 843231 670781 592026 701580 733313 1142978 382704 1176435 1706880 542598 661729 520303 460002 357666 549508 1148939 1012645 748656 683962 250400 642171 695042 609612 239344 1444456 480818 366924 284423 484039 112346 1317643 321561 85316 440834 1334219 888573 542727 82501 1545528 871470 571905 49176 653594 571133 691837 263989 1511691 748453 482201 266252 90951 86495 419218 191721 84289 82748 54846 610408 486322 195189 294805
cat_boundaries=0 1 2 3 4 5 6
cat_threshold=2 10 4 8 2 8
is_linear=0
shrinkage=0.01


Tree=4
num_leaves=127
num_cat=10
split_feature=3 0 1 1 0 2 2 0 7 4 0 8 1 2 2 0 0 4 4 4 5 0 5 8 7 4 4 4 5 10 4 8 4 1 4 8 8 2 7 4 5 8 8 10 4 10 10 7 7 4 2 7 8 4 10 7 7 8 5 7 7 2 4 4 0 10 2 4 4 7 2 5 9 1 9 10 4 8 4 1 10 7 9 2 4 0 7 7 7 4 2 10 2 4 5 7 2 5 7 7 5 2 10 7 5 2 2 7 2 5 9 8 8 7 5 10 8 8 1 1 5 7 2 7 9 5
split_gain=789198 143685 48103.1 40936 9853.38 9106.29 5805.13 5384.39 4081.14 3487.87 2311.18 1625.08 1603.29 1595 2595.09 1299.93 1285.32 1113.74 1091.61 1463.41 877.759 1662.53 836.55 816.544 776.568 764.393 763.746 660.614 612.439 609.426 602.221 589.424 545.3 537.451 519.823 500.009 485.779 655.902 476.769 436.215 435.431 483.216 415.418 414.981 374.595 372.374 371.411 358.407 356.958 353.096 351.756 346.986 343.543 340.191 335.084 331.954 328.815 322.462 321.539 320.507 319.877 316.966 312.931 310.901 310.308 305.715 301.374 301.1 343.784 282.246 279.028 344.801 277.791 255.576 253.026 248.051 244.961 242.184 237.348 236.606 233.694 229.783 228.928 223.15 222.626 221.04 218.501 212.13 210.539 208.909 208.609 206.346 206.173 205.181 204.397 205.054 202.033 198.647 231.968 197.049 192.492 181.512 179.808 174.032 170.399 170.058 187.599 169.764 164.322 471.953 163.598 162.657 162.632 279.572 159.675 158.415 157.795 157.417 155.642 153.301 151.102 182.238 178.657 150.321 149.874 144.573
threshold=0 1 2.5000000000000004 2.5000000000000004 2 64.500000000000014 52.500000000000007 3 -0.0551494862884283 11.500000000000002 4 -1.8575717210769651 1.5000000000000002 173.50000000000003 155.50000000000003 5 6 4.5000000000000009 21.500000000000004 6.5000000000000009 -1.7127537727355955 7 -2.3448803424835201 1.4837464690208437 -0.0551494862884283 9.5000000000000018 10.500000000000002 14.500000000000002 3.921857595443726 0.23715877532958987 10.500000000000002 1.3192650675773623 13.500000000000002 1.5000000000000002 19.500000000000004 -0.11662954092025755 -1.0719789862632749 21.500000000000004 0.91315531730651867 13.500000000000002 0.31627905368804937 -2.4609681367874141 -1.6886375546455381 2.3935645818710332 3.5000000000000004 -2.0513637065887447 1.5039622187614443 -1.7136647701263426 -0.56812992691993702 13.500000000000002 152.50000000000003 -2.739209651947021 0.051031604409217841 19.500000000000004 -1.4615721702575681 0.15973787754774096 -1.5533930659294126 2.6882293224334721 -5.1274027824401847 -1.7136647701263426 -0.17724245786666867 153.50000000000003 17.500000000000004 13.500000000000002 8 -2.638857245445251 49.500000000000007 20.500000000000004 4.5000000000000009 -2.2608011960983272 195.50000000000003 0.5286507010459901 0.56380143761634838 1.5000000000000002 3.7819899320602421 -2.0989186763763423 20.500000000000004 -1.4720935821533201 4.5000000000000009 1.5000000000000002 -1.1863939762115476 1.4472519755363467 -2.1476609706878658 13.500000000000002 5.5000000000000009 9 -0.40895545482635492 -1.3194552659988401 2.6536802053451543 1.5000000000000002 14.500000000000002 2.2452824115753178 162.50000000000003 21.500000000000004 2.7844349145889287 -1.8166619539260862 50.500000000000007 1.0460824370384219 2.6804473400115971 2.4947530031204228 2.6415138244628911 19.500000000000004 -0.3260579109191894 -0.840350180864334 -2.467965722084045 99.500000000000014 148.50000000000003 1.2720864415168764 99.500000000000014 4.2150628566741952 -0.77837496995925892 0.52334150671958934 -0.99023729562759388 0.64906752109527599 -0.93341940641403187 -1.3947976827621458 2.0565483570098881 -0.32744061946868891 1.5000000000000002 1.5000000000000002 -3.3885371685028072 0.21931582689285281 52.500000000000007 0.04156691953539849 -2.0407017469406123 2.2708259820938115
decision_type=9 1 2 2 1 2 2 1 2 2 1 2 2 2 2 1 1 2 2 2 2 1 2 2 2 2 2 2 2 2 2 2 2 2 2 2 2 2 2 2 2 2 2 2 2 2 2 2 2 2 2 2 2 2 2 2 2 2 2 2 2 2 2 2 1 2 2 2 2 2 2 2 2 2 2 2 2 2 2 2 2 2 2 2 2 1 2 2 2 2 2 2 2 2 2 2 2 2 2 2 2 2 2 2 2 2 2 2 2 2 2 2 2 2 2 2 2 2 2 2 2 2 2 2 2 2
left_child=1 3 5 4 9 6 20 13 15 17 26 38 25 14 22 29 23 73 19 -13 36 30 31 49 43 69 90 33 32 39 -22 56 89 81 44 46 64 58 50 -5 -14 -42 114 61 -23 88 94 116 -20 104 100 80 -18 78 -26 -28 -7 -33 85 92 -29 75 -44 -47 65 77 -46 68 -24 -9 71 102 123 120 -74 -12 84 -3 -16 93 -27 -21 -49 -62 -40 -38 -67 -30 -25 -8 -4 107 -37 -11 95 -17 -36 98 -54 -53 124 -60 -61 -91 -10 -84 -107 -92 -77 -110 -73 -89 -39 -114 -15 -57 -31 -51 -19 -32 -1 -122 -123 -34 -6 -65
right_child=-2 2 10 8 11 7 28 12 16 79 24 18 40 42 53 35 52 118 48 27 21 34 67 45 54 51 55 60 87 47 119 57 72 -35 96 59 37 112 76 -41 41 -43 62 -45 66 63 -48 82 -50 117 -52 99 97 -55 -56 115 -58 -59 101 70 83 -63 -64 125 -66 86 -68 -69 -70 -71 -72 110 74 -75 -76 108 -78 -79 -80 -81 -82 -83 105 -85 -86 -87 -88 111 -90 103 91 -93 -94 -95 -96 -97 -98 -99 -100 -101 -102 -103 -104 -105 -106 106 -108 -109 109 -111 -112 -113 113 -115 -116 -117 -118 -119 -120 -121 121 122 -124 -125 -126 -127
leaf_value=0.0010617224246857887 0.019143289055400116 -0.0066848820572743203 -0.0034342383926141517 0.004637826335308912 -0.0047924839455879102 -0.0036425723182335807 -0.0087251678916976435 -0.0030124577971998522 0.00011470664282284355 0.0011266865476742174 0.002180125995642069 -0.0023304884111067263 -0.007935159093287722 -0.0049776504473745247 -0.0028142294361143626 0.0022610521704638968 -0.00025380494153437022 -0.00077832924524510701 -0.0014184048971553785 0.00017876992361153804 -0.004859247544756252 -0.0056578599508037095 -0.0046506494816594421 0.0061594628794815276 0.0010587705430248925 -0.007016935831788672 -0.0013866853365257881 -0.00063029923196238752 -0.0028562014404691668 0.0043390322715497007 -0.0062967957807812296 -0.0023460152048651443 -0.0080642454425751079 -0.0022148809149472658 -0.0061249994767745928 0.0047354663520406204 -0.0035728054926439708 -0.0033440965738019998 -0.0052137209075101346 0.0059282123259653298 -0.01816681817175481 -0.0050371776192851816 -0.0039547399251492468 -0.0043529219466558093 -0.0040085367349049651 0.0026066702837209844 -0.0045651364558105577 0.0043136183109760695 -0.0027981600294743887 0.0017006122187378024 0.00010413710925494864 -0.0055068297124049219 0.0014763296393532019 -0.0024140552336391718 -0.00067903671350203756 -0.0016222840778204839 -0.0054658941431085595 -0.0044473949174571219 -0.0036578455427491142 0.0029120633729757392 -0.0041773567020106294 0.0022707743523588926 -0.005788725170631657 0.0047570079944300242 -0.0059489713929649045 -0.0046070155339749909 -0.0026619304081813748 -0.0040069054000963647 -0.002388270425578595 -0.0044494499280149716 0.0077435840243895229 0.004680767306532314 -0.0072487051403261364 -0.00089049977482555528 -0.011400909182232674 0.0011706671271059157 -0.0048684104348912516 0.00046782527523934304 -0.00054512631261576395 0.00018733408526102203 -0.0033683974613370384 -0.00070568535002170092 0.0028331118696563831 -0.001334750885716045 -0.0026020613777749781 -0.0091827407974318619 -0.0090763191218874682 -0.0069055397271063149 -0.00058681780804984329 -0.0057979106215233223 -2.2397151186768849e-05 -0.0046693165813723727 0.0019933203502852655 0.00059836658322245809 0.0032637898515553284 -0.0011593859526808357 -0.0043501923931159011 0.002470268882265383 -0.00066781681051575315 -0.0073985186947794473 -0.00057636914875038026 -0.00037675711866037479 0.001032574747798654 -0.0072086120024759462 0.0018357804478226329 -0.0014154999347723229 0.002887016988919704 -0.0013070312117483929 0.00012023277526127642 -0.012054345341024151 0.0019048464243102065 -0.0051809600233735419 -0.0057123256193012143 -0.0077327839791411735 -0.0093693013661018641 -0.0033750533692503593 0.0076586243723828678 0.0033537652239511756 -0.0017669219026020175 -0.0079252968290693358 0.00040643195151440255 0.00048946813275663951 -0.00046206163177428105 -0.0092688258988020775 -0.002295509158720743 0.0025341077970107862
leaf_weight=20492.428759212431 202407.62448868807 1751.1392898521153 2251.883350451506 53456.106626681736 2591.4013574120472 13900.884971597232 7482.4144228637815 17752.559040012638 7743.1032848911491 367327.79362410936 12469.603280262323 57595.226830879867 24722.554723260168 1210.9467516805162 5135.7602102869132 4481.7616794285141 13216.396776814312 158955.34224997836 35604.618608167635 127353.00964341813 39384.845083511602 7118.5188967987051 7430.3413422501471 8186.1577456527739 14988.5540119129 2075.2790600425506 40429.158188304151 108736.90782397134 1775.8862952998934 5847.2933655547085 41916.984390867088 18603.756789576943 15886.858096744589 12022.886736575048 11240.272924567042 27927.744291040872 1284.643089274934 1803.5092672168539 3708.452859462941 51682.164054492576 288.75389799301047 9421.1395772501128 25788.74386672828 1284.0353747559711 29344.030673830785 20014.732044510602 879.63122862222372 4595.5000484160591 39720.161725081438 7805.7763391799708 7827.9139982282431 92595.795768118231 33855.502715060546 16980.453973617652 42688.908515080097 7355.2104460706068 34727.403557439204 12064.824155248531 12039.728152693755 11670.11209643754 2846.5458064098348 26532.605568304491 14636.104510695692 16708.573077475587 13992.644544941912 1220.1781873063301 38546.734848071632 18999.822535768966 71105.369851377269 60320.954804773457 1236.2421737588011 10962.760260995827 22004.162453560995 21787.723329198197 1585.2839714724105 22206.202574533345 8029.2283422940527 644.94876871473389 45228.809048752461 36814.025322201953 11665.071124806971 38178.504329473479 5093.0498319990547 95835.323399128771 27867.834049733105 1700.6930821775441 11760.133007814213 20177.014703611265 487.27402577665634 10914.977373295282 53579.054980614994 1082.5919810619671 3057.2535000813077 92019.460926189262 7611.4205173351784 2872.8441496817404 15157.188802355835 16244.545215945713 5921.7937014359632 5899.1580016506487 6293.6522663029609 1968.9063883298568 9067.388307801808 46452.456232843368 22522.481968047385 2791.3507421927061 1589.3375322053907 12735.273497861621 20031.335867943344 322.54610306257382 2651.8922239982276 7609.4347144526473 18843.153646305254 10860.891043537529 2731.3783282533986 17481.907761335311 1915.9251157390399 22330.706072798857 17720.837140117219 6792.1632843726911 129955.45981663567 28337.908379589309 64929.407983264929 31277.094616903625 34802.319714692632 3577.5454185020062
leaf_count=152774 212392 35881 31075 174774 40269 204497 165983 261822 40332 2328849 54096 674203 516167 20519 61715 17585 90617 1300444 352995 1187932 678755 121434 113503 25576 118227 37387 398091 1009701 26163 19663 770201 252842 336289 141293 195759 93843 20492 29234 59772 156957 10780 160295 407309 19638 461959 76619 6296 15257 502429 33504 74083 1605489 169005 201321 393897 86238 601885 178480 195095 44494 42397 118449 250269 57020 265166 21168 559211 286223 979622 998180 3653 36219 459411 209177 40460 128802 126819 10039 496237 316899 177541 434106 18503 1119859 391841 34102 256578 392039 2071 206870 466276 16253 12130 591188 27875 14042 238721 70070 36287 112965 77595 25263 39442 967947 90662 14119 6015 143928 110233 2824 10633 132205 337121 208263 61387 225966 5263 84583 187202 138914 875965 198440 582316 717568 462885 13274
internal_value=0 -0.00122593 -0.00391169 0.000468875 -0.000259391 -0.00498272 -0.00605167 -0.00408191 0.00337322 0.000383484 -0.000234 -0.0012499 -0.00524268 -0.00317747 -0.00286054 0.0043205 0.00226265 -0.000262315 -0.00103321 -0.000843765 -0.00514098 -0.00477336 -0.00349677 0.00293764 0.000663493 -0.00488342 -0.00116884 -0.000621308 -0.00752581 0.00495598 -0.00577938 -0.00425987 -0.00781051 -0.000173507 -0.0038983 0.00334034 -0.00603539 -0.00541958 -0.0024815 0.00527228 -0.00722931 -0.00543049 -0.00492211 0.00128382 -0.00347343 0.00389773 0.00174289 0.00343442 -0.00214614 0.00215946 -0.00184676 -0.00541235 0.0011956 -0.00118977 -0.000227251 -0.00194621 -0.00494497 -0.00317313 -0.00383422 0.00372088 -0.00100458 0.00137274 -0.00461912 0.00349241 -0.0070518 -0.00804518 -0.00324416 -0.00287622 -0.0026025 -0.00412287 0.00307237 0.00290375 -0.00841868 0.000147053 -0.00752864 0.000939533 -0.0033068 -0.00475604 -0.00077676 0.000959047 -0.00392065 -2.51651e-05 0.002481 -0.00141689 -0.00290926 -0.00681675 -0.00865735 -0.00621935 0.00577928 -0.00714669 -0.000440393 -0.000340165 0.0044653 0.00102087 0.0021146 0.000923631 -0.0051065 0.00153792 0.00115686 -0.0056203 -0.00219654 -0.00319746 0.00209084 -0.00694049 0.00139581 0.00159063 0.000143497 -0.00026927 0.000575776 -7.27881e-05 0.00414098 -0.00643382 -0.0062742 -0.00645165 -0.00802448 -0.00285648 0.00516046 0.00292598 -0.000877552 -0.00652424 0.000239852 0.000164353 -0.000172844 -0.00886346 -0.00246894 0.00436563
internal_weight=0 3.15662e+06 1.22126e+06 1.93536e+06 1.54735e+06 945823 432537 513286 388004 938340 275439 609014 224741 288545 244177 209390 178615 442179 517893 442568 267371 189501 176832 109376 140524 190309 134915 384973 165166 126971 88094 79296.9 135603 177554 101407 82419.1 77870.6 48501.5 91120.8 105138 34432.4 9709.89 44367.2 82846.3 75009.3 48974.3 15845.7 21832.5 75324.8 60402.1 51515.3 112235 69238.2 67345 57677.5 65266.3 48628.3 30668.6 16994 66573.4 207419 81562.3 40424.8 40300.9 29369 15376.4 67890.8 97535.5 78535.7 78073.5 35588.4 34352.2 70753.4 265503 23589.4 55029.7 39605.5 2396.09 50364.6 496161 13740.4 165532 14069.2 98681.9 31576.3 2985.34 12980.3 29562.3 8673.43 64849.8 69648.8 67396.9 30985 459347 14966 7354.61 26397.5 56021.8 39777.3 98495 43687.4 14008.6 20737.5 57367.4 30265.6 9473.74 4380.69 66314.3 42560.1 20353.9 13614.7 27786.4 31507.6 29704 3942.33 24837.1 7763.22 30136.5 176676 48709.1 243715 223223 93267.3 47164 37393.7 20286.1
internal_count=33518927 33306535 18358719 14947816 13441433 16044726 8048291 7996435 1506383 6743254 2313993 6698179 3880626 4115809 3376325 716763 789620 3506318 5464915 4609491 4603356 3164954 2617052 423641 946166 3193384 1367827 3935288 3444935 410551 1587870 1237704 2894528 1763331 1577084 306212 1438402 849570 1233264 331731 687242 171075 739484 434042 1142604 174560 65798 78820 855424 249081 654832 1933382 365979 759273 512124 710295 806382 431322 274952 240414 2171957 414404 657578 146913 588832 323666 1021170 1379348 1093125 1260002 134441 130788 1553728 2018672 499871 295955 578432 45920 557952 3236936 214928 1622038 53894 1162256 451613 54594 277746 550407 27647 1340800 657532 626457 105973 2920037 59502 31627 434480 275362 205292 1718454 580749 220358 83936 1174817 130994 38637 20134 610204 241859 113057 46852 524244 574618 545384 81906 312204 24926 118087 1487646 909115 1809495 1656721 780756 1053857 503154 70294
cat_boundaries=0 1 2 3 4 5 6 7 8 9 10
cat_threshold=2 5 4 2 8 4 4 8 2 8
is_linear=0
shrinkage=0.01


Tree=5
num_leaves=127
num_cat=8
split_feature=3 0 2 0 2 10 2 2 10 0 2 10 5 10 6 4 2 2 5 2 7 7 10 8 0 5 8 4 8 8 5 8 6 4 6 11 5 0 6 2 11 2 6 4 2 4 4 4 5 8 10 2 2 4 2 4 11 0 2 4 8 10 10 11 2 0 2 5 4 6 2 4 2 5 5 10 4 8 8 2 5 8 10 2 2 4 8 10 11 11 2 7 5 6 5 10 7 7 10 8 4 7 5 10 11 10 11 10 4 4 5 11 2 5 4 10 4 7 8 2 2 2 4 5 5 6
split_gain=727716 124051 20297.6 10240.1 6028.95 5138.79 4722.63 4662.08 3562.63 3175.77 2400.97 2055.13 1802.04 1686.69 1446.86 1439.64 1184.97 1685.35 1176.35 1170.77 1127.56 904.301 843.81 836.297 800.922 1530.22 931.616 819.813 770.099 735.576 801.401 727.772 701.748 684.139 675.184 668.513 664.115 656.186 642.331 601.606 601.301 575.959 554.125 526.626 499.497 476.357 469.631 603.309 468.388 451.451 447.416 445.474 914.585 438.129 429.98 426.603 423.261 420.786 434.801 416.176 413.634 411.303 401.921 374.096 364.587 364.442 371.158 436.048 361.417 361.116 354.482 350.01 384.326 347.292 325.07 322.556 315.466 304.236 303.187 486.867 345.193 300.937 300.151 294.18 302.014 290.985 286.801 276.097 410.194 273.338 325.334 272.041 269.116 336.562 267.839 266.445 262.582 260.291 258.617 251.312 248.393 247.745 247.712 245.68 244.443 253.262 243.979 241.361 240.844 240.207 238.609 236.378 234.709 259.043 232.158 230.911 218.608 217.343 216.916 216.881 214.285 224.453 212.885 211.394 208.745 207.78
threshold=0 1 58.500000000000007 2 52.500000000000007 -0.17253683507442472 58.500000000000007 73.500000000000014 -1.2480642795562742 3 51.500000000000007 -1.6832227706909177 -1.2381008267402647 -0.81663286685943592 -0.7783185839653014 11.500000000000002 149.50000000000003 98.000000000000014 -3.6826902627944942 131.50000000000003 -1.3194552659988401 0.06146026402711869 -0.45293220877647394 1.5195396542549136 4 -1.7328894734382627 -1.0719789862632749 12.500000000000002 -0.46581155061721796 -1.0719789862632749 1.2703939080238345 -1.5351376533508299 -3.754559993743896 9.5000000000000018 4.3277947902679452 0.82552099227905285 1.90855348110199 5 4.5394978523254403 16.500000000000004 0.22300069034099582 174.50000000000003 -3.1253224611282344 2.5000000000000004 198.00000000000003 19.500000000000004 19.500000000000004 2.5000000000000004 -1.3183230757713316 1.1721911430358889 -2.2883344888687129 98.000000000000014 136.50000000000003 18.500000000000004 125.50000000000001 6.5000000000000009 0.36004075407981878 6 174.50000000000003 20.500000000000004 -0.13514269888401029 0.3809946477413178 1.3831810355186465 1.7535015344619753 192.50000000000003 7 192.50000000000003 1.3502840995788576 13.500000000000002 -2.6297556161880489 190.50000000000003 14.500000000000002 172.50000000000003 2.4928358793258671 -2.9950733184814449 0.31357510387897497 4.5000000000000009 -1.1497874855995176 -0.7735028564929961 21.500000000000004 -4.0779082775115958 -1.49836790561676 0.19628056883811953 113.50000000000001 64.500000000000014 4.5000000000000009 -1.588916480541229 0.70660066604614269 -0.64383581280708302 0.28874585032463079 75.000000000000014 2.7661798000335698 -2.6383957862853999 -2.8559747934341426 -1.9988580346107481 -1.3947976827621458 2.5342736244201665 -3.6568696498870845 -0.060880914330482476 0.11268647015094758 17.500000000000004 -2.3360747098922725 -1.6453513503074644 -1.3537477850913999 -1.5077706575393675 0.66210955381393444 0.97627210617065441 -2.638857245445251 14.500000000000002 7.5000000000000009 -1.366591155529022 1.2598178386688235 70.500000000000014 0.46711263060569769 12.500000000000002 -2.0989186763763423 21.500000000000004 0.93201255798339855 -1.5646873712539671 148.50000000000003 106.50000000000001 121.50000000000001 13.500000000000002 -2.8620247840881343 -2.9508804082870479 -2.2488816976547237
decision_type=9 1 2 1 2 2 2 2 2 1 2 2 2 2 2 2 2 2 2 2 2 2 2 2 1 2 2 2 2 2 2 2 2 2 2 2 2 1 2 2 2 2 2 2 2 2 2 2 2 2 2 2 2 2 2 2 2 1 2 2 2 2 2 2 2 1 2 2 2 2 2 2 2 2 2 2 2 2 2 2 2 2 2 2 2 2 2 2 2 2 2 2 2 2 2 2 2 2 2 2 2 2 2 2 2 2 2 2 2 2 2 2 2 2 2 2 2 2 2 2 2 2 2 2 2 2
left_child=1 3 4 7 24 11 10 15 16 12 32 29 31 18 56 43 17 89 86 21 38 28 60 65 27 26 107 98 48 30 117 87 -5 75 41 55 53 -31 57 50 92 51 -19 -1 70 76 47 -12 -10 -17 -28 -20 -53 101 120 -15 83 114 100 85 -21 -51 78 -30 -16 109 67 -67 119 -43 112 -57 102 97 -64 -11 -33 -18 80 -80 -34 -45 -35 84 -14 -27 -8 -7 -89 90 -9 -78 -25 -94 -42 -29 122 -39 -3 -44 -59 -6 -73 -103 -38 -106 -84 -26 -49 -22 -60 -70 -37 -114 -13 -99 -81 -4 -85 -24 124 -122 -79 -74 -23 -121
right_child=-2 2 5 6 36 9 13 8 19 33 46 20 14 35 64 49 77 42 34 22 23 54 68 40 25 59 39 95 63 37 -32 45 62 82 -36 44 104 73 -40 -41 94 69 99 81 -46 -47 -48 108 -50 61 -52 52 -54 -55 -56 71 -58 58 110 -61 -62 -63 74 -65 -66 66 -68 -69 111 -71 -72 72 123 -75 -76 -77 91 96 79 116 -82 -83 106 118 -86 -87 -88 88 -90 -91 -92 -93 93 -95 -96 -97 -98 115 -100 -101 -102 103 -104 -105 105 -107 -108 -109 -110 -111 -112 -113 113 -115 -116 -117 -118 -119 -120 125 121 -123 -124 -125 -126 -127
leaf_value=0.0004930683956244549 0.018945027895352264 -0.0037817782703960258 -0.0050331202973965686 -0.0025335661747889824 -0.0049268314230705313 -0.0030740084677062592 -0.0081695136288193037 0.0047039212979354868 -0.00183459023492703 -0.0027144931991018935 -0.0043499857228065045 -0.0014021122165561023 -0.011551695346888427 -0.001845407539813235 -0.002931807871591809 0.0006332380072187582 0.00067326658631511056 0.0014716023739577205 0.00069690479560832286 0.00065031657774285297 -0.0031097891657710418 -0.00028595073408965488 -0.0010888817096492466 -0.0015211618264258119 -0.0046829864037857671 -0.0049177549979160223 -0.0084958061933313525 -0.0046009899286442169 0.0043763910244410346 -0.0013399948544814064 -0.00061027669055641997 -0.0046333289026222833 -0.0047947853503885361 -0.0040226133876734137 -0.00071838030852636094 0.0042208073447422365 -0.0018321733702544147 -0.0051415986717423456 -0.0030788844883309265 -0.0054960384021459988 -9.0068414016434135e-06 0.0021317792227693367 0.0038486805375939261 -0.0011594213849721428 0.0079124414358701309 -0.0042848515402590789 -0.0034714204492697714 -0.0013830844456955327 0.0025009485533791314 0.001964511241656999 -0.0015813218487346294 0.0040050294168613347 0.0015499392965877812 -0.0085367222132920768 0.0043584791561620548 0.0001256582557609098 0.00082582631008661122 7.1970232806990974e-05 -0.0020354758796327648 -0.0046657290438916 0.0022131487945710117 0.00065058187014299543 -0.0059268380017184928 0.0011285538017237159 -0.0067671978045484695 -0.0031258844712863105 -0.0055600673058989192 -0.00074502603332434684 0.00079248694735473027 -0.00095207675877098739 -0.0028456897281001455 -0.00095232758982159444 0.00019057034710005802 0.0015781067745749373 -0.0012379715260316898 -0.0042464679339980615 -0.0024428784296659178 0.0020600836229713411 0.0010178905903689582 -0.00023577501512316663 -0.00085731035248749862 -0.00019007529767116829 -0.0056404674625378324 0.00098563070497071823 0.0015324354796648295 -0.0029002979693239679 -0.0015779275653651386 -0.0042271925711451488 -0.0087322478116140228 0.0026750544013812104 -0.00088355128428318846 -0.0050913134620418537 0.0040418761736419409 -0.0040075233088643185 -0.0025284338412789398 -0.0063045327796758897 -0.0012122205801940551 0.000682549100171203 -0.0049827556758058446 0.0060088754548438305 -0.0014000181413122983 -0.0058819537899614206 6.3528840660269823e-05 -0.0074441252736572429 -0.0066553115617913432 -0.005184986027802564 -0.0039710562499669548 -0.0082376762090615001 -0.0024321201285067658 -0.0046984567576034073 -0.0069539064415273877 0.0022829407146460175 0.00021000590282147202 0.0018374024021323302 -0.0028302478245454277 -0.00099438282746272294 -0.0017700945194900164 -0.010166515898164896 -0.0020780688591225597 0.001179711742255231 -0.0042979888980712094 0.00030998633567309907 0.0032120183804261204 -0.0024009423828264174 0.0015742658993919735 4.0107511593336319e-05
leaf_weight=103594.27160999924 190887.70774418209 35394.826301973553 3743.2641902301693 18710.567930081801 5184.3044161843136 2689.5003842050646 700.90810208098264 1249.2133249723993 3964.9381206075777 19001.759966476093 10778.082978374514 27586.664657219262 182.12373767222743 22924.174681088247 20077.995597569588 254893.80358454926 10112.980721910892 3514.1236659214555 25643.581240908708 24075.318138077942 14385.91042898759 7536.2983218033223 12791.509629233216 8660.3939853335287 2287.2106570561882 7887.1832968621457 1062.925338006753 11418.501507825298 29048.511419137365 39602.606513261933 5607.9758481106255 8360.4115163671522 2536.5152570379432 19466.387956188875 14816.297505193623 1806.1171551332809 1343.4709412594093 1029.6126208050409 25289.624394713872 21725.969122182269 16550.368178100936 5308.480245540326 6570.9110945001594 40189.861776021426 922.24729918583762 28407.929059880276 34344.552605286881 49903.475459007517 6696.5354070873 58564.990411352483 7849.4822120159224 20885.172289245274 55586.219315020157 26409.066697833419 4012.1131176818162 76144.596270703914 18823.084745674998 32942.335673048656 2900.0299112159992 20687.958700286734 57274.035564193066 40211.120559972682 1548.8447374628158 4050.3695104349754 2833.5258095340141 39796.60706560401 4874.69515142194 9551.0250317164391 90420.233745690522 13328.172010782466 3008.9179467197973 50831.964715675102 3810.3062981243129 16331.07605251309 32830.803347165041 50169.651016873206 72317.350155874839 31813.148145084204 31877.276883941406 65459.00598368849 18289.035838738186 157875.18548139383 65805.397755398153 2650.1656890993472 4730.3488317347728 78363.760230834712 11363.585570557509 3594.6125220668619 4661.3242404807825 8368.1155910345842 6257.2439769419143 4106.5152119134436 536.22299955756171 14883.017301779419 5666.2312379623181 48268.701913817269 1812.6165590666933 19075.447874543355 36643.176947443186 30805.565316907036 17571.937419197224 12073.782935514959 45447.093191397318 63573.303999296215 35247.006924687623 17713.759701406409 10162.519073772928 12204.292073906956 39095.310487778726 28469.232072572282 1501.8593163262121 12070.659429757507 45509.371331240676 12464.672864112203 19439.390259314561 14415.24695492518 10825.542038857529 1066.8864007039811 17812.564878640231 20779.602321946208 1448.5772938837181 3891.4344310432207 32546.090964621057 17904.244233161997 30048.829290634549 69621.00313045131
leaf_count=768378 212156 601128 60624 234681 100311 42179 11512 4377 33505 280573 168597 320369 3861 250871 281826 1787266 63209 18867 195581 146993 216759 54230 108315 100525 45749 136032 22111 206823 114638 447452 57975 133492 39791 317209 139845 7244 19931 13436 375014 398908 165704 35468 25815 433078 2990 439950 508532 639400 35698 290961 105730 82056 366067 631384 20130 672280 155372 301845 32158 346028 285354 216821 21033 21192 58498 589799 87780 81810 518318 123462 36764 509766 32188 104394 349134 836565 1000050 162143 264228 651612 207142 1284275 1217910 26191 36046 1172746 113198 64535 96993 37311 40286 69869 3368 211631 66475 938668 11820 141340 664089 98551 176252 252153 391210 1438021 733585 346084 164250 280252 536087 476961 27617 57477 371774 81752 266658 137237 121465 25050 203269 122635 13957 25414 139702 203661 156989 481639
internal_value=0 -0.00117527 -0.00373558 0.000396099 -0.00541698 -0.00270611 -0.000520024 0.000981086 0.0016973 -0.00356495 -0.00144703 -0.00188336 -0.00268785 0.000164146 -0.0013675 0.000422851 0.00310453 0.00419877 0.00102948 0.00120159 -0.00233749 0.00219206 0.000888572 -0.00294567 -0.00453899 -0.00404259 -0.0055874 -0.00511125 0.00322633 -0.000664964 -0.00318117 -0.00340176 -0.00069906 -0.00458349 0.00129581 -0.000290818 -0.00695928 -0.000375014 -0.00165206 -0.00459818 -0.00183921 0.00154304 0.00527245 -8.46215e-05 0.00060976 -0.00316341 -0.00246235 -0.00211488 0.000887629 0.000855722 -0.00240795 0.00183809 0.00222063 -0.00741608 0.00122754 -0.000555199 -0.000310055 -0.00129797 -0.000702698 -0.0033909 0.00175077 0.00142973 -0.000488877 0.0039793 -0.00340685 -0.00347322 -0.00292529 -0.00266531 0.000547512 -7.30647e-05 0.000502215 -0.000402789 -0.000743894 0.000376508 -0.00144967 -0.00382582 -0.0027875 0.0022901 -0.000232706 -1.98704e-05 -0.00133758 -0.000386823 -0.00513299 -0.00115303 0.00104307 -0.00308495 -0.00196235 -0.00586515 -0.00677272 0.00143234 4.54782e-05 -0.00258538 -0.00293398 -0.0037267 -0.000652109 -0.00597889 0.00253704 -0.000191582 -0.00439287 0.00562949 -0.000439896 -0.00704972 -0.000472708 -0.00719501 -0.00605688 -0.00616383 -0.00541733 -0.00767769 -0.00184404 -0.00416451 -0.00371704 0.00096814 0.000670937 0.000560101 -0.0019923 -3.89546e-05 -0.000453662 -0.00617566 -0.00168077 0.00012964 0.000934569 -0.000938711 0.00264281 -0.00194575 0.001201 0.000302179
internal_weight=0 3.08338e+06 1.17267e+06 1.91071e+06 445339 727331 744605 1.16611e+06 510780 355853 316199 371478 191247 428406 67109.8 655329 133050 56765.2 147632 377730 270606 90697.6 287032 143374 283794 152069 45129.9 131725 43760.4 100872 10418.1 124138 182078 164606 135568 280774 161545 90454 127232 30638.4 46296.2 120752 40890.6 301659 63711.3 113192 134121 99776.9 10661.5 353670 8912.41 102115 76471.4 107240 46937.3 217062 44198.3 101942 54916.2 106939 81349.4 98776.1 163367 33098.9 22911.5 97077.5 54222.3 49347.6 205683 18636.7 62789.1 194138 117994 50851.4 34379.6 69171.4 84784.3 76284.8 128987 108162 20825.6 198065 95434.3 25375.2 4912.47 86250.9 12064.5 10945.4 8255.94 15874.6 7506.46 76423.9 24079.6 15419.2 22216.6 59687.2 66171.9 34520.3 72038 37376.5 50514.3 80831.4 96279.1 75647.1 54304.2 52960.8 75967.9 14491.5 88998.8 42855.1 4401.89 102491 59780.2 57974 47026.1 33490.7 76284.5 4810.15 20462.7 103192 42925.1 5340.01 64359.2 21714.6 37585.1 90400.6
internal_count=33517495 33305339 18356604 14948735 8439733 9916871 7369391 7579344 2798565 5428638 3741702 4488233 2612131 3627689 765063 4780779 602081 225207 1067189 2196484 3500725 475753 1720731 2000812 4918264 2507556 852750 2410708 205033 987508 143649 1847068 1889086 2816507 942479 2560500 3521469 843859 1499913 526749 547703 802634 143233 2485731 500524 1643361 1852616 1344084 69203 2295048 127841 643704 448123 2421869 270720 2059976 424739 1124899 537872 1654806 432347 507782 1654405 135830 340324 1453109 759389 671609 1288384 158930 497534 1809105 1136825 396407 370167 1117138 1203411 376874 1284238 1037305 246933 1717353 1699369 269367 39907 1308778 124710 203707 161528 81974 44663 1069919 315524 214999 232179 1145491 313665 292013 1265217 124366 478097 1790485 900976 1690174 1099600 1079669 1382160 326001 1175487 693720 59775 575795 460770 453526 587027 278577 773077 85674 229460 712589 250590 39371 301845 235849 211219 604274
cat_boundaries=0 1 2 3 4 5 6 7 8
cat_threshold=2 5 4 2 8 8 8 8
is_linear=0
shrinkage=0.01


Tree=6
num_leaves=127
num_cat=10
split_feature=3 0 1 1 2 0 2 7 0 0 0 1 7 7 8 0 5 8 2 5 5 0 1 7 2 7 9 7 7 6 7 2 5 8 2 2 8 2 5 2 7 8 5 8 8 8 11 7 5 8 2 1 6 1 9 8 8 5 9 11 7 7 5 5 7 5 9 7 5 6 8 8 5 9 0 9 5 8 5 5 8 9 8 2 9 11 11 7 6 6 2 6 7 8 6 5 2 2 11 8 8 9 7 8 11 2 5 0 9 5 7 9 5 7 9 8 2 6 11 11 6 7 5 6 5 6
split_gain=677878 105970 44318 43354.1 7030.5 6379.05 4593.7 4443.69 4411.61 1675.03 1487 1444.77 1390.09 1308.56 1089.36 1058.27 896.598 888.979 824.454 705.319 678.382 1270.07 668.625 606.68 540.736 537.508 511.366 464.34 451.382 449.998 438.442 419.424 404.18 397.996 388.847 478.047 367.458 551.564 355.655 402.701 354.408 351.356 351.096 415.104 350.702 343.112 315.657 306.611 297.241 292.522 288.411 283.536 280.281 274.676 277.162 274.337 269.854 314.509 282.056 368.02 269.566 261.246 253.938 247.376 246.609 245.653 266.689 244.479 242.962 232.312 231.049 229.716 223.467 219.164 217.955 230.266 244.266 216.391 215.88 212.632 346.882 223.164 208.773 208.723 205.502 327.916 203.97 202.099 260.79 244.144 209.573 400.343 262.019 189.197 188.806 223.282 188.077 359.338 314.523 187.337 185.772 180.988 178.739 214.951 176.92 176.435 173.472 173.135 172.838 171.372 235.882 270.703 230.692 224.656 194.345 170.396 169.924 169.644 169.4 281.883 225.161 168.648 303.941 234.175 234.685 204.128
threshold=0 1 2.5000000000000004 2.5000000000000004 64.500000000000014 2 52.500000000000007 0.06146026402711869 3 4 5 1.5000000000000002 -0.56812992691993702 -0.8925931155681609 -1.6165799498558042 6 -1.2381008267402647 2.8830252885818486 174.50000000000003 -3.3885371685028072 -1.7328894734382627 7 1.5000000000000002 0.14004897326231006 145.00000000000003 -2.2074370384216304 -0.50180464982986439 -1.3968862295150755 -1.6715179085731504 -1.4352290630340574 0.73601615428924572 50.500000000000007 -3.234428763389587 0.62925586104393016 152.50000000000003 181.50000000000003 -1.0719789862632749 21.500000000000004 0.42649480700492864 198.00000000000003 1.2314585447311404 -2.662755966186523 1.0460824370384219 -2.4609681367874141 0.78192946314811718 2.6484661102294926 -0.50584739446640004 -0.840350180864334 4.5003130435943612 -0.10519462823867796 13.500000000000002 1.5000000000000002 -2.9022294282913204 1.5000000000000002 -3.1031844615936275 2.8830252885818486 -1.5351376533508299 -1.9988580346107481 1.7509351372718813 -0.32514458894729609 2.7661798000335698 1.0967282652854922 -5.1274027824401847 -2.0183036327362056 3.0978435277938847 -4.6383423805236808 -0.90504097938537587 -1.4795730113983152 -1.3183230757713316 -3.1002178192138667 -0.21286855638027188 -2.662755966186523 -1.9988580346107481 4.1064999103546151 8 1.4766334295272829 -4.3811693191528311 -4.5205924510955802 3.5052968263626103 -3.5056645870208736 -1.9412120580673216 -1.5968803167343137 0.051031604409217841 162.50000000000003 0.96711349487304699 1.221286475658417 -2.0631282329559322 1.5974925160408022 4.1810121536254892 4.1137521266937265 184.50000000000003 -2.5305157899856563 -3.3655115365982051 -1.2716265320777891 -2.1411790847778316 0.64943575859069835 52.500000000000007 57.500000000000007 0.93759101629257213 -0.1949035823345184 -4.9042010307312003 1.7027353644371035 -1.7136647701263426 -1.4092320203781126 1.7972927689552309 19.500000000000004 4.6926355361938485 9 -1.7215491533279417 -2.2508575916290279 0.99640345573425304 -1.088859438896179 -0.74804049730300892 -0.054904272779822343 4.8933517932891855 1.2917200326919558 174.50000000000003 -3.0566142797470088 -0.37454758584499354 0.50235313177108776 -2.7462065219879146 -2.9569985866546626 0.94679486751556408 2.3885006904602055 4.3707194328308114 4.2633187770843515
decision_type=9 1 2 2 2 1 2 2 1 1 1 2 2 2 2 1 2 2 2 2 2 1 2 2 2 2 2 2 2 2 2 2 2 2 2 2 2 2 2 2 2 2 2 2 2 2 2 2 2 2 2 2 2 2 2 2 2 2 2 2 2 2 2 2 2 2 2 2 2 2 2 2 2 2 1 2 2 2 2 2 2 2 2 2 2 2 2 2 2 2 2 2 2 2 2 2 2 2 2 2 2 2 2 2 2 2 2 1 2 2 2 2 2 2 2 2 2 2 2 2 2 2 2 2 2 2
left_child=1 3 4 5 6 22 20 10 13 23 27 25 51 16 65 17 56 32 29 70 36 106 41 104 109 116 94 49 83 46 -21 84 99 63 45 69 74 62 39 -35 -34 100 -13 -44 52 47 -18 -26 67 102 -16 71 -29 54 -52 78 57 -6 -58 -60 79 -37 107 -30 -56 -14 68 -28 -67 -36 -11 -7 -19 115 -3 76 -76 -68 -25 80 -27 -81 -17 -12 -23 -86 -42 90 89 108 96 92 -92 -24 -8 -96 98 -98 -43 -9 -1 -90 -5 -104 -4 -64 -22 -38 -89 110 114 -112 -111 -114 -15 -69 -10 -106 120 -120 -39 122 -73 124 -123 -125
right_child=-2 2 9 7 8 12 26 15 11 19 28 42 14 24 50 82 18 72 -20 30 21 31 93 55 34 60 48 44 33 -31 -32 -33 40 38 35 61 37 118 -40 -41 86 87 43 -45 -46 -47 -48 -49 -50 -51 53 -53 -54 -55 64 -57 58 -59 59 -61 -62 -63 105 -65 -66 66 77 73 -70 -71 -72 121 -74 -75 75 -77 -78 -79 -80 81 -82 -83 -84 -85 85 -87 -88 88 101 -91 91 -93 -94 -95 95 -97 97 -99 -100 -101 -102 -103 103 -105 117 -107 -108 -109 -110 112 111 -113 113 -115 -116 -117 -118 -119 119 -121 -122 123 -124 125 -126 -127
leaf_value=0.0014469072445577377 0.01875515626578142 -0.00559285888369553 -4.564994218817917e-05 0.0048721162917227199 -0.0068142684793300488 -0.0020495766176783078 -0.0031844761990589697 -0.00077740024950422038 -0.0034130379537128021 -0.0033632913040776338 0.0043099572303225194 -0.0075596984394771215 -0.0058879077183471617 -0.0047730361291327978 -0.0033809484608689926 -5.6335647966713517e-05 -0.0021389758696468771 0.0057622136584439066 -0.0061812785939171335 0.0015131751067550738 -0.0050115740635456119 -0.0038073604275009579 -0.0020604197800091458 -0.0024289806327428961 -0.015991769893787266 7.0318897787804413e-05 -0.0055248650417196836 -0.00044772018648097148 -0.0014870465620895363 -0.0027002547750747865 6.8193311320113422e-05 -0.0030891351905839534 0.0036134934174894603 0.0020336649275128154 0.001337243087690694 -0.0037145615353762818 -0.0033701573477967778 -0.0049576841073361664 0.0047058208291117214 0.0086875441263509212 -0.014560630846524378 0.0007269057504619489 -0.018241982950854604 -0.0048423281706489333 0.0049776784205705291 0.00095417595374959658 -0.0002821366245446546 -0.0057051005304495882 -0.0052311025188143678 0.0059683723977072677 -0.0029487008139905571 -0.0017643085589993867 0.0036702627339999638 -0.0026850410838047791 -0.0010426700205989528 -0.0002133825568699449 -0.0026341381649353959 -0.0031268370950480241 0.0005201089783776014 -0.005857903295800479 -0.0068738960083702281 -0.0057036506260680813 -0.003442702401665347 0.001857660995336835 -0.0021183811368540905 -0.00041666497714149822 0.00019059627368216793 -0.0071114843502147421 -0.0037925347881941252 -0.0030165002060263198 -0.00044125668714077403 -0.00058615962908267966 0.0034531142488746871 -0.010578102407366055 -0.0056560339837026276 -0.01046748256201918 -0.0086564925439506883 -0.0023833146504945463 -0.00051021280008575992 -0.0038225692434971049 -0.004272557619751126 -0.0051027365059714246 0.0014265466165367076 0.0018332046552940399 -0.0048059302827672366 -0.0094873825495619818 0.002143881357568858 -0.00084416306920518953 0.00014958908717157399 -0.0096770701334736673 -0.0055681394949866608 -0.00020004575014694525 0.0028003435826445132 -0.00061558444387585119 -0.008287733588699258 -0.0069984676251979936 -0.00050177563944338863 0.00027293189517580438 -0.00020538601470747049 0.0016191687681655345 -0.00081065631459634885 0.002580734202098668 0.006947982016470608 5.096522616225552e-05 -0.0046152965504900074 -0.00010278006139463637 -0.0059724487119463968 -0.0086080481144477135 -2.0028344674021514e-05 -0.0022451879673804453 0.0001408652237290604 -0.0036269056796774525 -0.0066582634568281129 -0.003136781185744683 -0.014059243005436402 -0.0050588747028043604 -0.0060589514517008789 -0.00055161486377341973 -0.00325950966916402 -0.0060477020076151891 -0.0086964404471461879 -0.0011138688443903698 0.0010318547712601137 0.00067123847503700929 5.8895789691322158e-05 -0.00060038441733024635
leaf_weight=3942.2309019312961 181758.70448850701 12874.524132994211 71170.202162492176 15697.921574496795 3925.9363497004379 10456.42280355969 904.81832948635565 4128.8425555353751 39464.633506408703 3549.8620316621491 36019.00727197752 22505.694719383086 2397.1003226664616 8680.8358850711265 6901.9223215964448 11577.989659531588 12271.378384885487 10604.495344879455 3551.8260895935236 88647.783916387882 49565.319355715532 22961.938908698707 10513.725745279778 28560.963663593553 295.21002669003792 2144.0422868384521 12606.57354014532 1817.4917140280013 2860.4758301463444 15742.296343020287 27535.721570089794 54199.707717606201 27534.556940910355 17216.599899435707 1303.0786329756374 12555.472982733638 1180.0846884478815 2640.7185126383556 10421.854887537498 960.63867851038231 72.107729114140966 155237.73478118377 237.32537269889144 8628.8482293050038 33179.759017372453 763.90824222064111 36113.019887587929 17209.655915707874 14646.605483244275 52748.801083624894 8991.3480704558024 22918.674937999633 17757.926617775789 13683.218864968163 200176.5368767055 10758.884059576194 61961.586099817367 5677.1407504915696 1078.7402420357685 5511.6965840651028 6442.9115559764032 14058.758348372125 11167.414140268953 9694.653056873969 23876.452855791489 2362.8319719132851 3517.936955445919 54284.401964069264 22493.856141027638 19694.516338876845 11422.453607336738 33731.856392797221 6990.4493456795462 1735.0225047376007 6680.1537849364404 2154.483798915986 4626.1098969106488 44372.212798800989 7396.6670847279602 15949.809001441361 12743.895884081092 96693.358430031352 52427.800254467489 3776.0195573246456 16076.375183248616 1656.1228472769726 36519.440855581677 31770.380330008396 6422.2246665849925 270.41959801898338 385.33198348147562 10068.317500493087 11257.156308167958 66074.619539670093 36690.328940306863 21517.037355242122 72502.044247964921 343533.41907300224 47165.339591107797 15432.798270732113 47776.342395368731 5868.2915567562632 615.59481781162322 1702.6975451815597 1677.8973129180958 1849.9017026253277 30642.755905394326 1501.3507031953195 127983.31167098266 30941.356310934447 2394.4300119421205 9266.5622877300484 2417.6719249279122 7341.8819937327862 231.91080951539334 4420.9068000558764 2598.9217529923335 2664.9118779029232 4642.9358608512593 16918.127805113985 4220.8488485938251 103145.69329744446 17700.936350403157 19989.945370244939 20426.281881102259 34241.085986740291
leaf_count=35748 212156 265033 716014 54704 81104 143861 17708 23679 648350 50830 130646 518213 41727 153905 103792 86607 154552 35210 68994 506781 963296 387285 107150 395682 9183 31056 271308 9646 18793 217107 268753 863058 103819 71848 15946 217609 20369 52057 36964 2802 462 1029283 10653 158717 114941 10136 361760 333741 293694 171463 117809 262129 66380 181152 2309667 112638 915945 92247 14020 94006 133061 275427 195144 42712 309341 31411 45939 1286621 356450 296944 119360 301238 26397 50238 150396 57556 115034 635577 91654 283127 228877 1820381 266217 15511 291674 36516 148597 270267 40501 2635 2737 63680 50781 605674 927586 506280 632206 2104081 317933 69159 491629 30301 2126 7510 23569 24982 625060 34129 960645 452951 30943 153378 44387 115463 6020 91222 47906 27538 84910 343077 93443 1024645 140169 169460 177317 345607
