tree
version=v4
num_class=1
num_tree_per_iteration=1
label_index=0
max_feature_idx=11
objective=rank_xendcg
feature_names=country cod_section_group family pagetype_group hour embedding_pca_1 embedding_pca_2 embedding_pca_4 embedding_pca_5 embedding_pca_6 embedding_pca_9 embedding_pca_14
feature_infos=-1:1:3:2:0 [1:3] [1:211] -1:1 [0:23] [-6.4573087692260742:7.5027856826782227] [-6.2956123352050781:7.3879737854003906] [-5.4722957611083984:5.7508583068847656] [-5.508331298828125:5.8681225776672363] [-6.0564961433410645:5.9091091156005859] [-4.5596418380737305:4.7951984405517578] [-4.1033515930175781:4.4610147476196289]
tree_sizes=9199 9238 9330 9266 9232 9288 9232 9326 9208 9319 9211 9165 9221 9183 9208 9188 9190 9260 9295 9229 9306 9355 9228 9224 9244 9201 9243 9183 9292 9210 9330 9215 9338 9356 9210

Tree=0
num_leaves=80
num_cat=9
split_feature=3 0 1 1 0 7 0 8 7 7 0 7 8 0 0 1 8 10 8 8 8 6 1 10 7 8 7 10 7 1 6 10 7 8 6 7 10 5 11 6 5 8 8 7 8 5 10 7 7 8 0 5 11 7 11 6 10 11 11 1 7 5 5 9 7 9 8 10 7 10 8 5 5 6 6 9 5 11 0
split_gain=20180.3 1087.76 569.152 233.163 175.619 51.3042 29.1529 26.5559 26.1636 21.3143 21.0279 20.7402 12.5915 11.8972 11.7055 11.6025 9.59203 9.37539 9.0877 8.82043 8.59861 7.55632 6.84106 5.68192 4.78942 4.69781 4.63247 4.54047 4.41205 4.30597 4.26298 3.77609 3.41549 3.34971 3.31612 3.31158 3.26748 3.22877 3.21736 3.20452 3.3029 3.20435 2.95806 2.9049 2.70576 2.5263 2.51572 2.44717 2.39544 2.35199 2.34739 3.23644 2.32658 2.25951 2.21609 2.18252 2.0866 2.0377 2.01157 2.00253 1.99398 1.9819 1.92843 1.88526 1.87061 1.86069 1.85967 1.84632 1.83463 1.82379 1.7446 1.66033 1.63987 1.63552 1.62966 1.58137 1.62239 1.49786 1.48262
threshold=0 1 2.5000000000000004 2.5000000000000004 2 -0.0551494862884283 3 0.22204178571701053 0.24644760787487033 -0.40895545482635492 4 -0.74577468633651722 -1.0089311003684995 5 6 1.5000000000000002 -1.0439457297325132 0.31357510387897497 -2.0740453004837032 -1.5646873712539671 1.4837464690208437 -2.6297556161880489 1.5000000000000002 1.6237636804580691 -0.0551494862884283 -1.8575717210769651 -1.2107551693916319 2.2452824115753178 -1.2370325326919553 1.5000000000000002 3.7249388694763188 2.3476370573043828 3.0978435277938847 -0.11662954092025755 -1.981041371822357 -3.2212188243865962 -1.7106506824493406 -2.4105420112609859 -2.0631282329559322 -2.1930649280548091 -1.5318087339401243 1.1721911430358889 0.94984605908393871 -3.0031399726867671 -0.59095147252082814 -0.041269958019256585 -1.1023603081703184 2.7661798000335698 -1.3194552659988401 2.6484661102294926 7 2.8839390277862553 -0.60516226291656483 -1.6427828669548032 -1.3856875300407407 -2.5305157899856563 0.98207169771194469 0.072776943445205702 -0.26695883274078364 1.5000000000000002 -1.7136647701263426 4.8843920230865487 0.87371468544006359 1.974337697029114 2.5624091625213627 0.2015248239040375 2.8830252885818486 0.10350381582975389 -4.516246795654296 -1.4615721702575681 -0.10519462823867796 3.3788108825683598 0.94679486751556408 -1.033649146556854 0.56769621372222911 -1.5252381563186643 -1.3904607892036436 -0.52908256649970997 8
decision_type=9 1 2 2 1 2 1 2 2 2 1 2 2 1 1 2 2 2 2 2 2 2 2 2 2 2 2 2 2 2 2 2 2 2 2 2 2 2 2 2 2 2 2 2 2 2 2 2 2 2 1 2 2 2 2 2 2 2 2 2 2 2 2 2 2 2 2 2 2 2 2 2 2 2 2 2 2 2 1
left_child=1 2 4 9 7 14 28 19 17 13 20 25 75 18 23 26 38 36 68 35 44 49 24 46 -21 -6 -9 33 -5 67 50 45 41 60 -22 -1 -8 -36 -11 40 -20 -14 62 71 55 -19 63 -44 -48 70 59 -52 -25 -35 -37 -7 -41 -45 -28 -18 -16 73 -30 -4 -23 -38 69 -15 -3 -10 -12 -27 -31 -40 -66 76 -13 -46 -63
right_child=-2 3 5 6 11 10 8 15 66 16 21 12 32 29 27 -17 30 31 39 22 34 64 -24 52 -26 43 58 -29 42 72 -32 -33 -34 53 37 54 65 -39 61 56 -42 -43 47 57 77 -47 48 -49 -50 -51 51 -53 -54 -55 -56 -57 -58 -59 -60 -61 -62 78 -64 -65 74 -67 -68 -69 -70 -71 -72 -73 -74 -75 -76 -77 -78 -79 -80
leaf_value=0.00041355335363626186 0.012379187214660598 0.0005034953719138623 0.0014712295635115073 7.7466781640904189e-05 -0.00011649195794932726 3.7934626050094618e-05 0.00074216674797671848 0.00043887030710188722 0.00017759032813510531 -0.00027278935370060538 -5.7913837509448185e-05 0 -7.4518437379655857e-05 -0.00028627833482344702 0.00092949647873876438 8.3718984707197402e-05 -0.00037976642698571157 0.00015704702676974647 -0.00025116563664905257 0.00030659229676623833 0.00081963537955844358 0.00065851798327739187 5.6207675254778605e-05 0.00013889026205776928 0.00018465428051259839 0.00013404507104622496 0.00026967845542441967 -3.5741803413210026e-05 -0.00023358699831334934 -0.00049831057074162764 -0.0002627933271167859 -0.00029286696330299469 -0.00018460413447491698 0.0012055647358532723 0.0015452414430767222 0.00021902208727960244 0.00052852791353015733 0.0010807456486159133 -0.00041335738902281374 -0.00021868652322711338 -7.4539586960951793e-05 2.0193887092162309e-05 1.3253328656930233e-05 -7.624877190997284e-06 0.00058372540036600847 0.0006482170170923889 0.0013710167242692215 -0.00028089908421664248 0.0010683503684333223 0.0010686062671974598 -0.00037325699088106273 -0.00028343161364992683 0.0010090328964002233 0.00094421974045670262 5.7735210964162096e-05 0.00063248564278770892 -0.0003127332379152269 8.1089602579184557e-05 0.00035871453500843637 -0.0004878911739139953 0.00044950198925733728 -9.8792784953744865e-05 -5.1356945971409557e-05 0.00048237495310515918 0.00054769284179068567 0.00018680258735871182 0.0002737239923342809 -0.00035460630695802501 -0.00043581680505548018 -2.7195285488485279e-05 0.00027588822503992822 0.0004461463123082432 -0.00035329167481596341 -0.00047932236712542578 3.4285318485414617e-05 -0.00017508166146906358 -0.00030388398701152846 0.00086618376226041188 -0.00042277982516216974
leaf_weight=3040.3532449193008 13083.965868621599 199.22407452986226 11900.744216109946 27026.354406431841 16473.151381258765 896.84043125961034 7778.9898586579366 50108.235258584813 5565.4041225656547 11186.178797770554 2159.0118618917913 1950.6110328621435 91810.596482344117 78284.815647923999 2143.4900036533654 17080.443239200424 132082.73881441759 4569.1392713898094 17089.657771874743 62808.860727937892 3055.9207407270878 11949.157439715505 23106.36936867889 546.41188029354089 67530.156996022386 24400.124183045526 45040.810581062484 415.91254701530852 14635.549776011903 22197.978932102997 47310.530611935654 1448.2234190343297 17750.334861612529 6876.9140985730046 2316.7377272239682 9711.5058879383869 12513.685926316 5343.8638003847154 61304.731890428811 122771.05648361659 28459.475398342154 58245.026228767849 29417.595448440698 49363.884075258393 2676.9846849388268 1396.2938791670604 6492.1413464729703 3123.884802878034 5244.4759956706112 313.62292080999759 109133.90801776417 65587.546838356371 800.65472956349549 7719.734190842908 73445.627451139895 2282.089868980067 30038.054913582338 54015.426792593702 62625.433267003158 20593.946649349586 1642.5825227071909 2908.1407867842208 9895.9337386678671 228.00143374147592 1735.0029196839168 1936.9822551834659 3207.6523377033445 85856.410874324647 22471.199464424077 19706.126144649708 5291.7298657436477 1869.0096393359709 13077.586862547556 112893.81445496096 1027.7385467782296 77270.984416818173 18569.217912137829 9459.1932595333201 2977.4736251493014
leaf_count=49397 212392 3201 193777 438611 267881 14567 126707 815181 90648 181849 35200 31559 1493241 1271467 34845 277912 2148824 74169 278413 1022495 49248 194758 375891 8892 1097593 397321 732704 6851 238290 361276 769215 23516 288787 112205 38093 157749 204273 87219 997854 1996977 463365 948376 478657 803547 43865 22729 105872 51076 85196 5117 1777816 1066184 13115 125580 1195317 37193 488102 878573 1019015 335640 26731 47166 161193 3699 28450 31363 52654 1396352 365113 320107 85959 30262 213136 1834528 16495 1256181 302451 153456 48248
internal_value=0 -7.91794e-05 0.000176289 -0.000287143 9.29882e-05 0.000920089 9.13286e-05 0.000238293 0.000263538 -0.000341723 0.00069525 -5.3278e-05 -0.000105934 -0.000287693 0.00116765 0.000332064 -0.000381843 0.000471574 -0.00023697 0.00016984 0.000889273 0.000469456 0.000215357 0.00131076 0.000243493 4.23604e-05 0.000358885 0.000973917 -2.75988e-05 -0.000343832 -0.000352293 0.000161713 -5.32899e-05 0.000997836 0.00110879 8.86961e-05 0.000574451 0.00122271 -0.000439678 -0.0002152 -0.000141032 -3.76887e-05 -7.75321e-05 6.26221e-05 0.000735536 0.000273778 0.00134737 -1.46849e-05 0.00123673 0.000215227 -0.000365194 -0.000339578 0.000663859 0.00106811 7.66938e-05 0.00046796 -0.000237241 3.86318e-05 0.000321563 -0.000394394 0.000724066 -0.000449987 -0.000160489 0.00145351 0.000603243 0.000483431 4.67302e-05 -0.000322081 -0.000427099 1.7513e-05 0.000177825 0.000156647 -0.000444843 -0.000456168 0.000360405 -0.000196167 -0.000275066 0.000804757 -0.000265323
internal_weight=0 2.04738e+06 918735 1.12865e+06 826216 92519 142222 414498 58122.5 986424 48507.9 411718 265597 420445 44011.1 174855 565979 29643.3 221029 239643 26031.6 22476.3 153445 25212.4 130339 146122 157774 18798.6 84099.3 199417 374709 7413.66 167806 18382.7 10716.5 86197.5 22229.7 7660.6 191270 198358 45549.1 150056 57073 129648 15315.1 5965.43 23865.4 32541.5 11736.6 7764.36 327398 174721 1347.07 14596.6 83157.1 3178.93 152809 103379 107666 152677 3786.07 180084 24531.5 12128.7 14711.9 14450.7 28479.2 164141 22670.4 25271.5 7450.74 26269.1 35275.6 174199 2762.74 97790.8 20519.8 12136.2 5885.61
internal_count=33518927 33306535 14947816 18358719 13441433 1506383 2313993 6743254 946166 16044726 789620 6698179 4320595 6837402 716763 2844812 9207324 482757 3595171 3898442 423641 365979 2495979 410551 2120088 2377584 2566900 306212 1367827 3242231 6097679 120414 2730404 299361 174560 1402463 362343 125312 3109645 3226857 741778 2441617 929216 2109703 249081 96898 388544 529733 191068 126276 5328464 2844000 22007 237785 1353066 51760 2485079 1682120 1751719 2484464 61576 2927796 399483 197476 239703 235636 463409 2667819 368314 410755 121159 427583 574412 2832382 44945 1590191 334010 197321 95414
cat_boundaries=0 1 2 3 4 5 6 7 8 9
cat_threshold=2 5 4 8 4 2 4 8 2
is_linear=0
shrinkage=0.01


Tree=1
num_leaves=80
num_cat=8
split_feature=3 0 1 1 0 7 0 2 7 0 7 0 2 1 2 2 0 7 10 5 6 7 5 2 2 6 10 11 9 2 7 5 5 1 5 2 10 6 2 5 2 7 2 2 10 11 7 7 10 2 9 9 5 2 5 6 11 5 0 6 10 5 2 10 9 7 2 11 10 2 5 11 5 6 5 6 7 5 6
split_gain=19773.4 1074.96 566.522 236.65 164.368 50.3641 26.1788 25.294 23.0747 20.1178 19.4661 18.8214 16.9474 14.6952 16.6032 31.0416 11.1937 8.63874 8.18802 7.68966 7.42546 6.90224 6.41978 6.19175 8.4372 6.07585 5.95953 5.59819 5.51369 5.21221 4.84907 4.70638 4.59278 4.53735 4.38301 4.68237 3.73749 3.70524 3.52627 3.06033 3.05782 2.96672 2.89203 2.86944 2.81754 2.76957 2.71 2.68616 2.63666 2.59748 2.59388 2.59244 2.48569 2.38512 2.31625 3.0317 2.87526 2.31602 6.16334 2.29326 2.27797 2.24055 2.23391 2.17013 2.02003 1.91871 2.10744 1.99441 1.85461 1.79992 1.76747 1.74466 1.67832 1.85585 1.66552 1.65068 1.46916 1.42786 1.42609
threshold=0 1 2.5000000000000004 2.5000000000000004 2 0.06146026402711869 3 61.500000000000007 -0.071324408054351793 4 -0.86545866727828968 5 51.500000000000007 1.5000000000000002 72.500000000000014 52.500000000000007 6 -1.9208492636680601 -0.45293220877647394 -3.2793623208999629 -2.3098556995391841 0.15973787754774096 -2.4105420112609859 72.500000000000014 51.500000000000007 -3.3226618766784664 1.8199506998062136 0.35029837489128118 -1.7215491533279417 152.50000000000003 -1.7136647701263426 -4.231520175933837 -1.2557244896888731 1.5000000000000002 -2.1668484210968013 181.50000000000003 1.6568447947502138 -2.0410898923873897 149.50000000000003 4.0645468235015878 143.00000000000003 -1.6715179085731504 198.00000000000003 174.50000000000003 -1.1356201171874998 0.32410115003585821 1.2314585447311404 2.6804473400115971 -2.0989186763763423 152.50000000000003 -3.5409998893737789 -0.7551290988922118 -2.0852464437484737 81.500000000000014 2.1787664890289311 -0.46428307890892023 -0.65549707412719715 -1.6672336459159849 7 -1.6877285242080686 -0.060880914330482476 4.5003130435943612 14.500000000000002 1.0978114604949953 0.89815604686737072 0.91315531730651867 75.000000000000014 0.35029837489128118 -0.52014148235321034 98.000000000000014 -0.041269958019256585 -1.0906457304954527 0.31627905368804937 -0.57660257816314686 0.46711263060569769 -1.5570427179336546 -2.6761488914489742 4.5468008518219003 -3.6392619609832759
decision_type=9 1 2 2 1 2 1 2 2 1 2 1 2 2 2 2 1 2 2 2 2 2 2 2 2 2 2 2 2 2 2 2 2 2 2 2 2 2 2 2 2 2 2 2 2 2 2 2 2 2 2 2 2 2 2 2 2 2 1 2 2 2 2 2 2 2 2 2 2 2 2 2 2 2 2 2 2 2 2
left_child=1 2 4 7 10 16 21 12 18 17 29 20 57 14 15 31 26 32 48 71 52 54 68 24 25 -12 44 60 70 53 -18 -6 -9 -11 59 -36 42 -10 -29 -17 -28 -30 -32 -34 78 75 -24 69 76 -50 -46 -15 63 -1 55 56 -5 -3 64 -19 -16 -14 -23 -7 -59 67 -67 -25 -22 -39 -20 -13 -35 -74 -26 -31 -8 -47 -4
right_child=-2 3 5 6 13 11 8 9 37 33 23 19 61 51 27 39 30 34 28 -21 22 62 46 65 74 -27 40 38 41 45 36 -33 43 72 35 -37 -38 47 -40 -41 -42 -43 -44 -45 50 77 -48 -49 49 -51 -52 -53 -54 -55 -56 -57 -58 58 -60 -61 -62 -63 -64 -65 -66 66 -68 -69 -70 -71 -72 -73 73 -75 -76 -77 -78 -79 -80
leaf_value=6.9829479682019234e-06 0.012205378188067873 -0.00038282547135597893 0.0021957790754424016 -0.00035932283412923712 0.00013936947622604533 0.00058006767704922026 0.00041079129518050762 -0.00020839282993984705 -7.1023543683570509e-05 -0.00033493435528628444 -0.00023708235923401729 -0.00016290917213858982 -0.00046971961935318002 0.00023151642018006969 0.00033930933813371286 5.4837832302658011e-05 0.0011475799873836153 -0.00037229603697174515 0.0004210873075955037 0.00060427539280422311 0.001638553597559732 -0.00037520587377981552 0.001074855134867127 -2.8379736356001633e-05 -0.0002305761317571423 -1.3757285079657967e-05 0.0010834400810125534 0.00031817616055036433 0.00036630940847200957 0.0001479234809577088 0.00085333045332694664 0.00034304368851494765 -2.7423629629446255e-05 -0.00048697265627999905 -0.00017691957134802861 -0.0003376860503880451 0.00019995828699901602 0.0001048292324727978 0.00047033800207860486 0.00021433213722496123 9.9714340108592542e-06 -6.6629798585468494e-05 0.0020424749075520767 -0.0004339865538488448 0.0016530084367239451 0.00017333725371394118 0.00079340681044574076 -8.8201310133636198e-05 0.00039477381570249709 0.00070119854231076746 0.0011648218123325193 2.4788903782698302e-05 0.0011542698728596249 -0.00024122201813682578 0.00014558679439877068 0.00011954040465611307 -1.9519209822926104e-05 -0.00022756011565910127 -0.00037689169835452923 -0.00026607147982648957 0.0002391596280579779 -0.00035763766387651881 -9.5362987244256383e-05 -0.00010463007707122139 -0.00032362296878851087 2.8229972760141447e-05 -0.00012268891319530944 0.00011439925029459142 0.0010131482458788149 0.00031338068790214571 0.00092549538494591079 0.00026838284637296022 -0.00026658304909442067 -0.00059720593986319472 -0.00014625678808571525 5.2786916896978016e-06 0.00090917231244067086 0.00043288631712656893 0.0014180421474048954
leaf_weight=75344.06664036143 13187.789193029283 89236.261499450367 292.85365589401044 3164.1600054361625 13144.934577687411 5820.1642790856713 799.06254670678754 40236.73089140185 11014.445957563672 196775.41486279113 15060.609045894322 1070.4298686807306 190346.46179566439 7313.163888879164 40665.861494761484 93283.321333920438 8689.3399320094904 40762.673763231374 2412.4015758964379 14302.235896365557 1787.5935439762106 3153.4622662414477 5959.7961687497591 36442.850059970107 56761.129662647771 64349.69268418265 546.67293967722799 27644.447031675023 2457.9126615868736 13206.751808085741 9772.6143701648834 91900.958590731854 31998.529896743043 31783.650321870271 71234.531675523845 24602.246240726599 919.75569270113192 8531.8477599607431 35729.890703727011 13889.166323684985 551.94317003407923 4367.9041323038982 221.46936218920746 1841.2867590661335 1331.792564501593 22330.580972912678 9476.3542047635419 3655.11485467694 6352.4912534845353 5277.5390188774909 11703.555180606316 36529.250646450164 738.95432188322593 4078.2521597840678 19770.45692421087 12439.67216204344 12029.855434954734 60686.882239554456 97010.183412597311 42873.220074196099 54459.989734018294 20591.984516806144 33540.167038106709 476.13960103408317 35675.016445751942 12776.458740465969 32637.837284946014 13354.451576972642 800.59399087791098 8408.2344562802318 1069.1494273567223 6317.4995541649841 8321.7153518939303 2231.7434856259497 41519.443850564508 21428.30624368797 3786.1516117541614 2413.8412860324024 11793.598316549746
leaf_count=1226740 212392 1453732 4670 51339 213630 94246 12992 655854 179006 3199348 245674 17228 3096369 118458 661183 1517585 141668 663225 39347 232946 29278 51521 97155 592814 921933 1045981 9065 450614 39497 214467 159065 1495976 520391 517613 1158234 401478 14914 138910 578998 225670 8919 70592 3591 30157 21630 362395 154179 59228 104040 86234 190328 594820 11824 66578 321375 201969 195601 986155 1579406 696788 886320 333861 546022 7660 580532 208206 532007 217026 13255 137347 17482 102779 135233 36350 675882 349269 61491 39207 191983
internal_value=0 -7.84331e-05 0.000175497 -0.000285206 9.23717e-05 0.000917339 9.60683e-05 -0.000340206 0.000259232 -0.000289437 -4.914e-05 0.000685859 -0.000390862 0.000232928 0.000253416 0.000195464 0.00115326 -0.000227233 0.000476844 0.000468377 0.000873138 -1.66294e-05 0.000981908 -9.81919e-05 -0.000133077 -5.62405e-05 0.00129067 0.000330945 0.000254773 4.72269e-05 0.000967743 0.000317654 -0.000136105 -0.000355329 -0.000264801 -0.000218297 0.000824439 7.63968e-05 0.000404128 7.56028e-05 0.000553725 8.78336e-05 0.000880884 -4.98531e-05 0.00132299 0.000118105 0.000902783 0.000155723 0.000617364 0.000534733 0.00121559 5.95048e-05 0.000594187 -5.63908e-06 6.29358e-05 3.43828e-06 -9.09606e-05 -0.000340097 -0.000320325 -0.000317967 0.000282081 -0.000458827 -0.000119695 0.000526693 -0.000263204 -3.29802e-05 -8.00108e-05 9.71091e-06 0.00144943 0.000208947 0.000579079 0.000204526 -0.000449958 -0.000337497 -0.000195058 5.99622e-05 0.000824609 0.000199077 0.00143789
internal_weight=0 2.04728e+06 918839 1.12844e+06 826265 92573.4 142230 986209 58132.3 492662 411704 46749.8 493547 414561 370719 212218 45823.6 253549 26522.6 21690.2 25059.6 84097.8 18024.3 272902 177691 79410.3 26220.4 158500 10307.4 138802 19603.2 105046 74076.5 239113 179473 95836.8 10913.8 31609.6 63374.3 107172 1098.62 6825.82 9994.08 33839.8 25121.8 59379.5 15436.2 20595.2 16215.2 11630 13035.3 43842.4 7035.26 79422.3 47404.1 27633.7 15194 282608 193372 83635.9 95125.9 210938 36693.6 6296.3 96361.9 95211.6 45414.3 49797.3 2588.19 16940.1 3481.55 7387.93 42337.1 10553.5 98280.6 34635.1 4585.21 24744.4 12086.5
internal_count=33518927 33306535 14947816 18358719 13441433 1506383 2313993 16044726 946166 8014671 6698179 760550 8030055 6743254 6029976 3452861 745833 4126127 431675 352953 407597 1367827 293867 4439523 2889470 1291655 426595 2577115 166918 2258656 319238 1709606 1206402 3888544 2919725 1559712 177570 514491 1029612 1743255 17984 110089 162656 550548 408611 965338 251334 335485 264757 190274 211958 713278 113730 1293318 770284 448909 246940 4599825 3146093 1360013 1547503 3430230 597543 101906 1566687 1550053 740213 809840 42533 276257 56829 120007 689196 171583 1597815 563736 74483 401602 196653
cat_boundaries=0 1 2 3 4 5 6 7 8
cat_threshold=2 5 1 8 2 4 4 2
is_linear=0
shrinkage=0.01


Tree=2
num_leaves=80
num_cat=1
split_feature=3 1 8 7 7 6 1 8 2 6 2 4 7 11 8 1 4 7 2 5 4 8 8 8 8 9 2 7 6 8 7 2 7 2 2 6 5 8 2 6 11 8 7 9 5 9 7 5 6 2 6 9 1 8 7 7 4 9 6 6 11 11 6 5 5 9 2 7 9 8 6 6 9 5 6 2 7 11 8
split_gain=19194.1 642.954 57.8218 56.8664 33.9704 18.8384 15.8242 11.8306 10.5894 12.8969 10.3727 10.1797 8.82034 8.44135 7.64993 7.39127 5.95754 5.64975 5.59418 5.10395 5.05975 4.92489 4.37407 4.17431 3.70762 3.61575 3.53306 3.47932 3.30274 3.25846 3.09416 3.06171 2.96973 2.89217 4.03639 2.87732 3.07374 2.71943 2.71655 2.66955 2.41481 2.71387 2.53427 2.38122 2.36512 2.4431 2.30071 2.18562 2.66171 2.35778 2.15687 2.12844 2.08475 1.88218 1.87083 1.81374 1.74327 1.73329 1.6937 1.64389 1.63873 1.63704 1.62843 1.56399 1.56388 1.44664 1.43866 1.43601 1.41953 1.41772 1.38378 1.38351 1.36831 1.41012 1.36353 1.34431 1.33444 1.32423 1.55045
threshold=0 2.5000000000000004 -1.5351376533508299 -0.31128701567649836 -0.840350180864334 -2.2488816976547237 1.5000000000000002 1.8218192458152773 152.50000000000003 -1.2223815917968748 152.50000000000003 16.500000000000004 2.5624091625213627 0.33651736378669744 0.070586532354354872 1.5000000000000002 5.5000000000000009 -1.3762995004653928 151.50000000000003 1.90855348110199 16.500000000000004 0.22204178571701053 -0.10519462823867796 -0.22657787799835202 -1.229500889778137 -1.2615884542465208 41.500000000000007 -3.0031399726867671 2.5871489048004155 2.8830252885818486 1.0967282652854922 136.50000000000003 -1.2877910137176511 155.50000000000003 145.00000000000003 3.6056334972381596 4.8415675163269052 -2.4609681367874141 77.500000000000014 -0.59856885671615589 -0.16775412112474439 4.2773852348327646 0.089174471795558943 -1.7881677150726316 2.8839390277862553 1.3870993256568911 -3.5600947141647334 -2.8298064470291133 0.96643555164337169 155.50000000000003 -1.5766699314117429 -2.2867772579193111 1.5000000000000002 1.9966143965721133 1.1158480644226076 -3.6568696498870845 16.500000000000004 3.7819899320602421 -1.0000000180025095e-35 -1.2223815917968748 1.1102504134178164 1.0949423909187319 -2.7029128074645992 4.3707194328308114 -0.40595360100269312 -0.66071927547454823 137.50000000000003 -0.19628016650676725 -2.1244130134582515 -0.38019508123397822 0.24806320667266848 -2.8559747934341426 0.39916945993900305 -2.6057605743408199 -1.3560030460357664 28.500000000000004 -0.91596385836601246 -0.27656398713588709 -1.6404677033424375
decision_type=9 2 2 2 2 2 2 2 2 2 2 2 2 2 2 2 2 2 2 2 2 2 2 2 2 2 2 2 2 2 2 2 2 2 2 2 2 2 2 2 2 2 2 2 2 2 2 2 2 2 2 2 2 2 2 2 2 2 2 2 2 2 2 2 2 2 2 2 2 2 2 2 2 2 2 2 2 2 2
left_child=1 2 8 11 6 14 10 15 25 46 27 17 20 28 -5 16 -6 22 66 23 29 -18 44 39 74 77 -14 60 -12 30 -7 -29 -26 34 68 36 57 58 -24 -19 47 -42 -43 -25 45 -3 55 48 -9 -49 56 -34 -37 -53 67 71 -20 -27 -11 -22 -4 -52 -21 -40 -61 -17 -8 -35 -16 -46 -28 -10 -48 -74 -13 -38 -15 78 -1
right_child=-2 3 4 5 7 12 18 40 9 37 13 24 26 76 33 65 21 19 50 62 59 -23 38 43 32 35 70 31 -30 -31 -32 -33 51 54 -36 52 75 -39 63 -41 41 42 -44 -45 69 -47 72 49 -50 -51 61 53 -54 -55 -56 -57 -58 -59 -60 64 -62 -63 -64 -65 -66 -67 -68 -69 -70 -71 -72 -73 73 -75 -76 -77 -78 -79 -80
leaf_value=-0.00027532836459324349 0.011977411105144218 0.00023415731783310795 5.8502905396086517e-05 -8.9771895487096305e-05 -9.1442062383770211e-05 0.00039125453684020554 -0.00024856783944641342 -0.00012818104229371941 -0.00022281436827391183 0.00011082476842263459 -5.7655950679561992e-05 1.458129065913018e-05 0.00056109919645792861 0.00010356908933463413 0.00043803646154752832 -0.00016284885023563626 -0.00019868971300682756 -0.00026325566914940353 -6.0029120035003927e-05 0.0011039205448285763 0.00069681773444812945 -0.00013400344095975078 0.00041452747028210057 0.000512283290714589 0.0008514688466742153 -0.00025869903729281606 0.00019262621201424619 -7.8217221637737704e-05 8.6558585507619771e-05 0.00050516976507682934 0.00021537940734772131 -0.00035088306659093255 0.00082832540924659363 -3.5494318076285609e-05 -0.00023393297913510089 -7.455782552434727e-05 -0.00041157650508494813 -0.00018463388013882637 0.00067415583035776623 0.00034667079982546382 -5.9989600920820107e-05 0.00036840501975666704 -2.1319947629334197e-06 0.00025106993832564031 0.00063787069897542649 0.00086458821014422571 0.00010969901775967838 -0.00010316926699343963 0.00016403200246779058 -0.00022810905321138335 -0.00014998212018817834 0.00040036747094332286 -0.00029981932108005523 0.00078421271442879884 0.00023847047031246233 0.00070445343635707597 0.0002069361090804 -0.00051619987411883456 -0.00045978579160064738 0.00059497752056492732 -8.9332671635975586e-05 0.00052581901873110105 0.00055713021212080256 0.0010205925767457925 0.00039620503339619749 -0.00027699667216343461 -0.00056604404763769764 0.00077176842839860439 0.00016814193805154417 0.00025562193222176662 -1.024319954836688e-05 0.00027815954590585285 -0.00040034571180555897 -1.5134275337074713e-05 0.00056802846128581081 5.2602059889414759e-05 -0.00032070351373343528 -0.00035090743245790902 0.00027562655772261002
leaf_weight=27999.448508714719 13290.623881679727 5949.6749708185525 28404.868558204296 13941.279840985197 112473.74780049874 21321.424632197799 39362.593377458848 6717.2873859824322 664.1945426408347 530.13603786229214 87536.71738669106 908.96377315701102 1747.7989567778568 89164.438583922965 2229.6511854804121 13795.731206742654 290791.08092104184 1881.4226792734553 7734.422363503676 624.05346446903422 4925.9434149904409 200086.17429220857 4228.9692452739109 6915.371575436453 18159.871735829773 249520.70685418436 6096.0673555644171 212913.16866003681 19353.349331116944 10739.93373272584 19570.564896529962 4221.8443691837601 3676.4267576111015 226.16359858559736 2402.9146671397029 15693.629961394632 725.09182155935559 14147.829710106016 26707.647243564526 1154.5418581910635 85852.237498156173 2905.0923501398502 4914.2126355145592 7517.0292639714753 5791.374509355519 703.73902968963375 8888.2396706516593 60944.316886411092 5808.7959621894115 20388.011342167621 26566.927443898603 4484.90394387368 5662.7597274575528 1928.9555632047122 2283.0181963658688 841.45071148911666 3561.8854365450679 2722.3609255415213 7255.4945058372541 7415.6349625337753 10153.310773678444 356.05608311976539 9241.1737265780976 1501.6050472245843 9727.0067441825231 69221.964704086931 1536.5545860225393 1697.4649280778976 19632.036614458062 1282.1122584116092 7301.3252623432054 2786.1137308249308 1116.1556432956859 6811.4655120309617 950.15088771028968 4375.2224454031093 735.29410114916391 56565.185596032607 501.36613862210652
leaf_count=456448 212392 96570 462377 227225 1830467 347133 641958 108798 10812 8660 1425608 14882 28333 1447095 36220 224009 4732988 30532 125478 10272 80297 3252811 69131 113290 294550 4058366 99674 3464622 314718 174231 318111 68540 59953 3650 38743 255541 11751 230227 434117 18846 1399447 47430 79712 122243 93804 11374 144367 991498 94579 331688 432746 72347 92034 31242 37222 13702 58660 44127 117847 121935 164870 5623 150632 24519 158008 1126431 25030 27530 318780 20930 118581 45202 18057 110852 15469 71061 11920 919890 8112
internal_value=0 -7.84994e-05 -0.000142302 0.000413775 -0.0001119 0.000275383 -4.88383e-05 -0.000150249 -0.000247313 -9.86155e-05 -2.5998e-05 0.000589 0.0003582 2.85423e-05 0.000101658 -0.000169495 -0.000157279 0.000525078 -0.000179335 0.000409914 0.000403438 -0.000172344 0.000593038 0.000306006 0.000744682 -0.000264879 0.000137388 -6.80131e-05 -3.14506e-05 0.000348688 0.000307334 -8.35664e-05 0.000773385 0.000195746 0.000153134 -0.000247304 -0.000256603 -0.000268524 0.000657006 -2.79772e-05 -7.97571e-05 -4.36645e-05 0.000134284 0.000376952 0.000441108 0.000302461 7.7471e-05 -0.000115671 6.53268e-06 -0.000134614 -9.19414e-05 0.000631794 -0.000134767 0.000517471 0.000439065 0.000284319 2.32745e-05 -0.00026152 -0.000419639 0.000531057 1.93135e-05 -0.000140654 0.000592841 0.000692987 0.000482804 -0.00025815 -0.000260753 0.000671693 0.000196144 0.000570045 8.13274e-05 0.000178787 2.40705e-05 -7.06744e-05 0.000302965 -1.14959e-05 9.99842e-05 -0.000322338 -0.000265276
internal_weight=0 2.04717e+06 1.81231e+06 234866 1.4055e+06 131258 531601 873899 406807 43041.1 452483 103608 88845.7 196790 42412.5 686369 603351 73498.7 79118.4 27333.6 73700.5 490877 46165.1 17468.4 30109.3 363766 15145.2 255693 106890 51631.9 40892 217135 28250.2 28471.2 24264.6 278700 257343 21933.5 32438.2 3035.96 187530 93671.5 7819.3 14432.4 13726.9 6653.41 21107.6 93858.4 12526.1 81332.3 38219.3 10090.3 21356.4 6413.86 4206.65 4291.76 11296.3 252243 7785.63 22068.6 38558.2 26923 9865.23 28209.3 17142.6 83017.7 40899.1 1923.63 21861.7 7073.49 13397.4 3450.31 16815.9 7927.62 1859.11 5100.31 89899.7 85066 28500.8
internal_count=33518927 33306535 29486159 3820376 22869103 2135673 8649245 14219858 6617056 699726 7359750 1684703 1446303 3199341 689370 11166706 9816266 1196260 1289495 445815 1199715 7985799 750445 284911 488443 5917330 246588 4160409 1740326 839475 665244 3533162 458092 462145 393743 4532880 4185305 356734 527767 49378 3053152 1526589 127142 235533 222678 107944 342992 1526563 203377 1323186 622507 163542 347575 103589 68402 69716 184138 4102493 126507 360240 627247 438369 160904 458636 279943 1350440 666988 31180 355000 114734 218255 56014 273276 128909 30351 82812 1459015 1384450 464560
cat_boundaries=0 1
cat_threshold=2
is_linear=0
shrinkage=0.01


Tree=3
num_leaves=80
num_cat=6
split_feature=3 0 0 2 2 9 9 2 2 9 2 2 2 0 2 9 4 5 4 5 4 2 0 7 8 2 2 4 2 6 7 7 2 6 4 6 2 6 11 8 6 8 4 4 8 4 8 8 9 4 8 0 5 11 8 2 8 6 11 7 8 8 9 8 4 4 2 9 6 4 4 4 2 5 2 4 9 7 11
split_gain=18705.1 1039.35 206.591 76.5129 67.7299 47.261 47.2204 45.1584 27.2386 26.2695 19.3151 18.9713 17.5875 16.9275 16.455 16.3084 16.2117 15.6814 14.0251 11.0118 10.4593 9.27334 10.3766 9.21453 7.47794 7.31447 7.17275 6.16282 6.10027 5.87796 5.52255 5.37905 5.36232 5.32771 5.30043 4.89314 4.75125 4.28037 4.27725 3.91369 3.90927 3.869 3.8671 3.83563 3.71943 3.50827 3.45571 3.2907 3.04555 3.01787 2.97983 2.81338 5.72223 2.68976 2.63285 2.6048 2.39531 2.30834 2.17294 2.13453 2.1273 2.10584 2.05911 2.04156 2.00998 1.92508 1.87132 1.65171 1.64691 1.63875 1.62909 2.66842 1.57117 1.53959 1.50754 1.48539 1.36535 1.36383 1.35014
threshold=0 1 2 58.500000000000007 58.500000000000007 -1.7881677150726316 -0.62016665935516346 58.500000000000007 51.500000000000007 -2.0407017469406123 52.500000000000007 51.500000000000007 174.50000000000003 3 171.50000000000003 -2.1928467750549312 13.500000000000002 0.5286507010459901 12.500000000000002 0.46711263060569769 10.500000000000002 98.000000000000014 4 -0.74577468633651722 0.19894533604383471 174.50000000000003 190.50000000000003 13.500000000000002 73.500000000000014 0.32462847232818609 -1.7136647701263426 1.2314585447311404 137.50000000000003 4.6570446491241464 4.5000000000000009 -3.754559993743896 198.00000000000003 -0.87331566214561451 0.1728717237710953 3.1342970132827763 -1.7174937129020689 0.051031604409217841 10.500000000000002 2.5000000000000004 -1.8575717210769651 21.500000000000004 -0.59095147252082814 -0.75110256671905506 0.68574643135070812 13.500000000000002 0.80729836225509655 5 -1.366591155529022 0.23617906868457797 0.41449308395385748 126.50000000000001 -2.662755966186523 1.2623540163040163 1.0949423909187319 -2.6761488914489742 -1.0719789862632749 -0.79829180240631092 -0.038677871227264397 -0.073529317975044237 19.500000000000004 19.500000000000004 16.500000000000004 -0.62016665935516346 -1.2808399200439451 1.5000000000000002 1.5000000000000002 14.500000000000002 10.500000000000002 -3.5056645870208736 195.50000000000003 12.500000000000002 -0.71049344539642323 2.7661798000335698 -1.7501103878021238
decision_type=9 1 1 2 2 2 2 2 2 2 2 2 2 1 2 2 2 2 2 2 2 2 1 2 2 2 2 2 2 2 2 2 2 2 2 2 2 2 2 2 2 2 2 2 2 2 2 2 2 2 2 1 2 2 2 2 2 2 2 2 2 2 2 2 2 2 2 2 2 2 2 2 2 2 2 2 2 2 2
left_child=1 3 4 10 8 12 14 11 16 17 51 35 21 42 15 31 43 25 34 30 -10 37 32 33 58 28 48 -17 -9 49 46 -6 -23 47 50 59 -27 73 -26 56 -19 -18 67 -3 -32 70 -15 -11 -21 -16 -8 52 60 -41 -36 -24 -25 -14 -20 -4 -1 68 -43 -22 78 -12 -62 -7 -37 -63 -13 -72 -45 -5 -31 -53 -44 -78 -54
right_child=-2 2 7 5 6 13 18 9 20 23 65 45 57 19 29 27 41 40 24 26 63 22 55 39 38 36 -28 -29 -30 74 44 -33 -34 -35 54 61 -38 -39 -40 53 -42 62 76 72 -46 -47 -48 -49 -50 -51 -52 75 64 -55 -56 -57 -58 -59 -60 -61 66 69 -64 -65 -66 -67 -68 -69 -70 -71 71 -73 -74 -75 -76 -77 77 -79 -80
leaf_value=-0.00044789266516388217 0.011779288855129796 0.00031798444531344757 0.00067642228911416748 -0.00029462253176633433 0.0010384000186906041 -0.00019273832997879391 0.00025334656833347208 7.1419953163062613e-05 -9.9153057973526744e-06 8.974977084346497e-05 -0.00042647746634363897 -0.00027360764593532182 -0.00012064025106623536 -0.00021416427777806821 0.00040255590744765253 0.00049452145518779278 0.0003233025704738874 0.0012181640583519959 0.00030549596461375885 6.6156611076191867e-05 0.00015206617781469644 0.00050204894858241872 0.00013284398293058597 -0.00035435434206863869 0.00043898469665375764 -2.0637694023439439e-05 -0.00034014080742995623 0.00073215190022268232 0.00056739798492443701 0.00027620817936313091 -0.0004330681345098799 0.00063338086278133261 0.00018317124561242575 5.0796662340007708e-06 7.553817438531563e-05 -0.0001379834143258762 0.0020012566398102858 -0.00019293052668939691 0.00067285898973642663 5.2180950894286378e-05 0.00067262182737069462 0.00058328964442722541 -0.00027882311588200764 -0.00011663032897979192 -0.0002355980490978275 -0.00029684191924373322 -6.2766205351273084e-05 0.00022712296839160428 -0.00011519215067489172 0.00080064278720444037 0.00042901510782122838 -0.00031879314457178379 -3.5092580967831916e-05 0.00038445240454761326 0.00025377143215399452 -5.4029618420314321e-05 -1.5975303962641674e-06 -0.00036891722529854476 0.00053131359625012745 -0.00017862781967517438 -0.00018463081032274179 -9.3415116727838278e-05 0.00042351115609337987 0.00030158090397587725 -0.0003153104325799376 -0.00050178660940928231 -0.00035947239499533733 -0.00027905860258416111 6.4285322960827188e-05 7.0072421876273867e-05 -7.2154775832143688e-05 -0.00018398038378673735 0.00016517997309613744 0.00022901857336066382 -3.3936544244566835e-05 -0.00038373679028528819 -0.00034465997942279144 -0.00053967585194745744 -0.0002232997300043682
leaf_weight=21303.792562697796 13391.991652125027 20088.899279045756 292.5831778113934 639.54142565216171 15342.040288228236 31392.851444980304 27792.889875340086 3486.5222337777523 55548.266286565049 25543.935328647116 171658.40793534863 9075.1107394702121 5714.7679568075982 29331.054595209338 4420.2530955135589 24528.922376097238 21586.280044325031 2230.0550609285565 30482.214836246611 26741.46075466591 42985.109325517988 7756.4918025840743 11509.630865252926 1971.3053974291979 16975.078709371533 6373.4414326267142 7139.3593366110581 20385.663485197088 9024.5924804067618 9447.986330586471 10419.405210612633 4367.3926499715453 17032.527571804923 20787.453857305052 20413.567821110977 10985.130648698716 117.3028779012966 16303.351458577919 15223.76195652438 5642.1510780183162 3585.7139491703565 15483.675082272879 35779.523270271049 2020.2275129333866 133922.43667529128 18341.07777593768 31529.011982228199 56950.668106703743 14160.461457096084 3584.4454293142335 15289.695392322668 77747.525128958485 4180.0456099241419 4399.7505165793264 14221.123990872045 21135.695897871512 82950.754656298435 11695.276714022359 5135.8940984334331 14094.430405359948 8233.5228493059112 6604.8640257205116 18667.164956852153 11865.240141837421 26758.349928039912 44813.12643230852 27437.20431187113 84122.802532029949 6274.851986578331 77736.999894836757 40671.889825074773 45836.645682802788 48249.932753683039 3906.2607097596774 1811.5585420038842 70251.400248709542 105449.75247832079 3913.3773589083867 66197.008986191489
leaf_count=347350 212392 327365 4710 10547 249461 510632 451853 56954 903792 414951 2792779 147713 93100 477149 71948 398482 350615 36055 495599 435156 698500 126700 186539 31834 275771 103909 116705 330982 146975 153597 169531 70825 277932 338096 332501 178275 1897 265438 247181 92277 58481 251973 581054 32961 2177127 298441 514054 926287 230538 58164 248571 1265694 68253 71749 231612 344135 1349586 190716 83739 229594 134478 107594 303544 193539 434890 729139 446538 1368936 102252 1265058 661129 746553 785014 63639 29857 1145506 1714576 63636 1076252
internal_value=0 -7.72246e-05 0.00017244 -0.000280584 0.000320286 -0.000204592 0.000442742 2.03458e-05 0.000201461 0.000121731 -0.000369898 -7.79745e-05 -4.40944e-07 -0.000242588 0.00063184 0.000708484 0.000301911 0.000428536 0.000333671 -0.000184228 8.6636e-05 6.33882e-05 0.000129046 8.32709e-05 0.000438942 0.000288661 -4.76835e-05 0.000602613 0.000429998 0.000374189 -0.000216156 0.000949196 0.000283254 0.000148652 0.000241676 1.19708e-05 1.46649e-05 -0.000117001 0.00054989 1.20564e-05 0.000883702 0.000429463 -0.000299229 0.000200719 -0.000249925 -0.000169637 -0.000135898 0.000184709 3.12695e-06 0.000582143 0.000315931 -0.000318117 -0.00028771 0.000198782 0.000149015 1.15479e-05 -9.90794e-06 -0.000288007 0.000338352 -0.000160498 -0.00036763 3.64925e-05 0.000496261 0.000184596 -0.000240757 -0.000442116 -0.000319402 -0.000255688 -6.387e-05 5.71501e-05 -0.00014512 -0.000131523 0.000153654 0.0001531 0.000225422 -0.000349667 -0.000333832 -0.000351735 -0.000212264
internal_weight=0 2.04707e+06 918895 1.12818e+06 465917 609595 229422 452977 236495 223064 518580 229914 95693.5 513901 83888.3 64624 126096 24817.6 145534 253243 110399 78283.5 57434.3 198246 67816.9 19001.9 48041.3 44914.6 12511.1 19264.2 205202 19709.4 24789 103282 77717.3 115989 6490.74 20849.2 32198.8 94964 5815.77 55737.1 260658 70359.1 144342 113925 60860.1 82494.6 40901.9 8004.7 43082.6 302109 154110 10041.9 34634.7 32645.3 84922.1 17410 35618.1 14387 56974.5 101602 34150.8 54850.3 97135.4 216472 35670.7 115516 17260 84341.9 95583.6 86508.5 50270.2 4545.8 11259.5 147999 145143 109363 70377.1
internal_count=33518927 33306535 14947816 18358719 7577446 9917840 3730143 7370370 3847303 3629051 8440879 3741319 1558746 8359094 1363316 1049750 2051472 404271 2366827 4120260 1795831 1274930 935306 3224780 1102290 309735 782399 729464 203929 313566 3337861 320286 404632 1679334 1264537 1887483 105806 339624 522952 1545446 94536 906132 4238834 1145340 2346658 1853836 991203 1341238 665694 130112 700424 4918961 2507761 164026 564113 530674 1381420 283816 579338 234304 928366 1653179 555517 892039 1579395 3521918 581016 1879568 280527 1372652 1555395 1407682 817975 74186 183454 2411200 2359266 1778212 1144505
cat_boundaries=0 1 2 3 4 5 6
cat_threshold=2 10 4 8 2 2
is_linear=0
shrinkage=0.01


Tree=4
num_leaves=80
num_cat=7
split_feature=3 0 1 1 0 7 4 0 2 0 0 7 2 7 8 0 8 8 2 2 10 10 2 4 8 8 8 8 1 7 2 1 1 5 10 7 7 4 4 5 10 2 8 9 7 9 1 5 2 5 5 5 8 1 8 7 4 7 5 2 7 2 8 10 10 4 5 2 2 4 5 4 2 4 9 7 8 4 4
split_gain=18143.4 1049.43 521.316 221.878 151.894 43.8687 38.2771 28.5206 22.643 20.2937 20.1824 20.1683 18.6794 17.4721 12.7256 11.721 11.3515 10.4835 8.51674 11.5635 7.18976 7.17039 7.0695 7.03264 6.64897 6.32245 6.13092 5.21062 4.98307 4.88375 4.80725 4.351 4.16122 3.84286 3.82997 3.79884 3.49837 3.32591 3.68111 3.06519 3.05055 2.90086 2.72067 2.67892 2.62083 2.55243 2.54289 2.52896 2.46582 2.4605 2.39942 2.3379 2.33742 2.23894 2.46781 2.16066 2.10491 2.01141 1.97701 1.96194 2.33767 1.89378 1.88871 1.81059 1.72863 1.72228 1.673 1.66259 1.64527 1.64291 1.63759 1.63649 1.6102 1.59517 1.56917 1.54003 1.51896 1.48663 1.42838
threshold=0 1 2.5000000000000004 2.5000000000000004 2 -0.071324408054351793 12.500000000000002 3 64.500000000000014 4 5 -0.8925931155681609 51.500000000000007 -0.0551494862884283 1.1721911430358889 6 -1.0439457297325132 -1.162709057331085 181.50000000000003 151.50000000000003 2.3935645818710332 0.41397100687026983 147.50000000000003 2.5000000000000004 2.8830252885818486 0.051031604409217841 -1.5351376533508299 -0.073529317975044237 1.5000000000000002 -0.31128701567649836 145.00000000000003 1.5000000000000002 1.5000000000000002 -2.9950733184814449 -1.1356201171874998 -2.3360747098922725 1.0967282652854922 21.500000000000004 6.5000000000000009 -0.041269958019256585 1.4843881726264956 63.500000000000007 -0.10519462823867796 -0.7551290988922118 -3.1576991081237789 -1.5632524490356443 1.5000000000000002 -1.2557244896888731 72.500000000000014 2.8839390277862553 4.1700789928436288 -3.8260515928268428 -1.1069381833076475 1.5000000000000002 -2.2271429300308223 -1.7136647701263426 2.5000000000000004 1.5717058181762698 -1.7328894734382627 195.50000000000003 -1.6715179085731504 174.50000000000003 1.198118329048157 -0.38032907247543329 0.40055000782012945 20.500000000000004 -1.3183230757713316 14.500000000000002 150.50000000000003 17.500000000000004 1.7731252908706667 20.500000000000004 86.500000000000014 11.500000000000002 -0.39257222414016718 -3.5600947141647334 2.2677237987518315 9.5000000000000018 11.500000000000002
decision_type=9 1 2 2 1 2 2 1 2 1 1 2 2 2 2 1 2 2 2 2 2 2 2 2 2 2 2 2 2 2 2 2 2 2 2 2 2 2 2 2 2 2 2 2 2 2 2 2 2 2 2 2 2 2 2 2 2 2 2 2 2 2 2 2 2 2 2 2 2 2 2 2 2 2 2 2 2 2 2
left_child=1 3 4 8 6 15 17 13 12 31 24 22 52 20 26 21 41 44 19 30 34 42 53 68 33 74 75 40 -28 49 -11 55 -25 -7 48 -23 -35 38 -18 -36 72 65 -4 57 -3 -37 61 -21 -5 63 71 -27 58 54 -6 -10 -46 -15 -1 60 -29 -24 -31 66 -16 -13 -9 -64 -19 -20 -26 -14 -17 -44 -12 -8 -45 -69 -54
right_child=-2 2 5 7 11 10 14 29 9 18 25 16 50 43 64 27 37 23 69 47 -22 35 46 32 70 51 28 59 -30 62 -32 -33 -34 36 39 45 -38 -39 -40 -41 -42 -43 73 76 56 -47 -48 -49 -50 -51 -52 -53 78 -55 -56 -57 -58 -59 -60 -61 -62 -63 67 -65 -66 -67 -68 77 -70 -71 -72 -73 -74 -75 -76 -77 -78 -79 -80
leaf_value=-0.00043284176179991709 0.011557581423458464 0.00031187211413927235 0.0011179171165787399 0.00011363705795481027 -0.000159218019229378 0.00058283969260478411 0.00056691811181613092 0.00013629972342881185 -0.00028256304267052347 -0.0002237691919184644 0.00033075066253738324 -0.00017676886888697243 -0.00045304165440861606 0.00027366309693524325 0.00052145161911867346 0.00034230950385363953 -0.00014395009172651593 0.00024841276699597936 -0.00030199332934186408 -0.00016079820387134524 -0.00030140648469987593 0.0016284709502226739 0.00019942232234575728 0.00016397233190894569 0.0013435340970977415 0.00034565500179110562 0.00035450583013333417 0.0011386600856020724 0.00015122291280973956 -0.00016778449269894596 -0.00037546340453293962 -0.00044508482671692695 -1.6284460809714336e-05 0.0010693025485732329 0.00026435485236088582 0.0010921213429992596 0.0007607508975900428 -0.00014362332456864724 -2.4544826165704432e-06 0.00058051913963101177 -0.00019578212983857934 -6.2330402098373567e-05 0.0012879421168584385 -6.2148944042842951e-05 0.00010699639809793151 0.00051761622188251988 -2.5064797956518653e-05 -4.6394316454782887e-05 0.00066486750266942852 0.00014883899686743811 -0.00036692632810306908 0.00062293640244212654 -0.00028273175831044578 -0.00018890745498242967 3.1005674617451825e-05 -0.00035505175945625239 -2.1257864973886699e-05 6.259638539882499e-05 -0.00030011900509369245 0.0019035139248136466 0.00087000211151829073 5.3023454567419808e-05 -0.00037355586569901803 -0.00011624836629367606 0.0004017496553800075 -0.00028903375870499722 -9.8925047998541061e-05 7.9840210401608823e-05 0.00038210067742928678 -0.00043195619732603414 0.00071285643346906088 -0.00053640660281404793 0.00082275279692146442 0.0015047952548385205 -1.1079194521268058e-06 0.00017010339370216441 0.00021844085332945251 -8.7686869347803408e-05 -0.00033496132441090953
leaf_weight=35463.818512169441 13492.115822044667 3179.4146091895091 4930.5596047484578 928.59173596322944 7619.3053039417282 6139.0320798297762 1025.7167037845211 9460.5561101064086 61958.029617611697 105305.40291759011 2801.2543540140032 63583.902845812234 153115.00905384345 9876.3052189922892 28250.097622642366 1039.0159180215414 21569.376441860426 33977.930776921741 26521.421888718425 36849.307760560318 1208.5887528222956 583.75389641382208 39364.857127623574 95669.772714406499 3319.7922352959285 4246.440921195157 86241.432080014332 6612.442238096759 14234.680690169611 21777.41368479417 26409.213744385284 42183.575664396893 14671.062287174995 6379.438403988388 9383.6124684777897 1313.6868005771539 9823.1900143752282 27278.896652885218 125626.26540865583 4722.2866628704069 406.5488200141408 18593.296258927119 7844.9349742385093 10653.240729540325 18247.944930678379 2174.9952744630136 7946.6019074732903 41309.500083261271 10441.67266617874 15690.542790389634 29024.95339539976 12794.796519798954 89917.788130392117 6088.5609440232511 64396.733560618086 134361.52964360919 42595.330117096993 8589.8179932843486 17400.843220664596 268.1491525961319 7563.0434691887785 11653.436053675454 1381.366882323855 9849.8894126472733 23177.10607887317 17932.396858629392 4395.1511530646676 9289.9308279110264 13244.237039352505 16443.824072327014 558.35452345070371 29765.874337182409 2819.9161866564682 8281.2310327224259 2777.5684464114456 40148.76536503098 2350.7601451819937 12262.853644500923 139679.26831877237
leaf_count=578511 212392 51671 79860 15146 124251 99541 16823 153026 1006712 1711837 45424 1034690 2492231 160750 459157 16971 350445 553347 431634 601427 19638 9512 639462 1555936 54143 68675 1402160 107637 231381 354216 430343 687242 239128 103724 152407 21441 159507 444298 2044640 76579 6673 302257 127941 173511 296281 35486 129499 672565 170272 254749 471364 208634 1463790 99245 1048377 2186672 693087 139512 282764 4409 122939 189393 22643 160438 376750 291622 71686 151375 214512 268003 9083 484871 45547 133954 45282 653021 38351 199694 2274760
internal_value=0 -7.64542e-05 0.000174388 -0.000280831 9.46113e-05 0.000885577 0.000229699 8.82888e-05 -0.000334118 -0.00028596 0.000678904 -4.14449e-05 -0.00038196 0.000258558 0.000332669 0.00111558 -9.09139e-05 0.000139942 -0.000223395 -0.000197034 0.000446938 0.00125877 5.75779e-05 0.0001838 0.000868268 0.000458347 0.000283568 0.000921504 0.000325808 -2.93511e-05 -0.000254263 -0.000352217 0.000139915 0.000800936 0.000482842 0.000867666 0.000882912 -4.21345e-05 -2.32574e-05 0.000370941 0.00060873 -0.000175827 0.00133449 9.85786e-05 3.18468e-05 0.000737067 0.000140237 -0.000100461 0.000620743 5.16556e-05 -0.000453055 0.000554453 -0.000328587 -4.69823e-06 1.07392e-05 -0.000332227 1.70446e-05 0.000176032 -0.000389351 0.00101377 0.0009961 0.00016618 -0.000100957 -1.22511e-05 0.000467708 -0.000201591 6.09609e-05 -3.70602e-05 0.000286127 -0.000351975 0.00125552 -0.000466668 0.000696107 0.00140001 0.000163763 0.000180245 -1.06443e-05 -1.50131e-05 -0.000314551
internal_weight=0 2.04697e+06 918995 1.12797e+06 826317 92678.1 414663 142263 985709 491342 48839.9 411654 494368 58154.9 193078 43838.3 274584 221586 252839 209873 26684.8 25129.2 137069 157563 26219.8 22620.1 141651 18709.1 100476 84107.7 131715 238503 110341 22341.7 25476.2 4072.44 16202.6 174475 147196 14105.9 4265.48 100110 21056.7 31470.1 64022.7 3488.68 58964.9 78158.8 11370.3 39396.1 211906 17041.2 282462 78104.6 72016 196320 60843.3 18466.1 52864.7 14443.6 14175.5 51018.3 44711.6 23705.6 51427.2 81516.3 13855.7 22934.2 47222.2 42965.2 3878.15 182881 3858.93 16126.2 5578.82 41174.5 13004 21552.8 229597
internal_count=33518927 33306535 14947816 18358719 13441433 1506383 6743254 2313993 16044726 7996435 794013 6698179 8048291 946166 3139292 712370 4467952 3603962 4115809 3416172 434042 408194 2230227 2562923 425998 368015 2303385 304176 1633541 1367827 2142180 3880626 1795064 362772 414404 66439 263231 2839383 2395085 228986 69191 1628569 341755 512124 1041039 56927 958354 1273992 185418 639899 3448466 277309 4599825 1271873 1172628 3193384 989368 300262 861275 234985 230576 828855 727928 385150 835907 1326312 224712 373712 767859 699637 63226 2977102 62518 261895 90706 669844 211862 351069 3738550
cat_boundaries=0 1 2 3 4 5 6 7
cat_threshold=2 10 4 2 8 4 4
is_linear=0
shrinkage=0.01


Tree=5
num_leaves=80
num_cat=5
split_feature=3 0 0 2 8 2 4 0 2 2 2 10 10 2 2 10 10 10 5 2 5 4 6 4 2 8 6 2 6 8 11 11 4 10 8 2 5 7 8 2 11 10 5 2 0 2 5 5 11 2 7 4 6 8 2 8 10 2 2 4 8 4 5 5 8 6 5 2 4 4 4 8 8 4 4 11 5 5 8
split_gain=17693.3 1010.15 220.936 71.2771 68.5072 42.8212 32.6504 25.9601 19.7802 19.0113 18.0467 17.2373 16.4425 16.2996 15.5551 15.1953 14.5432 13.3561 11.0966 11.1098 9.86093 8.65714 8.13936 7.4456 6.61618 6.45007 5.76704 5.17962 4.87056 4.78623 6.55176 4.32001 4.056 4.02509 3.88539 3.8166 3.79707 3.68947 3.5512 3.52378 3.32115 3.29918 3.27916 3.26014 3.17022 2.98749 2.81198 2.78428 2.67355 2.66168 2.55884 2.32048 2.2831 2.20882 2.18853 2.14031 2.04661 2.01465 1.96341 1.95602 1.93578 1.91607 1.87114 1.86816 1.83814 1.93216 1.83251 1.81757 1.77209 1.77078 2.17994 1.73723 1.72109 1.70049 1.68143 1.6259 1.71729 1.59199 1.59029
threshold=0 1 2 58.500000000000007 -0.17045921087265012 58.500000000000007 12.500000000000002 3 52.500000000000007 58.500000000000007 52.500000000000007 -1.9689973592758176 -0.4846543669700622 58.500000000000007 58.500000000000007 -0.81663286685943592 0.20906078815460208 -1.4350738525390623 0.56715285778045665 181.50000000000003 -3.6826902627944942 13.500000000000002 4.0243620872497567 12.500000000000002 149.50000000000003 0.44094100594520574 -3.754559993743896 174.50000000000003 4.5394978523254403 0.24403090029954913 0.38737291097640997 0.37118306756019598 9.5000000000000018 -0.28938210010528559 -1.210402190685272 52.500000000000007 0.94679486751556408 2.7661798000335698 -1.0942041873931883 51.500000000000007 0.37118306756019598 -0.96251696348190297 4.7371950149536142 23.500000000000004 4 188.50000000000003 2.1787664890289311 -2.8921999931335445 -1.0573480725288389 51.500000000000007 -3.5600947141647334 2.5000000000000004 -1.6108979582786558 -1.0000000180025095e-35 52.500000000000007 -0.016573116183280941 0.54068282246589672 149.50000000000003 22.500000000000004 21.500000000000004 -1.1497874855995176 18.500000000000004 1.5707726478576662 2.0808548927307133 0.75864285230636608 -1.8292601108551023 -1.8371835947036741 62.500000000000007 6.5000000000000009 21.500000000000004 4.5000000000000009 -0.35958826541900629 2.5615527629852299 3.5000000000000004 4.5000000000000009 -1.6397832036018369 3.3125395774841313 3.3788108825683598 1.1721911430358889
decision_type=9 1 1 2 2 2 2 1 2 2 2 2 2 2 2 2 2 2 2 2 2 2 2 2 2 2 2 2 2 2 2 2 2 2 2 2 2 2 2 2 2 2 2 2 1 2 2 2 2 2 2 2 2 2 2 2 2 2 2 2 2 2 2 2 2 2 2 2 2 2 2 2 2 2 2 2 2 2 2
left_child=1 2 4 8 9 10 14 11 38 23 26 34 13 54 35 20 28 57 25 42 53 41 27 49 -15 47 55 -22 32 69 37 -27 48 -19 77 51 60 -31 52 43 50 46 -20 -25 58 -38 -11 -13 -9 74 -36 -6 -3 -7 -8 -4 78 -16 -40 68 -23 75 -12 -46 -18 -66 -24 -32 -28 70 -17 -34 -42 -43 -1 -10 -77 -5 -14
right_child=-2 3 5 7 6 15 12 16 61 21 62 18 56 24 17 29 64 33 19 -21 22 36 66 39 -26 31 59 -29 -30 30 67 -33 71 -35 40 -37 45 -39 44 -41 72 73 -44 -45 63 -47 -48 -49 -50 -51 -52 -53 -54 -55 -56 -57 -58 -59 -60 -61 -62 -63 -64 -65 65 -67 -68 -69 -70 -71 -72 -73 -74 -75 -76 76 -78 -79 -80
leaf_value=0.00020649655317185486 0.011387902973306128 -0.0004234217051066322 -0.00024935977136732407 -0.00046932811382063448 0.00036222843479978833 -0.00023925947157687322 0.00053584493235080859 -0.00026261365646989285 -0.00029982809111877591 0.0002658650027531284 -0.00019834147592413828 -0.00031686041826969993 0.00045568462013397887 0.0010345144593130822 0.00087918932277808405 -0.00013056706521187927 -0.00036851625172990395 0.00047773702243547795 0.00010569954455241818 -0.00036161996496826359 0.00039888543307187949 0.00027720503302905018 0.00016840709619912481 0.00014058432040282644 0.00071795505392513784 -0.00017387681966484842 -5.8420916835407134e-05 0.00013665017067622051 -0.00032212321341761041 8.2521438051913202e-05 0.0012513697017188191 -3.8382718695588549e-05 -0.00029054827748767586 0.00030692007103413671 -0.00029883928028095688 5.9620788077189913e-05 0.00069208149163315193 -0.00016189416414482948 -0.00027314476495114622 0.00014130610967038592 -6.9803276526056687e-05 0.00025436441960832604 -8.2857816451661049e-05 0.00040861776732785307 -0.00029795757180647127 0.00016059463013634977 0.00062107322264881441 -0.00020652272391002337 -8.3614826650841667e-05 -2.9190791323029352e-06 0.00036685532993363935 0.00020296147516622731 -0.00027526650277222314 0.00010358650655607091 0.00027667149909830281 3.6815158048383292e-05 0.00042084305350974802 0.0006037403982580438 -0.00035880531316087025 -6.9994483004099682e-05 0.00043850902427238088 -0.00048797512256499144 -0.00010862532729347441 -0.00021914571086879169 -0.00019706987608399167 -0.00033700197628866262 -8.1229168888764333e-05 0.00023798836593519321 6.9570603117714163e-05 -0.00011023458653270647 4.4609321371522499e-05 -0.00019239074765733643 0.00025095327323609824 0.00011802501482654965 3.3428577708263605e-05 -0.00044602113654539912 -0.00036481145114824424 0.00016984935876626365 0.00060257655859905076
leaf_weight=12704.385878989677 13552.155110538471 39832.340833833761 11045.705056669191 1301.7053285389557 13327.57450413944 4496.0537229703041 11100.329677247879 10230.065251319669 11439.223708013451 7908.9482423130685 80296.13539776823 30753.741020736663 15790.308681472932 12323.394941411258 5604.9885881255177 8099.5991963136767 94051.230266981438 21546.402544358585 28349.195210302278 8029.4237375923985 36536.89009946736 14314.359905761041 6117.2691522159585 7506.1880070302577 15077.178582068649 68203.304747373855 12606.677629707105 9649.1464629813127 29563.970638154657 48392.585868780006 182.15405637165532 36250.411659789577 27678.414608190971 40382.787537399927 599.03516210004454 13833.685062891571 6922.9481518048124 7055.9540411563648 41821.739132073606 39729.426747957579 4761.1615929601394 15588.110434100454 13614.736055128611 12041.708594530515 60016.250601833162 1309.540982312581 3218.6742710238177 95411.87702663285 47461.430110168483 44484.128880626726 9115.5719862814149 31301.069914647116 14736.615812718752 3179.063269989434 4894.4005459102191 3346.9790656688419 43252.163807592049 5826.9192102286324 81780.383062340276 15870.459486931344 16779.468899402738 54380.097188580403 33578.559201029522 63759.740452006401 15433.100253021679 29794.38889317635 5603.249763996093 25132.82512964429 73217.349044683535 11871.967397749191 56771.358972619651 55809.934945776346 2558.510816166061 23271.878125219795 10338.170422346069 114549.3135368754 35945.576303582828 527.65999553404981 15702.367534153906
leaf_count=206209 212156 649603 180291 20861 217186 73359 180135 166321 186980 128113 1305732 499458 257768 199197 91661 131075 1530813 350273 461313 131123 594716 232631 99672 121873 244602 1109849 205109 156832 481757 787557 3041 591340 449697 656655 9871 225378 112451 114490 681559 646114 77185 253842 222138 196036 977813 21135 52461 1552397 771341 723254 147573 508473 239406 51351 79583 54390 703469 94291 1332491 258666 273233 884952 546879 1037392 251066 484167 91259 407426 1190635 193334 923577 908141 41870 379305 169233 1865239 584298 8590 254783
internal_value=0 -7.55859e-05 0.00017048 -0.000276139 0.000323337 1.32008e-05 0.000436106 -0.000202795 -0.00036238 0.000192873 -8.25299e-05 -0.000136308 0.000556955 0.000712232 0.000327722 0.000111926 -0.000266975 0.000424822 -0.000156001 -2.07129e-05 0.000239876 0.000304695 0.000284561 0.000114032 0.000860725 -0.000185285 5.12568e-06 0.00034432 -0.000204976 5.85869e-05 0.000112324 -0.00012695 -0.000180372 0.000366519 0.00015603 0.000205701 0.000415972 5.12363e-05 -0.000309973 0.000195863 0.000203404 0.000216944 4.42854e-05 0.00030622 -0.00029369 0.000608782 0.000369554 -0.0002335 -0.000115533 4.20477e-05 0.000324751 0.000250755 -0.000383601 -9.59536e-05 0.000457185 -0.000182118 0.000466663 0.000739731 -0.000329878 3.17259e-05 0.000364584 -0.000435486 -0.000171976 -0.000257422 -0.000342925 -0.000289479 4.82132e-05 0.000245724 5.0653e-05 1.90365e-06 2.25815e-05 -0.000225055 4.09666e-05 0.000172978 0.000129287 -0.000417795 -0.000426693 -0.000279509 0.00052926
internal_weight=0 2.04689e+06 919131 1.12776e+06 466082 453050 249964 609499 518261 216118 229962 299476 118140 43395.3 131823 223088 310023 73361.1 280613 49993.4 65581.7 89313.9 57906.6 126804 27400.6 230619 116087 46186 170744 157506 80763.5 104454 141180 61929.2 18863.6 58462.3 39326.3 55448.5 301947 59277.3 17034.3 49987.6 41963.9 19547.9 247378 8232.49 11127.6 126166 57691.5 67526.7 9714.61 44628.6 54569 7675.12 15994.7 14392.7 74744.8 11431.9 123602 101694 31093.8 216314 113875 123776 139279 45227.5 11720.5 25315 85824 76742.9 64871 83488.3 7319.67 38860 23042.6 161934 150495 1829.37 31492.7
internal_count=33517495 33305339 14948735 18356604 7579344 7369391 4063454 9916871 8439733 3515890 3741702 4873568 1919537 703517 2143917 3627689 5043303 1192880 4567618 814574 1067189 1453171 942479 2062719 443799 3753044 1889091 751548 2777257 2560500 1312514 1701189 2295500 1006928 305950 951037 639450 902047 4918264 964023 276499 813721 683451 317909 4029255 133586 180574 2051855 937662 1098696 157444 725659 889009 124710 259718 234681 1216020 185952 2014050 1654410 505864 3521469 1852611 2015205 2266046 735233 190931 410467 1395744 1247986 1054652 1357838 119055 633147 375442 2636517 2449537 29451 512551
cat_boundaries=0 1 2 3 4 5
cat_threshold=2 5 4 2 8
is_linear=0
shrinkage=0.01


Tree=6
num_leaves=80
num_cat=7
split_feature=3 0 1 1 0 7 2 0 0 0 8 7 7 2 8 7 1 5 2 2 6 5 1 0 2 7 7 9 2 7 5 1 5 5 8 6 7 8 5 1 8 11 7 7 5 7 7 5 7 8 8 1 8 5 2 2 7 5 9 2 8 6 5 7 11 11 2 8 2 7 6 8 5 11 2 7 8 5 6
split_gain=17183.3 991.226 527.218 223.679 144.846 47.4944 28.3211 25.136 25.1328 22.6191 22.0241 21.1951 19.6436 16.3917 11.4135 8.88634 8.81275 8.50896 7.95558 8.53706 7.86387 7.32306 7.16468 7.02619 6.59043 5.56197 5.11908 4.97657 4.92029 4.88501 5.04968 4.54792 4.27557 3.90836 3.60618 2.98095 2.94284 4.07504 2.93486 2.91995 2.84305 2.75494 2.73424 2.61997 2.53191 2.46767 2.40618 2.3039 2.25948 2.2556 2.23488 2.22845 2.22149 2.151 2.73227 2.10607 2.01489 1.96281 1.95531 1.87973 1.84725 1.78203 2.52355 1.76777 1.73047 1.68645 1.59357 1.5711 1.5544 2.21273 2.00308 1.52978 1.50632 1.44984 1.3551 1.34819 1.31055 1.28767 1.26682
threshold=0 1 2.5000000000000004 2.5000000000000004 2 -0.79034322500228871 64.500000000000014 3 4 5 0.19894533604383471 -0.840350180864334 -0.054904272779822343 52.500000000000007 -1.4720935821533201 -1.2877910137176511 1.5000000000000002 -3.5056645870208736 71.500000000000014 51.500000000000007 -2.410411953926086 -1.2113193273544309 1.5000000000000002 6 152.50000000000003 0.14004897326231006 -0.99634975194931019 -2.1476609706878658 165.50000000000003 -2.2307176589965816 0.052073456346988685 1.5000000000000002 -1.7538781762123106 -2.0627477169036861 1.8517511487007143 4.7612483501434335 -1.7136647701263426 -0.035937152802944176 -3.2793623208999629 1.5000000000000002 -1.7529324889183042 0.63493436574935924 -2.2845212221145625 2.5624091625213627 3.921857595443726 -0.74577468633651722 0.36381161212921148 -1.5318087339401243 1.5421358346939089 -1.0719789862632749 0.051031604409217841 1.5000000000000002 1.145585894584656 -2.186707496643066 195.50000000000003 162.50000000000003 -0.60361963510513295 3.8270556926727299 -2.0407017469406123 152.50000000000003 -1.5646873712539671 -1.2808399200439451 0.87371468544006359 -3.9972535371780391 -0.73852121829986561 0.43390908837318426 77.500000000000014 -0.75110256671905506 149.50000000000003 0.15973787754774096 -3.3226618766784664 2.8830252885818486 -0.12786456942558286 0.87803018093109142 151.50000000000003 2.6536802053451543 1.3441808223724367 3.3788108825683598 0.56769621372222911
decision_type=9 1 2 2 1 2 2 1 1 1 2 2 2 2 2 2 2 2 2 2 2 2 2 1 2 2 2 2 2 2 2 2 2 2 2 2 2 2 2 2 2 2 2 2 2 2 2 2 2 2 2 2 2 2 2 2 2 2 2 2 2 2 2 2 2 2 2 2 2 2 2 2 2 2 2 2 2 2 2
left_child=1 2 4 6 10 23 13 31 12 20 18 24 27 32 -13 21 26 50 19 39 33 74 56 35 40 58 -12 -5 -23 -29 -31 42 49 65 75 64 55 -38 -14 -1 -6 60 -8 67 45 63 47 -19 -36 -3 -11 -42 -28 76 -55 -25 -20 -21 66 -24 -26 62 -60 -15 72 -7 -10 -40 70 -70 -16 77 -4 -63 -9 -22 -17 -27 -51
right_child=-2 3 5 8 11 9 7 15 25 17 16 14 38 44 68 53 -18 46 22 57 34 28 59 36 41 71 52 29 -30 30 -32 -33 -34 -35 48 -37 37 -39 43 -41 51 -43 -44 -45 -46 -47 -48 -49 -50 78 -52 -53 -54 54 -56 -57 -58 -59 61 -61 -62 73 -64 -65 -66 -67 -68 -69 69 -71 -72 -73 -74 -75 -76 -77 -78 -79 -80
leaf_value=0.00024107817764120512 0.011182673201565985 -0.00045041098451632116 0.00092054681626974684 0.00064604834077771039 -0.0001291864976987553 0.00041502277199228506 -0.00025030564999017137 -0.00024539418524683536 -0.00010504042055067142 -3.7062253496240592e-05 0.00040678056245435775 -0.00019677114785212384 -6.2540618849186245e-05 2.9951300966354738e-05 -0.00017992734860544369 -0.00032806157837753092 9.1017006871459835e-05 0.00055101629999840815 0.00031250516146451773 3.3125335918649253e-05 0.00092931557772337435 4.0435528146077738e-07 -2.8963479131715125e-05 0.0011845193824662377 0.00028587983737484942 -0.0001693338448162246 0.00022526642213253686 0.00060910439267005637 -0.00041179387990600676 8.081371927955451e-05 0.00050281988651313466 -0.00044127370956894933 -0.0003037420453411608 0.0011689087048074968 0.001283272594147901 0.00075876637721386335 0.00030600283833087351 0.00096894983687136548 -6.1729863217580455e-05 2.3538843246094621e-05 4.2929746816637593e-05 0.00023483289663262077 -0.00034475912990009967 -7.4910854771463651e-05 -0.00036598174654212812 -0.00048068464483185018 0.00052366062533497457 0.00093258565599484936 0.00093186197452560808 -0.00035603277061700315 0.00032947219505185209 -0.00016251050392780445 0.00032268610591254461 -0.00019563920531332507 -0.00038032365339870332 0.00065728101562103475 0.00020574972897394211 0.00017170275441259024 -0.00017027611675612145 0.0001787106860765891 6.5471607516428179e-05 5.587622387246142e-05 7.7497510534854877e-05 -0.00039698958362598287 0.0014098789183044566 0.00074006391746778784 0.00017831388011182523 0.00023420020178465545 0.00010364874336734253 -5.1455743857594337e-05 -5.6519891031905972e-05 2.7508048456919776e-05 0.0013045560089244288 0.00037773963644523 -0.00014967140393916083 0.00062949837285413768 -0.00023582487932855245 -4.7418169243678275e-06 -0.0001074722113314119
leaf_weight=45869.681781982246 13649.636664844351 35855.814552838128 1779.2299958264921 9247.3896771962463 14663.070275804552 4530.3261460988724 39233.304782629712 33028.732411966048 2229.4425130389427 2452.483702870828 55778.755842020808 78754.848886180727 9121.3452192015829 953.54878665615979 14666.334157915611 43265.103079943714 17360.295265521127 3079.1886356235191 47314.366201721146 78072.826845971693 12933.966672410621 39043.163126847692 11223.601379493586 7791.4654401209264 4284.0361459874402 23780.975491897087 37855.271480632873 5357.2371411165223 3122.7396891330573 7453.3815204187558 4647.6097163294471 42171.422970865184 195223.71271291067 1180.4106054007716 5460.8777855705266 1006.9491512822569 1237.1675364153052 4398.9968843277893 1958.8712171502848 7249.0414148883428 60072.904931971876 19039.095956980134 157010.72105549736 4159.2519177271461 33876.244814847596 142877.49188547104 12804.106855907652 3748.1704765795439 3222.8917612838704 49203.514556007052 4883.1876688287448 5773.6170720030786 65726.04856347543 71270.655619403711 9187.3339982062025 944.73042995922151 29477.265290503346 11830.78399982219 9203.9443597961217 7061.2443688310887 36890.963743256696 11328.49369053758 7363.0859692097001 33851.629320074353 12961.822971689704 2721.6899976096029 15480.520397127286 16198.261152789637 13860.133060234948 27333.088600616757 136375.73087456389 6948.9514491065784 3594.9447894246405 1620.1829446407064 28270.564233957004 1965.0843849486555 25654.05381938559 6098.1251144736889 2262.6866808196937
leaf_count=746018 212156 585088 28900 150960 238048 73404 638484 537524 36505 39993 906359 1281084 148352 15398 239295 702915 282470 50234 769731 1270188 209875 635675 183422 126679 69833 388161 615724 86499 51191 121119 75552 687583 3178461 19144 89336 16334 20036 71325 32151 117867 977387 308684 2554274 67585 550652 2327638 208411 61209 52385 802907 78920 94268 1068267 1159031 150304 15293 479164 191795 149109 114246 599814 184396 119176 550969 210090 43987 251664 263506 226015 444921 2217942 112638 58669 26271 461103 31969 418025 99175 36563
internal_value=0 -7.42591e-05 0.000169463 -0.000272958 8.9248e-05 0.000884592 -0.000326468 -0.000272628 9.77466e-05 0.000713008 0.000221133 -4.36116e-05 0.000257576 -0.000379976 -9.53306e-05 -0.00020304 0.000305777 0.000498087 0.000158275 0.000111009 0.000893272 -0.000131611 0.00022927 0.00118444 5.59088e-05 -1.27259e-05 0.000329108 0.000457132 -2.98943e-05 0.000356462 0.000243747 -0.00034636 -0.000329998 0.00062804 0.000988034 0.00131243 0.00100979 0.000825284 8.78128e-05 0.00021158 -3.15335e-06 0.000135043 -0.000325928 0.000149715 -0.000446675 -0.000462001 0.000607116 0.000762065 0.00115412 -0.00038858 0.00020558 2.47621e-05 0.000287182 -0.000252461 -0.000216857 0.00112873 0.000271659 5.14742e-05 5.89716e-05 5.06947e-05 8.86531e-05 8.76624e-06 -5.95535e-05 -0.000385005 0.00134296 0.000538475 0.000142075 0.000201722 -5.37196e-05 4.90194e-07 -6.85702e-05 -0.00010494 0.00117948 9.69472e-05 -0.000201414 0.000890488 -0.000293877 -0.000136078 -0.000345302
internal_weight=0 2.04679e+06 919231 1.12756e+06 826533 92697.7 985362 491258 142197 58982.4 414819 411714 58143.3 494105 270990 252842 176720 26967.1 238099 143022 32015.2 103465 95076.5 33715.3 140724 84053.7 159360 26705.6 42165.9 17458.2 12101 238415 282546 8432.43 23582.8 19342.9 14372.4 5636.16 31437.7 53118.7 80509.6 60214.1 196244 22316.4 211559 177683 19631.5 6827.36 8683.77 87322 7335.67 65846.5 103581 149377 80458 8736.2 76791.6 89903.6 47225.7 18284.8 41175 29515.7 16567 34805.2 18336 7252.02 17710 18157.1 192235 41193.2 151042 36828.1 5374.17 12948.7 61299.3 14899.1 68919.2 29879.1 51466.2
internal_count=33517495 33305339 14948735 18356604 13442542 1506193 16043785 7996109 2312819 958867 6745251 6697291 945724 8047676 4409257 4115768 2872820 438767 3872431 2325868 520100 1685493 1546563 547326 2288034 1367095 2590350 434130 686866 283170 196671 3880341 4603019 136535 383565 313993 233333 91361 511594 863885 1309703 978331 3192758 363242 3444657 2894005 319854 111443 141721 1424558 118913 1071655 1683991 2430275 1309335 141972 1248895 1461983 767121 297668 669647 478952 268285 566367 297659 117391 288169 295657 3128173 670936 2457237 599974 87569 210667 998627 241844 1120940 487336 839470
cat_boundaries=0 1 2 3 4 5 6 7
cat_threshold=2 5 4 8 2 4 4
is_linear=0
shrinkage=0.01


Tree=7
num_leaves=80
num_cat=1
split_feature=3 2 9 2 8 7 10 10 8 10 2 5 8 10 8 2 2 2 2 9 8 11 6 2 2 7 8 7 9 11 7 6 7 2 9 10 8 5 6 6 10 2 4 4 4 7 10 6 6 5 5 6 11 2 5 11 6 9 6 10 8 7 10 7 5 7 6 11 6 5 8 4 9 9 4 9 7 10 9
split_gain=16724.9 140.917 96.6489 55.2041 48.4045 33.9849 22.7033 21.6132 15.2442 14.7457 13.1463 11.861 10.0154 8.81752 8.51751 8.24822 7.85535 7.52451 6.88018 6.85155 6.42351 8.5818 6.25827 8.48059 6.03048 5.88699 5.66744 5.25471 5.08348 5.04433 4.89725 4.37545 4.47953 4.30198 4.17043 3.9864 3.66124 3.37086 3.33961 3.26598 3.09709 3.00156 2.94072 2.82504 3.2591 2.73612 2.69819 2.6497 2.61385 2.49013 2.47728 2.41844 2.33285 2.26041 2.11813 2.0934 2.08931 2.55879 1.95299 1.91762 1.90012 2.40899 1.92265 1.87967 1.87403 1.84403 1.8319 1.71879 1.68991 1.65874 1.65729 1.51206 1.5097 1.48203 1.45509 1.43407 1.41381 1.41148 1.36844
threshold=0 73.500000000000014 -1.8136502504348753 174.50000000000003 -1.162709057331085 -1.2877910137176511 -1.1164099574089048 -1.9689973592758176 1.2917200326919558 2.6138157844543461 126.50000000000001 -2.679182648658752 3.2669200897216801 -1.224997282028198 0.75864285230636608 63.500000000000007 104.50000000000001 148.50000000000003 98.000000000000014 0.12991991639137271 -1.6404677033424375 -0.1834350451827049 2.6666064262390141 51.500000000000007 198.00000000000003 0.04156691953539849 0.2628015279769898 -2.9373410940170284 -0.93652778863906849 0.042437337338924415 -2.2608011960983272 3.9685709476470952 2.356135487556458 174.50000000000003 1.0416679978370669 -1.5253998041152952 -0.22657787799835202 -1.9748042821884153 2.8174382448196416 0.9890345335006715 -0.6362130045890807 28.500000000000004 7.5000000000000009 4.5000000000000009 15.500000000000002 0.016652632504701618 -1.4350738525390623 -3.3847162723541255 4.3277947902679452 -1.5135716199874876 -3.3305809497833248 -0.57660257816314686 -1.1619594693183897 162.50000000000003 -1.1222695112228391 0.60393548011779796 -1.0553523898124693 -0.30917763710021967 0.96643555164337169 0.25137679278850561 -1.8280518054962156 -0.45822387933731074 -1.3123388886451719 -1.5893521308898924 -1.4202078580856321 -0.52098628878593434 0.060632616281509406 -0.16775412112474439 4.7612483501434335 4.5003130435943612 1.8517511487007143 8.5000000000000018 -2.7178709506988521 -2.2867772579193111 1.0000000180025095e-35 -0.73036420345306385 -0.37551741302013392 0.3809946477413178 0.3060631155967713
decision_type=9 2 2 2 2 2 2 2 2 2 2 2 2 2 2 2 2 2 2 2 2 2 2 2 2 2 2 2 2 2 2 2 2 2 2 2 2 2 2 2 2 2 2 2 2 2 2 2 2 2 2 2 2 2 2 2 2 2 2 2 2 2 2 2 2 2 2 2 2 2 2 2 2 2 2 2 2 2 2
left_child=1 4 3 6 15 9 26 14 22 13 25 24 20 28 34 42 18 77 -15 35 67 -22 23 43 -5 45 55 38 33 58 -18 32 -28 -4 53 37 -30 -10 -24 -13 69 72 74 78 -45 -8 54 -19 -48 -11 -42 -39 -27 -7 -29 -3 57 -16 -14 -43 62 65 66 -41 -25 -62 -44 -9 -17 -21 76 -66 -37 -33 -1 -31 -26 -12 -6
right_child=-2 2 5 11 8 7 10 12 19 49 17 39 29 16 56 68 30 47 -20 40 21 -23 27 64 70 52 31 46 36 75 -32 73 -34 -35 -36 41 -38 51 -40 63 50 59 60 44 -46 -47 48 -49 -50 -51 -52 -53 -54 -55 -56 -57 -58 -59 -60 -61 61 -63 -64 -65 71 -67 -68 -69 -70 -71 -72 -73 -74 -75 -76 -77 -78 -79 -80
leaf_value=-0.00028238165283395221 0.010994087496636343 0.00043691733907174366 0.00043126641503655826 0.00023429882227379593 1.4422977023300422e-05 0.00010881234660467712 0.00057998629699833283 -0.0001694230699871718 0.00051044646153935124 -0.00030013788492629692 0.00013384470574908384 6.6239892207282082e-05 -0.0001100628706890346 0.00018718495522002256 0.00083836525741538869 -6.009652352340675e-05 7.8021612609786267e-05 0.001138730869122915 0.00081278033978812378 2.8566731296157532e-05 -0.00014346779127650042 -3.2512135385621533e-05 0.001938845962189547 -0.00028041444259600806 0.0023425994350488206 0.00075746728391798857 0.00071762381570249754 0.00017839334278234569 2.4980311882823666e-05 0.00041312953195851368 -3.0797344394363095e-05 0.00057074031019113789 0.00012437106025757851 7.556605077850069e-06 -0.00022503438470056452 0.00039250465304812416 0.00020926712556088953 0.00032224263416213327 0.00030677449657683152 0.00019052715056346733 9.0794407720401412e-05 3.175058997209742e-05 -0.00027617010032859733 -0.0001578878105293047 -8.3735645866410942e-05 0.0013679210834320458 2.1344301530478311e-05 0.00021457639449250438 -0.00010202363230356245 2.7556531817419865e-06 -0.00012351979915234249 1.9259063886529161e-05 0.00025858920021584432 0.00081524370054274632 -0.00016323865043789431 4.1786869561011984e-05 0.00025836922177763439 0.00038084553394725711 0.00011098790051597613 -6.9035764901613028e-05 -0.00015338420367965 -0.00025183045195082597 -0.00029535592566802982 -0.00023504438423935077 -0.00012915313206159515 0.00023256764433924579 -0.00013114108883017763 -0.00029207597337084479 -0.00016651090595626376 -0.00012235782818831125 0.00080394664554403808 -0.00020800276994696241 8.8708283315006538e-05 -4.5555471210692814e-05 -0.00017311459179209903 0.00015869851086834801 0.00040366817061598996 -0.00023522108392644417 -9.3743284450145974e-05
leaf_weight=15239.74980450065 13745.743749964284 7642.6619878675701 12402.099495908231 3989.8506560747046 23916.577313006885 2166.2194321414136 12133.264127688177 28335.762045965195 2593.8825937320507 11938.944641620838 1284.3141680175468 4959.8648580940207 12624.405065271159 10487.773540718335 1743.1828707616078 27629.464081474362 105030.96828409226 317.1765799492714 2132.9424696598726 32379.471805609908 161313.75225006987 123233.46861820412 135.7984886248596 26043.930662615996 202.21952978461923 1049.8024642830278 24621.036296081962 6945.7586495244323 17736.649160089175 2839.9333852883137 68054.609033482382 574.60241309923003 1386.0854361263191 3029.9575933528395 4738.5293791003642 1837.462048604968 28022.670074567257 3823.1496574099438 2118.1840459046653 1062.1600848827948 5710.3502350220806 35374.6193813391 20334.128332979875 128295.94752108557 111739.01903722067 478.17783292164677 19667.737541997587 37706.227291783027 128743.70824225196 3428.3539542227372 83570.054210107905 8726.456334481918 11370.053011779193 588.71848697279347 2427.7618651467637 1695.7467801534949 7763.0471229737595 4696.6274698828347 5812.2103622933646 40282.4211081463 20525.374179232254 68119.097941326327 148179.52307375736 22087.270963093804 34568.716682809536 1296.7479047645174 15870.020513358453 19989.087542899812 33459.779589872327 9386.3794380335894 365.5467826853419 89330.614149466885 17265.46541750124 1133.7422542814165 69925.008475483352 11562.12455931869 63.010100471612532 4790.9788136606658 22641.20843873886
leaf_count=248340 212156 124095 201577 64989 391232 34952 196844 460625 42251 194299 21012 80157 204831 170388 28265 449864 1708055 5101 34579 527489 2622035 2004914 2177 423797 3275 17289 399779 112568 288498 46236 1106726 9488 22612 49559 76867 30062 455451 62057 34207 17266 93255 576315 331046 2090987 1817533 7861 319628 613653 2096279 55823 1358736 141843 184713 9520 39374 27607 125653 77052 94708 656073 334021 1109293 2411981 360608 562172 21050 258497 325357 544148 153089 5947 1454463 279924 18521 1139243 188274 1037 77983 368264
internal_value=0 -7.30536e-05 3.1743e-05 0.00027116 -0.000138748 -1.94345e-05 0.000381854 -7.89553e-05 -9.47726e-05 6.84492e-05 0.00027452 -8.76517e-05 -9.71675e-05 8.71858e-05 0.000227556 -0.000226296 5.28067e-05 0.000170256 0.000293761 -2.75879e-05 -0.000113616 -9.54499e-05 -0.000121891 -0.000141523 0.000381172 0.000457791 0.000581819 -6.82771e-05 0.000191355 6.92556e-05 3.5178e-05 0.000654077 0.000686396 0.000348728 -4.40288e-05 3.05758e-05 0.000138057 0.00018125 0.000410355 -0.000165084 -7.64437e-05 6.38959e-06 -0.000244578 -0.000109565 -0.000123411 0.000610761 -7.51803e-05 0.000222578 -8.56073e-05 -0.000231918 -0.000109699 0.000112376 0.00030162 0.000263643 8.88352e-05 0.000366249 0.000371542 0.000506354 -3.98312e-05 -2.17796e-05 -0.000260619 -0.00022238 -0.000279217 -0.000215079 -0.000202538 -0.000129982 -0.000212878 -0.000220369 -0.000118547 -5.11447e-06 0.00129252 -0.000186085 0.000118472 0.000156098 -0.000192788 0.000209589 0.00192278 -0.000155546 -3.79647e-05
internal_weight=0 2.04669e+06 788586 138914 1.2581e+06 649672 106184 387407 837525 262265 69130 32729.9 365711 246898 21696.3 420579 185706 44098.7 12620.7 240950 332872 284547 596575 436536 4620.63 25031.3 37053.9 160039 61191.4 32838.7 173086 27715.5 26007.1 15432.1 7493.47 109903 45759.3 15143.5 2253.98 28109.3 131046 94760 359490 286593 240035 12611.4 157785 38023.4 148411 15367.3 89280.4 12549.6 12419.9 2754.94 9373.52 9338.41 14202.9 6439.81 18436.6 75657 274325 89941.2 184384 23149.4 149943 21822.1 36204.1 48324.8 61089.2 41765.9 630.776 123899 19102.9 1708.34 85164.8 14402.1 265.23 6075.29 46557.8
internal_count=33517495 33305339 12824081 2259837 20481258 10564244 1726558 6299289 13633775 4264955 1124456 533279 5946980 4014833 352309 6847483 3019748 717749 204967 3921094 5412931 4626949 9712681 7108448 75248 406707 602102 2604233 995085 534049 2814781 450400 422391 251136 121339 1788525 743949 246151 36384 458031 2132569 1542374 5853471 4668016 3908520 204705 2567849 618754 2415907 250122 1451991 203900 202002 44472 151942 151702 230970 105317 299539 1232388 4465888 1464364 3001524 377874 2440432 355071 589543 785982 994012 680578 10259 2016635 309986 28009 1387583 234510 4312 98995 759496
cat_boundaries=0 1
cat_threshold=2
is_linear=0
shrinkage=0.01


Tree=8
num_leaves=80
num_cat=8
split_feature=3 0 1 1 0 4 5 0 2 0 0 5 2 2 10 2 2 10 4 1 2 2 2 6 5 5 6 2 2 2 11 11 10 4 10 4 4 1 0 0 5 2 2 6 2 2 2 1 4 6 9 5 6 2 2 10 6 10 4 4 5 2 5 2 10 6 5 4 5 10 2 10 6 10 9 1 5 11 10
split_gain=16308.6 950.457 510.179 213.881 150.564 34.9737 31.346 28.6077 27.2201 20.1555 15.044 14.1431 13.5936 12.3574 10.0414 8.86956 8.22468 8.26348 7.95185 7.64162 7.36995 6.98051 6.34549 10.0129 8.3585 6.24548 6.02057 6.01589 4.91989 4.51158 4.2328 4.2014 4.01206 3.89522 3.76404 3.46728 3.24184 3.21182 3.10798 3.06935 6.07964 3.00013 3.47339 2.8249 2.77129 2.67796 5.97422 2.92893 2.55361 2.47923 2.38537 2.38485 2.33459 2.21926 5.40155 2.19753 2.15172 2.05245 2.04527 2.03886 1.96345 1.88864 1.8762 1.77091 1.75031 1.74163 1.71055 1.70186 1.69057 1.47853 1.47462 1.68458 1.4443 1.39918 1.29153 1.24087 1.24007 1.22931 1.197
threshold=0 1 2.5000000000000004 2.5000000000000004 2 11.500000000000002 -3.9272066354751582 3 66.500000000000014 4 5 -3.3885371685028072 152.50000000000003 52.500000000000007 -0.45293220877647394 149.50000000000003 98.000000000000014 0.059639483690261848 2.5000000000000004 1.5000000000000002 174.50000000000003 52.500000000000007 51.500000000000007 2.5871489048004155 -3.1556783914566036 -1.7538781762123106 -1.5083475708961485 125.50000000000001 99.500000000000014 192.50000000000003 -0.42178732156753534 0.1728717237710953 -0.83411777019500721 7.5000000000000009 2.6642392873764043 21.500000000000004 12.500000000000002 1.5000000000000002 6 7 -1.3466199040412901 96.500000000000014 158.50000000000003 -1.6523162722587583 186.50000000000003 72.500000000000014 52.500000000000007 1.5000000000000002 11.500000000000002 -1.6108979582786558 -1.7881677150726316 2.0175670385360722 4.8294827938079843 72.500000000000014 51.500000000000007 -1.2480642795562742 -0.95084267854690541 2.3035955429077153 9.5000000000000018 19.500000000000004 -2.467965722084045 198.00000000000003 -1.2557244896888731 138.50000000000003 -2.9879568815231319 4.1810121536254892 -2.9732683897018428 20.500000000000004 4.5468008518219003 1.4034335613250735 98.000000000000014 1.5283008813858034 2.3885006904602055 -1.4615721702575681 2.4312624931335454 1.5000000000000002 -3.3305809497833248 -2.1348810195922847 -1.8086330890655515
decision_type=9 1 2 2 1 2 2 1 2 1 1 2 2 2 2 2 2 2 2 2 2 2 2 2 2 2 2 2 2 2 2 2 2 2 2 2 2 2 1 1 2 2 2 2 2 2 2 2 2 2 2 2 2 2 2 2 2 2 2 2 2 2 2 2 2 2 2 2 2 2 2 2 2 2 2 2 2 2 2
left_child=1 2 4 8 5 18 38 11 13 14 37 -5 22 39 27 19 62 55 53 21 30 -7 24 35 78 57 50 49 -19 31 -14 -17 41 70 36 -24 -16 58 74 40 -3 76 -43 -22 -28 46 -20 -47 -15 -8 -27 72 61 54 -1 -18 -53 59 -10 -12 -29 -34 -13 -21 -64 -32 -45 -42 -50 -26 -9 -72 -35 -25 -4 -55 -11 -59 -6
right_child=-2 3 6 7 12 15 9 33 10 32 25 16 20 48 34 29 17 28 45 63 43 -23 23 73 69 26 44 60 -30 -31 65 -33 52 51 -36 -37 -38 -39 -40 -41 67 42 -44 66 -46 47 -48 -49 68 -51 -52 56 -54 75 -56 -57 -58 77 -60 -61 -62 -63 64 -65 -66 -67 -68 -69 -70 -71 71 -73 -74 -75 -76 -77 -78 -79 -80
leaf_value=0.00028817098050552359 0.010818563294095303 -0.0003825730843502079 0.00059406733514604068 -6.6560709832720407e-05 -0.00033805003863692016 0.00039483001538382696 0.0012207615986433702 -2.9570119509383407e-05 -0.00026610860018551292 -7.1203752974323367e-06 -0.00021965865032874947 0.00030496899799898383 1.241506260525359e-05 -0.00038231863254068198 0.00078093229269772827 0.00037924605271941626 0.00063844443812811284 0.00080099209823122301 0.00013416072394093059 7.6744944465893306e-05 0.00010963092945746307 0.00024601000057651476 -0.00013477951508140108 0.00020048569174655921 4.4589780136672286e-05 0.0001755126061584839 -0.00018905416198901226 0.0015129948126085134 7.8475165708588503e-05 0.00010762198843913167 0.00020654007265501616 0.00057673538883585109 0.00065989856206267268 -0.00015067921364639059 1.1525134213817054e-05 -0.0002668775310655875 0.0010559328290122945 -0.00040422011557405928 0.00022138723095981006 -0.00036288322561118727 -0.00022448518446152596 0.0010483663368984239 0.00063208246493501666 0.00017523725341622929 -0.00037423439394734532 0.00016862526535585 -3.6997025536358095e-05 -7.6083652249965715e-06 -0.00046720018734947987 0.00092443419300747114 -8.6051600989367572e-05 9.0030793672642991e-05 8.8166996810496798e-05 0.00031575324184463546 4.4574252720772339e-05 0.00043085613079816307 -0.000133254787147234 6.8602994363692966e-05 -0.00033317737682647474 -0.00031373591169656339 0.0012503035509488479 0.0015886313450468865 0.00077306723355593469 -0.00048389680110785268 6.4616448509099481e-05 -1.2732505888732612e-05 -0.00011768118932899344 -0.00033131369412704335 -0.00033904576276204803 -5.1362382262889718e-05 0.0001484669479335188 -0.00021949421535208806 9.8563482614599283e-06 -8.0435358668355925e-06 -0.00023950884977965884 0.00012854269354695602 0.00068720376367875549 -0.00038588934088975874 -0.00015788259840891837
leaf_weight=19074.739003128969 13840.596419161186 52281.01864994748 4780.6967906857171 10458.232432354591 5150.8195459258568 50492.107719074877 4932.3149378286471 9408.0398081551975 77340.430092521347 242.36631892304285 88571.000752696564 6342.7233695040049 23062.524335595823 75160.990527085145 9215.3651958487608 26242.243087176787 11677.904763588012 1088.55346566753 43417.680808320671 13044.408196759439 8267.9138006790017 85855.691524399619 126371.65075906708 3445.1945086071937 67718.854067573629 3821.2491401548614 65679.210980213466 4870.6271102152969 7361.9795197937347 3975.9482335398498 34844.418291394119 18980.75159044101 17229.552016562186 29141.832848630045 493.98084310143895 23829.742537649363 8947.6083350348781 41903.183260299062 6293.5542778718373 137612.43245903356 73143.747020108465 9279.9685724516166 2746.0839751842286 2111.8780387046281 9377.4494487834891 56249.234423809306 38324.37067313453 11200.577620536395 124784.196926452 8139.5003327742888 37485.694514946488 13205.497151546355 751.39358195435489 25445.588740248306 17624.768315183537 9900.7687886469794 6394.9159938329394 580.81674076555646 118854.31403740121 32164.683615611648 9843.5219250593509 237.34029848413775 362.93956336763222 584.21847852884093 10965.206650854103 3947.2872455408506 29333.849966269074 19426.92330646723 11896.231072391311 20968.755982047252 17800.787838017437 1315.8562155439431 6795.9312861781073 47916.668405747463 175.38603383651935 4338.9202889862208 4581.1560353920504 15000.955422112995 14702.65424733964
leaf_count=310394 212156 853043 77340 170190 84514 821030 79901 153769 1260148 3926 1441798 102776 375161 1224826 149858 427160 190195 17778 706173 212348 134062 1396001 2055370 55503 1102087 62084 1069289 79096 119199 64414 566702 307346 279828 474647 8023 388309 145085 683397 102103 2243639 1190252 150589 44703 34068 153556 914136 624140 182530 2032943 131848 609755 213901 12066 413612 285881 161613 103979 9496 1932606 523600 160196 3788 5759 9624 178214 64586 477174 316085 192987 340517 289148 21525 110126 780002 2746 70462 75097 244281 239236
internal_value=0 -7.2715e-05 0.00016592 -0.000267322 8.69869e-05 0.000221438 0.000869136 9.51308e-05 -0.000319664 0.00093751 -0.000266836 0.00026563 -4.8483e-05 -0.000372095 0.00107503 0.000317025 0.000338728 0.000439661 0.000133128 0.000278614 5.1863e-05 0.000301197 -8.1383e-05 -0.000114588 -1.9628e-05 -0.000212939 -0.000158913 0.00119686 0.000172813 0.000433905 0.000120168 0.000462367 0.00075455 -2.27397e-05 0.00089357 -0.000155805 0.000917007 -0.000323968 0.000372792 -0.000328641 -0.000295993 0.000867827 0.000954202 -5.42716e-05 -0.000212328 9.24786e-05 5.37924e-05 0.000139212 -0.000429986 0.0010371 -6.16089e-05 -7.16165e-05 0.000649608 0.000224192 0.000171462 0.000543686 1.66674e-05 -0.000258999 -0.000306791 -0.000244807 0.00133804 0.000673181 0.000166626 5.19445e-05 8.82632e-05 0.00018397 -9.7686e-05 -0.000247016 -0.000456122 2.17904e-05 7.20652e-05 0.000122606 -0.000120044 5.7529e-06 0.000561377 0.000288822 0.000650249 -0.000368303 -0.000205144
internal_weight=0 2.04659e+06 919284 1.12731e+06 826523 414851 92760.4 142221 985085 81510.8 490779 58158.3 411672 494306 46442.9 199175 47700.1 30029.2 215676 149976 101568 136348 310104 201563 108541 252681 116364 27786 8450.53 49198.9 61854.2 45223 35067.9 84062.9 18657 150201 18163 238098 11249.6 282464 144852 16849.6 12026.1 39713.6 75056.7 149192 81742.1 67449.8 211841 13071.8 41306.9 55538.2 18218.3 66484 36699.5 21578.7 19600.4 136317 196195 120736 14714.1 17466.9 17670.9 13628.6 11328.1 38791.7 31445.7 92570.7 136680 88687.6 28524.7 19116.6 35937.8 51361.9 4956.08 29784.5 4823.52 15581.8 19853.5
internal_count=33517495 33305339 14948735 18356604 13442542 6745251 1506193 2312819 16043785 1324004 7990010 945724 6697291 8053775 754007 3237923 775534 488785 3507328 2439003 1651753 2217031 5045538 3279184 1766354 4113859 1894684 451041 136977 798920 1006449 734506 569997 1367095 302966 2443679 294943 3876151 182189 4603019 2359380 274315 195292 645304 1222845 2426979 1330313 1096666 3450756 211749 671839 902653 295682 1080349 596275 351808 317880 2219175 3192754 1965398 239292 283616 286749 221972 183973 631288 511242 1506337 2225930 1442604 464442 310673 584773 835505 80086 484074 79023 253777 323750
cat_boundaries=0 1 2 3 4 5 6 7 8
cat_threshold=2 5 4 2 4 8 4 2
is_linear=0
shrinkage=0.01


Tree=9
num_leaves=80
num_cat=1
split_feature=3 1 2 7 8 7 1 10 6 11 7 7 10 6 2 7 5 6 10 10 2 5 8 10 2 11 9 5 2 8 7 9 10 8 7 2 10 5 2 5 5 10 11 6 2 11 7 9 6 2 5 10 10 10 8 1 5 7 6 2 2 8 11 11 9 10 7 8 10 8 9 5 9 5 10 8 2 11 10
split_gain=15796.9 601 50.5938 49.6684 30.7403 21.4747 16.6446 16.2366 13.2939 11.1204 9.03861 7.69485 6.69589 6.66085 6.35958 5.41246 5.4248 5.31191 4.97419 4.71249 4.37189 4.27384 4.22404 4.04148 3.63699 3.3524 3.2833 3.0941 2.95024 4.07943 2.88074 2.8173 2.71719 2.59272 2.5664 2.54253 2.39287 3.32613 2.284 2.19876 2.1948 2.49539 2.14842 2.14559 2.08179 1.97818 1.81058 1.78931 1.77095 2.01835 1.74918 1.74903 1.92586 1.71493 1.64183 1.57567 1.55815 1.55384 1.63647 1.57086 1.51711 1.40115 1.33075 1.32695 1.30036 1.88178 1.24919 1.72006 1.24686 1.18943 1.188 1.14178 1.11908 1.11059 1.09226 1.01323 0.974355 0.972906 0.872144
threshold=0 2.5000000000000004 152.50000000000003 -0.31128701567649836 -1.5351376533508299 0.28743803501129156 1.5000000000000002 2.3935645818710332 -2.3098556995391841 0.32410115003585821 -0.96913570165634144 2.5624091625213627 -1.1023603081703184 3.2235233783721928 52.500000000000007 -1.7136647701263426 0.31627905368804937 -2.2488816976547237 1.6237636804580691 -2.0513637065887447 193.50000000000003 -3.1984555721282955 1.929531514644623 -0.060880914330482476 98.000000000000014 -1.9515774250030515 0.81832903623580944 4.5830094814300546 173.50000000000003 -1.5646873712539671 -2.1141477823257442 4.433143377304078 0.53081634640693676 0.87978833913803112 0.089174471795558943 114.50000000000001 1.3368799686431887 -1.2113193273544309 155.50000000000003 5.891320228576661 -2.3635500669479366 -2.141613125801086 -1.0573480725288389 4.9815435409545907 125.50000000000001 -0.37454758584499354 0.26799887418746954 -0.29435977339744562 -1.6108979582786558 52.500000000000007 -2.3448803424835201 -2.9879568815231319 -1.5511401295661924 -3.7539029121398921 3.2669200897216801 1.5000000000000002 -0.61660721898078907 2.7661798000335698 2.5871489048004155 190.50000000000003 185.50000000000003 3.6857526302337651 -0.65549707412719715 -1.6397832036018369 -0.52946090698242176 1.5562866330146792 -1.7435967922210691 -1.6404677033424375 -0.65066784620285023 -0.24022221565246579 -1.5632524490356443 6.5223786830902108 -0.37873353064060206 -2.679182648658752 -2.2883344888687129 -2.2615025043487544 86.500000000000014 1.7097688317298891 1.3368799686431887
decision_type=9 2 2 2 2 2 2 2 2 2 2 2 2 2 2 2 2 2 2 2 2 2 2 2 2 2 2 2 2 2 2 2 2 2 2 2 2 2 2 2 2 2 2 2 2 2 2 2 2 2 2 2 2 2 2 2 2 2 2 2 2 2 2 2 2 2 2 2 2 2 2 2 2 2 2 2 2 2 2
left_child=1 2 4 7 25 9 10 12 18 27 35 19 24 14 -12 22 23 -18 21 44 36 42 26 -17 63 48 -14 28 29 -4 55 38 46 50 -35 43 39 -38 74 -11 41 -26 69 -6 61 -15 -32 -46 -1 -50 -21 -23 -53 -42 -30 56 -27 59 -59 -40 -44 -10 -34 -3 65 73 67 -29 -24 -5 -65 -68 -8 -13 -7 -51 -9 -37 -66
right_child=-2 3 5 8 6 31 72 76 11 20 13 64 15 45 -16 16 17 -19 -20 33 -22 51 68 -25 40 30 -28 66 54 -31 32 -33 62 34 -36 77 37 -39 57 -41 53 -43 60 -45 47 -47 -48 -49 49 75 -52 52 -54 -55 -56 -57 -58 58 -60 -61 -62 -63 -64 70 78 -67 71 -69 -70 -71 -72 -73 -74 -75 -76 -77 -78 -79 -80
leaf_value=-0.00022415291593726649 0.01061153972066901 0.0010577877803787385 0.00018979835819304692 -0.00030010729455187766 -4.803730743542756e-05 0.00061084620504886034 -0.00017901257717005354 0.0004016819644246618 0.00038801467908239909 6.4439685419450822e-05 -0.00012008259745170662 0.00050086086756016422 0.00049773288092311524 -0.00010618661648146588 -0.00018725717906981632 0.00050122690414539171 0.0011238737469501723 0.00049697931992260592 -0.00023911855966350179 -0.00027282791061028223 -0.00022037568034845507 -0.00071328393613552857 0.00058895441262628322 0.00019379547216334065 0.0010937279937336219 -7.2651916453585579e-05 0.00086483464337754794 -0.00045587630673684743 -0.00011741367576503067 -1.7507739076879995e-05 -0.00019268458887937101 0.00015833413852363795 -0.00023639850260095204 0.00061873703759382699 0.00037028848994503086 -0.000353487585741905 7.1711799913662481e-05 0.00035799148436321435 -0.0001338483370530318 0.00061112282176892219 0.00019009433865452459 0.00072793423506911181 0.00010667008866805287 -0.00012466376646698646 0.00076798719263089813 -1.3578289809375094e-05 -0.0002576546438064055 0.00032813118861631664 0.00019243138985353605 -0.00020092399457749134 0.00028465541090848544 0.00074967035572392148 0.00031150201311541491 0.00067881211625581725 0.00010741327993953479 -0.00030535139303461162 -0.00021746137653589403 -0.0003674169271767081 -0.00017383980217979914 -0.00023308060141681363 0.00034018357057512348 0.0012151935080307445 -0.00031978458138335014 0.00059170902720774652 0.0003519971309246169 0.00081813493937806761 -0.0001806789346056698 -2.5625077078798567e-05 0.0010089732327647569 3.9600147062366063e-05 0.00030210803357775737 8.6578783895564803e-05 -0.00026101551685136045 4.4520246876916832e-05 -3.9288337420041113e-05 6.3835291457507571e-05 -0.00027072263966434736 0.00015485146921075511 -0.00068094230923040997
leaf_weight=6926.1427904176526 13934.298556761816 362.99325817101635 10432.055164398727 1819.3792009338213 190160.31821483187 264.40489965476445 21183.63968540536 224.83734166409704 5601.0627368815622 104529.12600070695 298507.74354815611 566.05276551275165 16188.351773757095 46836.588445996284 269432.47225195926 6994.5305103103892 1661.9509515088575 8223.1455092347605 3387.6066766821896 556.41985843236034 4818.3500596657395 142.91209068219177 1085.0312004371808 11451.553818494562 2964.1542766005005 17800.212133361114 2984.995880891569 992.9862330952601 37213.668252986725 105214.95723112742 65131.481479873852 2602.9847870858503 26516.99980694025 4986.7332927228126 30747.825068592341 4002.0432384695014 9371.0015681432269 7309.9812152127997 48984.072941376566 744.57907744524709 793.60242874102551 6115.799138959017 22466.931764579 45562.49329117348 5393.7845044940041 45996.344054436893 135877.89100929693 1224.0356508319528 3164.9841670712776 4438.9482076691347 25555.880183248752 1217.8483115313429 7224.9198947232217 32711.799727071193 3511.5053595542267 6703.3204130077211 13137.9411043906 9083.799827032155 8971.1045649599691 24415.422969377192 3240.1788356210163 225.11632711809943 81575.738016383766 2474.9589350366441 2986.907902516381 345.94126617578149 24703.142416515751 15688.319629429621 3248.982544761122 2276.4494478207635 3919.2512257963099 1656.2576035592938 96883.299354717077 11210.900425444604 8645.5558577160846 2070.6665110721515 2381.6679228101275 386.2135509763757 76.73263899673475
leaf_count=112875 212156 5881 169566 29396 3095353 4344 345012 3777 90611 1697503 4861612 9208 262434 761981 4383894 113566 26789 133515 54831 9126 78514 2345 17779 186101 48011 289463 48432 16084 605899 1711523 1060378 41970 432609 80984 499502 64988 152477 118489 798064 12142 12803 99069 365246 741164 87715 747633 2212986 19886 51731 72136 416520 19705 117352 530897 57024 109384 214458 148328 145654 397545 52727 3706 1327577 40425 48794 5626 402554 256099 52948 37320 63520 27034 1580027 182416 140707 33298 38777 6248 1272
internal_value=0 -7.16654e-05 -0.000133399 0.000404067 -0.000162848 -3.852e-05 -0.000134666 0.000567633 0.00027465 1.194e-06 -0.000120012 0.000343482 0.000587734 -0.00013912 -0.000151968 0.000507549 0.000413381 0.000603492 0.000126979 0.000385485 7.44538e-05 0.000159551 0.000620593 0.000310933 0.00067176 -0.000241854 0.000555449 -4.53296e-05 -2.45831e-05 1.10753e-06 -0.000248521 -0.000164424 -0.000258637 0.000349323 0.000405255 -6.73853e-05 8.61861e-05 0.000197779 -0.000172896 6.8407e-05 0.00070639 0.000848556 0.00010244 -6.28912e-05 0.000564368 -6.04099e-05 -0.000236654 0.000688204 -0.000101998 -1.34991e-05 0.000272383 0.000356596 0.000375972 0.000667541 -9.77804e-05 -0.000165177 -0.000134474 -0.000187798 -0.000271801 -0.000166996 0.000136504 0.000421895 -0.000299423 0.000451957 0.000137338 8.9659e-05 -0.000120469 -5.18618e-05 0.000906287 -0.000108894 0.00041584 -0.000163504 -0.000246389 6.73437e-05 -1.88069e-05 -0.000115173 -0.000208754 -0.000306445 0.000322649
internal_weight=0 2.04649e+06 1.81145e+06 235041 1.3823e+06 429153 1.01895e+06 103788 131254 326186 900884 89477.4 101181 660773 567940 51838.5 28331.2 9885.1 41776.2 74290.9 126773 38388.6 23507.4 18446.1 49342.6 363344 19173.3 199413 156372 115647 346744 102967 309102 61846.9 35734.6 240111 121955 16681 100364 105274 42585.4 9079.95 29802.9 235723 12444 92832.9 201009 6617.82 16600.7 9674.6 26112.3 8585.68 8442.77 33505.4 40725.2 37641.5 30938.2 91454.4 18054.9 73399.5 25707.1 5826.18 108093 6757.2 15186.5 12122.9 43040.7 16681.3 4334.01 4095.83 6394.21 26359.4 118067 11777 8909.96 6509.61 2606.51 4388.26 3063.64
internal_count=33517495 33305339 29486327 3819012 22504807 6981520 16587912 1684724 2134288 5304908 14662873 1455366 1642170 10755120 9245506 841564 459971 160304 678922 1208050 2059125 624091 381593 299667 800606 5916895 310866 3245783 2544012 1881089 5646855 1676612 5033550 1006132 580486 3907753 1980611 270966 1634642 1709645 690780 147080 484689 3836517 201918 1509614 3273364 107601 270040 157165 425646 139402 137057 543700 662923 613305 503921 1489591 293982 1195609 417973 94317 1760186 109826 247316 197250 701771 272183 70727 66716 103945 429588 1925039 191624 145051 105434 42554 71236 50066
cat_boundaries=0 1
cat_threshold=2
is_linear=0
shrinkage=0.01


Tree=10
num_leaves=80
num_cat=8
split_feature=3 0 1 1 0 7 4 0 0 7 7 7 8 0 8 0 8 7 8 0 6 7 8 4 5 4 8 7 1 8 4 4 4 8 1 8 4 4 4 8 7 6 5 6 7 4 7 4 8 4 4 11 4 6 1 5 8 11 6 4 8 6 8 9 8 8 8 5 11 4 1 6 9 7 5 8 8 5 5
split_gain=15516.7 967.784 495.475 199.979 145.922 41.5052 36.2254 26.6151 19.2985 17.8123 17.508 16.747 12.5482 11.3406 11.1833 9.46236 9.3875 8.51346 7.3582 6.44203 6.14882 6.11075 6.04533 5.5582 5.30441 5.19557 4.89995 4.80284 4.5237 4.29186 4.27257 3.96226 3.93085 3.87224 4.00762 3.72844 3.50872 3.52636 3.49297 3.4024 3.16463 2.59556 4.64355 2.49341 2.473 2.45653 2.44811 2.44698 2.25506 2.2473 2.79476 2.23616 2.15754 2.12127 2.11001 2.06116 2.1608 1.97933 1.96929 1.92722 1.91679 1.89386 1.86503 1.8399 1.81293 1.77808 1.77574 1.77214 1.76299 1.73373 1.72501 1.6751 1.6487 1.56662 1.50675 1.50275 1.46879 1.31773 1.29909
threshold=0 1 2.5000000000000004 2.5000000000000004 2 0.06146026402711869 11.500000000000002 3 4 -0.74577468633651722 0.24644760787487033 -0.74577468633651722 -1.0942041873931883 5 0.19894533604383471 6 -1.0439457297325132 -1.2370325326919553 -2.1131005287170406 7 -2.5900564193725581 -1.6715179085731504 0.41449308395385748 13.500000000000002 -0.7068958282470702 4.5000000000000009 -0.44583487510681147 -0.31128701567649836 1.5000000000000002 -0.32744061946868891 19.500000000000004 11.500000000000002 18.500000000000004 -2.5398432016372676 1.5000000000000002 -2.1131005287170406 5.5000000000000009 15.500000000000002 3.5000000000000004 -1.4720935821533201 -1.6142339706420896 1.2205745577812197 4.0242977142333993 -2.2775751352310176 2.5624091625213627 17.500000000000004 1.2314585447311404 6.5000000000000009 0.46272164583206182 4.5000000000000009 14.500000000000002 -0.83278852701187123 10.500000000000002 -2.3798462152481075 1.5000000000000002 -0.12786456942558286 -0.13514269888401029 -0.34768101572990412 -3.2118642330169673 12.500000000000002 0.66674003005027782 -1.6877285242080686 -0.10519462823867796 -0.71049344539642323 -2.2271429300308223 2.591915607452393 -0.13514269888401029 0.42649480700492864 1.5699952840805056 10.500000000000002 1.5000000000000002 -2.7029128074645992 -0.50180464982986439 -4.516246795654296 -1.0514292716979978 3.452889204025269 -0.25343579053878779 -2.2248984575271602 -1.2381008267402647
decision_type=9 1 2 2 1 2 2 1 1 2 2 2 2 1 2 1 2 2 2 1 2 2 2 2 2 2 2 2 2 2 2 2 2 2 2 2 2 2 2 2 2 2 2 2 2 2 2 2 2 2 2 2 2 2 2 2 2 2 2 2 2 2 2 2 2 2 2 2 2 2 2 2 2 2 2 2 2 2 2
left_child=1 2 4 9 6 13 17 10 23 15 24 35 45 31 33 18 49 38 73 52 62 76 53 43 26 39 -5 69 57 -25 51 55 47 -8 -35 -6 -37 -38 60 -19 -28 42 -21 -7 66 78 -45 -18 71 -13 -51 -20 -14 -23 59 56 -4 -16 -12 -17 -1 -26 -10 -29 -40 -31 -22 -24 -57 -9 -27 -33 -63 -3 -56 -65 -15 -43 -11
right_child=-2 3 5 7 11 8 14 27 20 12 58 16 19 21 28 54 32 25 30 41 44 22 67 29 61 70 40 63 -30 65 -32 48 -34 34 -36 36 37 -39 64 -41 -42 77 -44 46 -46 -47 -48 -49 -50 50 -52 -53 -54 -55 74 68 -58 -59 -60 -61 -62 72 -64 75 -66 -67 -68 -69 -70 -71 -72 -73 -74 -75 -76 -77 -78 -79 -80
leaf_value=0.00025167126712125591 0.010473219629319087 0.00051312213099735573 0.00058089763413977425 -6.6581909861014674e-05 -0.00011770318214235223 0.00047069807666149928 0.00011945533974734499 0.00011806128699720793 -5.1687634307467318e-05 -0.00035864382109064775 -6.9464018693851301e-05 -0.00031299543694860414 -0.00032317737925409814 0.00082614803174152528 0.00036294365398998159 -0.00026503041665286957 -0.00010875814038924913 3.5540804249420304e-05 -0.00025123404680120606 -0.00034160295128055128 0.0003413489899918133 -7.181879260723822e-05 0.00076550381852309105 0.00056306738229784583 0.00070329792794711712 4.2428759921116052e-05 0.0005597698141637477 -4.9385746481359713e-05 0.00017653012172592458 0.0010034025584942502 -0.00027656380319524785 0.00052542596338600144 -0.0001145050580499373 0.00030549360920718762 0.00010606537042982071 -8.4486933192593489e-05 0.00014019749035900603 2.999131777069794e-05 -0.00013231842109100446 0.00017966919418144892 0.00025234157517396591 -0.00030382885661065916 -0.00022584158945021909 0.00098844840312511083 0.00028080524889469405 -0.00047332004380165604 0.00064879101412260805 1.0798684792291991e-05 0.001442154805545291 -7.7729455002249108e-05 -0.00019546320939640947 -0.00014441638429157262 -0.00039304073597859479 0.00050847793660081808 -0.00044919689444414669 0.0012022550299783002 0.001049111186592239 0.00047031117162399654 0.00011930156159339309 -0.0003394424948831256 0.00042672830988097193 0.00053419485058903116 0.00029686389268538093 -0.00021449977746251464 0.00018202499239202213 0.001332714043753649 0.00068098108791895249 0.0011078799506177956 0.0026242615690917205 -1.4200848350955175e-05 -0.00012573241013460367 0.0012162901185442275 0.00013328144114704919 -0.00041132552620103515 -0.0003059296250435108 7.2329513715203858e-05 0.0011567999418293584 -0.00019914722112443985 -0.00042043912883626787
leaf_weight=18054.465865247534 14050.869284664746 174.70332095392223 1330.1845021599438 2946.4552561776509 12893.382134786691 3708.3431461636937 17692.675029976162 19048.830019818997 2063.5936055492057 63278.965037852395 7419.1759074290603 9688.0794876653963 80230.193843149871 1993.0052800939302 28163.85810005416 76403.27763207414 20890.749106370422 22121.163112499678 24578.388516733175 109089.47551167574 2002.4162247536296 809.38783287140541 4859.0992861834238 1975.7176692648645 6118.8481081795617 56897.845814251123 5801.3033221644873 26941.960429543702 7802.0545094989502 7534.3804903759737 47243.959048382618 440.94749558891635 53688.947235996049 84564.029737051183 11624.060837379555 14835.323173854544 51906.242012737697 66560.522650450454 1899.7179088912089 65200.714657447767 8388.1018044113152 17095.122559473763 51777.69863266834 3764.5516914455366 2759.2101804034319 55613.694758408645 5672.9365212800476 94337.859744753325 8491.986475649639 32703.191782220165 54095.84089267641 104239.00431730003 106278.84784512091 2446.1768940931652 18977.338912549691 5841.5378216657118 5653.3674223533744 49374.786874911151 21067.786709660533 67736.440730189817 10066.024560221835 5063.7336815916497 5515.7041268863104 15688.858442646582 34513.901941800214 2451.8913496144378 9370.7105786145694 2541.4926690249413 100.81664625846315 20413.842924522425 6810.084372643556 4466.361274933879 1376.4194677497144 18895.366705472305 13039.22583969566 2010.3887211484689 7011.2693005632027 45747.892266771669 84174.222919319131
